720 100
11 -0.18322098 0.014228167 -0.18690659 -0.057144124 -0.1128084 0.10993451 0.23139726 -0.00027075267 0.10314537 0.26865518 0.06634045 0.111984976 0.16841656 -0.23831116 -0.023245892 -0.014067884 0.058052678 -0.06133534 -0.103186294 0.1524037 0.07214661 -0.12043889 -0.21131547 -0.05108504 -0.07361534 0.0033871317 -0.09837073 0.01283551 -0.16953005 0.19322602 0.06948654 -0.16874906 -0.07357868 0.079470396 -0.22470286 0.01580736 0.2627131 0.22561441 0.017088935 -0.008889795 -0.16536763 -0.06083034 -0.23343323 -0.055364694 -0.0044875215 -0.2375285 0.18198256 -0.12489296 0.009282661 0.20500456 -0.19600919 0.05173764 0.16564298 -0.1216173 0.057764042 0.071612224 -0.0005074729 0.0765547 -0.24222578 0.016898688 -0.11905358 0.00019016094 -0.05294276 0.030834233 -0.21053539 0.18198204 -0.098741144 0.045224976 0.079955734 -0.33352023 -0.026784545 -0.27054498 0.24077705 0.21749237 -0.01988029 0.07843982 -0.10945148 -0.07814539 0.21963127 0.1429893 -0.23270485 -0.018206274 0.041221224 -0.0700191 0.042554438 0.188834 -0.1448387 -0.21522792 -0.11378266 -0.033836037 -0.06340472 0.039780427 0.14044276 0.07835725 0.08827203 0.15267152 -0.30894873 0.18526712 -0.14690618 0.0634108
12 -0.20119292 -0.027931191 -0.24751039 -0.086378835 -0.12178613 0.11332571 0.23846605 -0.020670157 0.06683233 0.25552428 0.11583967 0.08803481 0.16521426 -0.17505361 -0.013969293 0.016650673 0.045708332 -0.085973404 -0.15199009 0.20490728 0.062015448 -0.16293302 -0.21855912 -0.04745372 -0.1368026 -0.07699023 -0.029758723 0.029423114 -0.12901299 0.18076003 0.0040449193 -0.20360415 -0.061018452 0.108312786 -0.2151923 -0.031413216 0.22895621 0.20719045 0.03889226 0.06323848 -0.1542267 -0.01183717 -0.2257902 -0.03436501 -0.0299981 -0.18837161 0.2139263 -0.11353103 -0.009017483 0.17128944 -0.14376615 0.023050662 0.18430413 -0.074055165 0.01679599 0.025531132 0.012062673 0.02160633 -0.16127762 0.058976825 -0.1384953 -0.047545195 -0.071950175 0.08800159 -0.13397436 0.17545065 -0.060776066 0.049023103 0.07938475 -0.28675902 -0.047913514 -0.16877213 0.21490434 0.23348887 0.019193966 0.12045565 -0.12120188 -0.06867444 0.18002816 0.14955764 -0.18628636 -0.018844664 0.072430834 -0.08525426 0.059747826 0.23471667 -0.116479784 -0.17874084 -0.11306301 -0.076353714 -0.06117946 0.006139288 0.16987434 0.06617311 0.006862472 0.17917508 -0.2896309 0.14169401 -0.088317335 0.025667133
15 -0.18367583 -0.009890568 -0.19546136 -0.098396674 -0.13664095 0.08779832 0.20498478 -0.009598721 0.102599315 0.22809891 0.09891682 0.09407674 0.141165 -0.18562298 -0.016922288 -0.015307873 0.092904925 -0.062065866 -0.13911192 0.18766241 0.034624707 -0.13947545 -0.20121032 -0.06323523 -0.12649041 -0.031719875 -0.047733534 0.0074097696 -0.13897763 0.19158378 0.005550173 -0.14351305 -0.06624066 0.063077524 -0.20652261 0.001137275 0.2602055 0.19884495 0.0359825 0.009898026 -0.15969542 -0.02848019 -0.22657628 -0.061439615 -0.008343783 -0.21273415 0.22308077 -0.0935126 0.022623932 0.20712176 -0.16909671 0.037392646 0.16768791 -0.06522175 0.04125742 0.047193345 0.023480957 0.062446684 -0.18513867 0.062511 -0.13254857 -0.00220162 -0.04587275 0.0836681 -0.1491495 0.15753296 -0.056987353 0.03274802 0.058879443 -0.29111442 -0.05557444 -0.20420974 0.24711333 0.24019895 -0.01806059 0.112091325 -0.08564195 -0.06877463 0.19964865 0.14239395 -0.19214186 -0.018246122 0.07556204 -0.05450705 0.025498671 0.18841657 -0.11032225 -0.1923767 -0.11339136 -0.060300596 -0.0379506 0.009667276 0.13534954 0.0813474 0.022223154 0.18398854 -0.26667294 0.15294458 -0.08501866 0.07879647
17 -0.15506159 0.019821398 -0.21052137 -0.10176285 -0.1350097 0.083075285 0.1861484 -0.014512485 0.11022542 0.20547836 0.09915245 0.11916985 0.1408177 -0.16604227 -0.032583993 -0.017236304 0.0879598 -0.06884324 -0.16368382 0.17314321 0.039721128 -0.12507941 -0.21180378 -0.06591027 -0.13202399 -0.04907945 -0.070058405 0.004758003 -0.13504504 0.17528442 0.026283337 -0.116759665 -0.06802009 0.080428086 -0.21208526 0.011861929 0.2453524 0.19923806 0.022524834 -7.015784e-06 -0.15041198 -0.021384267 -0.23136994 -0.038562406 -0.02123725 -0.18955664 0.20797765 -0.08583996 0.04181998 0.19539453 -0.19180241 0.05019099 0.15742818 -0.059004445 0.042298663 0.07251057 0.004771396 0.08099545 -0.20989636 0.07113461 -0.13672608 0.0066481098 -0.027864179 0.05533659 -0.14782469 0.122335516 -0.0846764 0.034855396 0.0675033 -0.29635438 -0.050226342 -0.21371983 0.23736495 0.22927913 -0.029531833 0.10953581 -0.091623016 -0.071161084 0.21658184 0.14432402 -0.20753285 -0.02433867 0.06634033 -0.06350664 0.0044966177 0.1881747 -0.12413557 -0.21263918 -0.13965195 -0.05927502 -0.04647975 0.03639643 0.1320313 0.0728106 0.021255033 0.17054518 -0.26558757 0.17484738 -0.06834201 0.06769833
18 -0.22160088 -0.046943832 -0.28889537 -0.0968026 -0.10972371 0.1197886 0.22368966 -0.011192712 0.053955693 0.23519696 0.12849161 0.07157308 0.13080756 -0.17228106 -0.005042012 0.0058849524 0.045533773 -0.08330116 -0.157787 0.21840015 0.054357667 -0.1786995 -0.19606552 -0.08180933 -0.120482504 -0.10185271 -0.009464799 0.017247105 -0.12888701 0.14470719 -0.026126327 -0.20546563 -0.05488362 0.0744067 -0.20841314 -0.078229494 0.1987562 0.20682457 0.046263725 0.08865977 -0.1520356 -0.001187112 -0.18939377 -0.03555281 -0.06749732 -0.16853645 0.2412673 -0.089830086 -0.024077982 0.12077497 -0.13916518 0.028225448 0.20086786 -0.096883655 -0.01758777 0.05529651 0.020929605 -0.019693298 -0.13576378 0.092443876 -0.18795286 -0.06597694 -0.11475225 0.12662247 -0.13931103 0.16560738 -0.06208692 0.030904802 0.086481154 -0.28913215 -0.08004449 -0.13535671 0.1842006 0.24630532 0.03525739 0.107125066 -0.11148457 -0.08943963 0.15519767 0.148711 -0.18620527 -0.016570365 0.07517997 -0.0991622 0.05267545 0.25778553 -0.10462659 -0.15744781 -0.10961862 -0.08034388 -0.068156555 0.014342136 0.16787376 0.04373065 -0.028397098 0.16449393 -0.2714192 0.10952951 -0.065480985 0.007000503
19 -0.10462753 -0.008258605 -0.23473932 -0.11391381 -0.1445265 0.11155399 0.15432039 0.004035183 0.108939655 0.17640884 0.09309211 0.10618184 0.072057694 -0.14269753 -0.028462444 -0.07240955 0.11501725 -0.068724245 -0.15202685 0.15623136 0.038318165 -0.10720434 -0.18647566 -0.107426524 -0.13778882 -0.0397423 -0.09535799 -0.014191154 -0.11300393 0.16527128 -0.010140366 -0.0701267 -0.05053267 0.0064805318 -0.23445296 0.0041251304 0.26122487 0.19441275 0.026975501 -0.01585601 -0.13290115 -0.042280197 -0.20238449 -0.06581754 -0.012518234 -0.18461603 0.1725395 -0.08693533 0.07163835 0.1558187 -0.23404264 0.077272706 0.1740555 -0.10247187 -0.0018311216 0.11795071 -0.032124516 0.0857375 -0.24942979 0.074916676 -0.15432304 0.046393793 -0.02930494 0.07755224 -0.17844069 0.058272112 -0.08290806 0.04777167 0.054753706 -0.30031225 -0.10097623 -0.23258075 0.2701268 0.24348515 -0.06617483 0.09481116 -0.05873593 -0.07859445 0.2052935 0.15805534 -0.2038528 -0.057682294 0.10896217 -0.056437545 -0.03482136 0.18336324 -0.09944813 -0.2046244 -0.1628972 -0.015469058 -0.086365156 0.034045607 0.07777912 0.08707226 0.033773374 0.12995419 -0.25553524 0.15759994 -0.034165658 0.08727837
558 -0.06447757 0.002866421 -0.28090134 -0.10691572 -0.14608915 0.14739572 0.1264057 0.0045556864 0.10656066 0.1499185 0.11303722 0.0682787 0.031107267 -0.12338873 -0.013120324 -0.08255054 0.11707814 -0.11871267 -0.12113701 0.13625644 0.033696093 -0.10007928 -0.19220313 -0.096301466 -0.10221985 -0.022316294 -0.13783634 -0.04261708 -0.10516176 0.14528483 0.017996967 -0.028646812 -0.03797053 -0.020292522 -0.27147993 0.014977279 0.27457744 0.2161084 0.015946249 -0.032807864 -0.14723873 -0.057487812 -0.19732457 -0.073483974 -0.03516137 -0.1666341 0.152663 -0.04408122 0.0710546 0.08259215 -0.27483225 0.1110923 0.13988082 -0.12318843 0.0096219 0.17686513 -0.09471256 0.10879993 -0.3119609 0.07308385 -0.16302176 0.07278906 -0.031591617 0.05525369 -0.18369928 0.040924586 -0.09838161 0.06938267 0.07678162 -0.27924025 -0.106242254 -0.23904537 0.25007024 0.22221363 -0.07298117 0.08832809 -0.044900294 -0.078575015 0.22364238 0.15507267 -0.24177247 -0.082248636 0.13142718 -0.042475563 -0.075001076 0.13825929 -0.12677306 -0.19008277 -0.18105529 0.011442216 -0.11644741 0.07887077 0.068114646 0.1044493 0.03924905 0.12215116 -0.2028429 0.18693192 -0.00890085 0.077252015
610 -0.1048511 0.016098179 -0.23911789 -0.10990954 -0.13395613 0.039463334 0.08903342 -0.026620248 0.16897255 0.030326374 0.13541056 0.15314363 0.06826671 -0.07465884 -0.019811053 -0.11113135 0.06396967 -0.08739379 -0.17460255 0.10729843 0.023087367 -0.097099796 -0.21373563 -0.078564234 -0.19137107 -0.0641757 -0.13925354 -0.0337692 -0.065498084 0.10050488 0.04494667 0.0012897603 -0.008655161 0.059402037 -0.2668937 0.03655817 0.3130264 0.18777932 -0.017140493 -0.08069455 -0.1069845 -0.0140912235 -0.23167506 -0.088496774 0.01811754 -0.17925557 0.1953531 -0.005983403 0.09201942 0.22464024 -0.2923596 0.10092956 0.12776549 -0.01818348 0.018058607 0.18273033 -0.06008545 0.13922863 -0.31137377 0.014367085 -0.16900782 0.06665073 0.012807057 0.030025074 -0.16986367 0.043575894 -0.15577452 0.060170062 0.074398845 -0.28004542 -0.12582923 -0.23084547 0.25455743 0.27193657 -0.12167868 0.17674431 -0.05834747 -0.11184169 0.29183567 0.0833452 -0.21950129 -0.09151677 0.1205301 -0.04865584 -0.08405126 0.109774366 -0.16232444 -0.22043213 -0.21583635 -0.008224921 -0.064139776 0.1149229 0.10621334 0.08023246 0.021831196 0.16223174 -0.13770708 0.17261718 0.033348147 0.16543013
20 -0.45875353 -0.4115459 -0.5647154 -0.09457379 -0.05532425 0.220169 0.32364795 -0.19214386 -0.055311006 0.35631573 0.25642136 0.06480098 0.104066916 -0.14647397 0.034114964 0.10061013 -0.14014775 -0.31672364 -0.20797682 0.35377657 0.09370357 -0.35493413 -0.19368617 -0.09574494 -0.2748886 -0.40904856 0.081129484 -0.03725243 -0.08387422 0.04108807 -0.12316287 -0.39542076 0.21058111 0.13732104 -0.33296102 -0.35042793 0.051344007 0.27660966 0.20416297 0.37583593 -0.06880572 0.19084543 -0.23001257 -0.15256496 -0.159858 -0.17036961 0.3016468 -0.18721156 -0.062035456 0.03369841 -0.017963 -0.0073448466 0.38294154 0.03744472 -0.18297161 -0.0055486984 0.045778092 -0.3955493 0.15000863 0.120542645 -0.31776312 -0.35185 -0.2761341 0.3741728 0.03247032 0.3071156 0.1048509 0.06361926 0.1880874 -0.1803878 -0.18610041 0.2128786 0.028301071 0.29485592 0.14573084 0.25006002 -0.32402125 -0.13355276 0.1257093 0.14355956 -0.08089951 -0.11075621 0.2013728 -0.20251751 0.164361 0.5030538 -0.12968595 0.15807046 -0.07915716 -0.15805532 -0.09765198 -0.12174361 0.45990005 0.08818973 -0.2519921 0.23501383 -0.27003765 -0.020536548 -0.009755428 -0.10996674
661 -0.10142529 0.05402854 -0.194535 -0.15286283 -0.1287699 -0.0218232 0.057787433 -0.03635927 0.23284812 -0.03294304 0.15400484 0.20971392 0.033600625 -0.03802935 -0.003794227 -0.10455866 0.05195875 -0.08182153 -0.18796204 0.10370293 0.025951289 -0.08155058 -0.24786945 -0.07570503 -0.22844914 -0.085034736 -0.15132749 -0.028794995 -0.05577415 0.08803601 0.06838719 0.049366705 -0.0042130956 0.020207822 -0.24889562 0.081624225 0.31929746 0.16439305 -0.019944869 -0.104993455 -0.07640414 -0.00938354 -0.24917643 -0.094255075 0.06025617 -0.19145209 0.22191596 0.015993062 0.12319472 0.2822533 -0.32409757 0.110296 0.098817855 0.04690576 0.056978706 0.18112338 -0.05567652 0.20281442 -0.34777856 0.035750736 -0.18941273 0.0963417 0.058250446 0.029654976 -0.17584369 0.044557948 -0.17267315 0.045911647 0.06533002 -0.27604127 -0.14278483 -0.2282593 0.2562991 0.32218802 -0.16269584 0.19698134 -0.050981287 -0.102944456 0.3411437 0.07361537 -0.21931183 -0.0936598 0.10116067 -0.07132123 -0.124524936 0.08080183 -0.19454464 -0.23601052 -0.26628983 -0.017576665 -0.031335305 0.1139617 0.07573678 0.102780044 0.006192243 0.19061889 -0.094457366 0.1567384 0.03746531 0.21944591
27 -0.10676797 0.008306902 -0.2680082 -0.10137014 -0.1374227 0.093592264 0.15484473 -0.011870732 0.08515549 0.11739514 0.14537816 0.086941704 0.109534405 -0.110776015 -0.025577638 -0.06740658 0.07462634 -0.07516743 -0.15955316 0.15225749 0.026338529 -0.12698102 -0.205376 -0.07609423 -0.14175908 -0.070348926 -0.07790451 -0.019565912 -0.092686825 0.11793944 0.012109909 -0.075955175 -0.021469649 0.07422482 -0.23008206 -0.028332679 0.24003863 0.19533671 0.002349303 -0.014771011 -0.13383675 -0.016441913 -0.19987257 -0.044050694 -0.040025253 -0.13610768 0.20797281 -0.047090698 0.040971447 0.14341502 -0.21591161 0.067076206 0.14795385 -0.07143783 -0.017116735 0.12062326 -0.031417325 0.08257667 -0.22197326 0.06720084 -0.17474718 -0.0014690075 -0.043279998 0.046764057 -0.12644944 0.07819674 -0.12429879 0.047178276 0.081252456 -0.25871733 -0.10939762 -0.15457284 0.23018812 0.21848042 -0.041119866 0.12515554 -0.061791785 -0.10457669 0.20638323 0.11895528 -0.22085878 -0.05622569 0.11555178 -0.06791749 -0.02668509 0.18235113 -0.13346164 -0.19322473 -0.16765153 -0.043265495 -0.069868535 0.08230381 0.13204308 0.034073003 -0.011307845 0.16510594 -0.19077738 0.16803321 0.017157216 0.05954387
4 -0.113499835 -0.008704382 -0.24091305 -0.0986986 -0.12621884 0.07269352 0.19816379 0.011206178 0.0685163 0.17163664 0.12952916 0.063400954 0.1138981 -0.1528769 -0.029338049 -0.043407205 0.08333823 -0.093175076 -0.11561129 0.1572933 0.011716122 -0.1347226 -0.18874554 -0.07161578 -0.13835827 -0.01639041 -0.035567682 -0.022673639 -0.10293128 0.16542001 -0.010213073 -0.10908983 -0.067052364 0.067126974 -0.23909527 -0.043720923 0.22365889 0.1863474 0.008940374 0.022368288 -0.14389893 -0.040242486 -0.2020621 -0.052473944 -0.052041378 -0.14196163 0.21806192 -0.103018776 0.037196107 0.12956315 -0.17191294 0.064383484 0.1484176 -0.068846226 0.019801168 0.091102876 -0.025966993 0.05908473 -0.1836483 0.039689787 -0.14105411 -0.02598387 -0.0024192482 0.03474249 -0.17042716 0.11259043 -0.07396458 0.03824574 0.05715401 -0.26144403 -0.07007297 -0.17166807 0.2211236 0.2256704 0.0044256574 0.10369999 -0.091629624 -0.080729514 0.18874194 0.104241 -0.19883373 -0.03755869 0.13255958 -0.05366926 -0.011579358 0.14943619 -0.116511986 -0.17202541 -0.13383977 -0.027660014 -0.06429319 0.048769113 0.15943313 0.058429565 -0.006499445 0.1417822 -0.19766119 0.14937069 -0.03943591 0.05364867
28 -0.16459863 -0.064655155 -0.3628578 -0.100230485 -0.09992336 0.12402543 0.20867528 -0.027394524 0.016971543 0.16965881 0.16616192 0.042795777 0.10279835 -0.13637318 -0.02671299 -0.028574321 0.06279776 -0.120112225 -0.12036919 0.19035022 0.028428288 -0.18267766 -0.19104993 -0.08833451 -0.15360677 -0.099264085 -0.020890834 -0.04024105 -0.06820899 0.10083987 -0.038088117 -0.15589419 -0.021920882 0.10565933 -0.25394592 -0.13609116 0.19631152 0.20872909 0.022076057 0.068604566 -0.10236107 0.027497714 -0.15790963 -0.06038188 -0.101782285 -0.116355225 0.23085184 -0.08706726 -0.0111485105 0.07551517 -0.1783257 0.051923808 0.1814653 -0.08028999 -0.06171305 0.11560375 -0.026696553 -0.04084252 -0.13636655 0.054673165 -0.1924415 -0.10108941 -0.068369314 0.078988545 -0.1434611 0.108351834 -0.064045176 0.046998896 0.078369334 -0.25175196 -0.11666067 -0.10005611 0.1633515 0.22134721 0.043962117 0.12633035 -0.11197922 -0.107983224 0.15606675 0.10435139 -0.1857819 -0.055603776 0.15188974 -0.089244284 0.023613304 0.22241084 -0.12104134 -0.1246137 -0.116297275 -0.05321865 -0.09795775 0.0736329 0.20579946 0.027727919 -0.05864989 0.15136743 -0.17936336 0.10242073 0.014778876 0.002758091
50 -0.15113075 -0.034938227 -0.3251029 -0.08299877 -0.10093897 0.10184153 0.18593864 -0.016236601 0.03247078 0.14772739 0.13791862 0.057983056 0.13583209 -0.12127717 -0.040933397 -0.047254607 0.057465132 -0.049015306 -0.18449809 0.18636891 0.04330006 -0.16129433 -0.19108199 -0.1108366 -0.1357392 -0.060671207 -0.025602475 -0.02818724 -0.1049219 0.10094403 -0.033449497 -0.14253397 -0.06179127 0.11679698 -0.20692757 -0.116638385 0.21768591 0.21142963 0.0211631 0.07190866 -0.13652195 0.014389258 -0.17440459 -0.018044475 -0.11859679 -0.07129866 0.2633209 -0.09535835 -0.037961137 0.073332846 -0.1848238 0.0393739 0.17771904 -0.11390163 -0.06772195 0.06331805 0.0053298445 -0.021197291 -0.15799348 0.05896131 -0.19865115 -0.10093993 -0.09171705 0.06680859 -0.1622583 0.124592096 -0.089915775 0.013262339 0.074288085 -0.2594564 -0.0848029 -0.11482677 0.15787956 0.2458134 0.059612576 0.09252306 -0.10961927 -0.098397024 0.13997357 0.11840926 -0.19078588 -0.033111632 0.115353696 -0.058067303 -0.0017154163 0.23129532 -0.108848274 -0.14740384 -0.12341428 -0.09498433 -0.08961164 0.05743759 0.18064098 0.004939185 -0.06589083 0.14266762 -0.21339798 0.12800659 -0.0075099235 -0.0020747688
24 -0.5072825 -0.41999108 -0.61451757 -0.10830741 -0.047274742 0.19970001 0.3264036 -0.19467288 -0.106510706 0.36980343 0.2950813 0.021513067 0.09900797 -0.14617158 0.08889632 0.08838611 -0.14438975 -0.3317149 -0.18975265 0.37440848 0.07203657 -0.4091543 -0.16726157 -0.080924526 -0.2891695 -0.40938166 0.11340282 0.0027217655 -0.051906947 0.0032921028 -0.11079137 -0.40636778 0.22668177 0.14123009 -0.34757382 -0.37201363 0.03368307 0.26182216 0.17282423 0.4030786 -0.08339759 0.16330858 -0.19805776 -0.13285382 -0.19328779 -0.16187233 0.299924 -0.17791532 -0.076789 -0.029968567 -0.0060528754 -0.02357176 0.41058394 0.03206676 -0.20865698 0.03985053 0.005963409 -0.41613927 0.18067998 0.10383327 -0.33768106 -0.33359066 -0.2862431 0.38018775 0.015981156 0.28762808 0.118736275 0.027202496 0.19230202 -0.21907939 -0.23357911 0.23558949 0.01288758 0.29920936 0.19644482 0.24824294 -0.3029503 -0.17996594 0.13219939 0.14176813 -0.09260945 -0.12276971 0.22195062 -0.18836583 0.16196044 0.5336533 -0.11252572 0.15130289 -0.11231651 -0.18062262 -0.14002433 -0.098013006 0.48354918 0.061004844 -0.27987516 0.23794472 -0.25191763 -0.07360079 0.018281346 -0.12730515
60 -0.12640858 -0.038578242 -0.33998567 -0.08479049 -0.1109535 0.15017502 0.17915225 -0.03746456 0.032839514 0.17895484 0.18063793 0.027861381 0.07909797 -0.15195602 -0.040903363 -0.050112486 0.0818823 -0.10438102 -0.158187 0.15189345 0.01713932 -0.15789428 -0.2007233 -0.118912406 -0.15249178 -0.047255673 -0.009799098 -0.0069831954 -0.06840628 0.13743351 -0.0048988247 -0.13561283 -0.045056574 0.0948349 -0.22651868 -0.08128002 0.2257164 0.21469057 0.03899782 0.029013917 -0.0949173 0.001429042 -0.16805643 -0.039640483 -0.06421783 -0.17866275 0.256058 -0.10826204 0.045403827 0.067100964 -0.22201662 0.06483912 0.21698028 -0.09483967 0.0031944066 0.12740017 -0.016811647 0.0035521924 -0.20237254 0.0600594 -0.1966732 -0.012688198 -0.09496753 0.11564362 -0.13994998 0.033610202 -0.09467118 0.0438154 0.09866944 -0.2787025 -0.058843922 -0.17063466 0.20645164 0.242549 -0.012864951 0.09549335 -0.093298726 -0.11382958 0.15861295 0.13476376 -0.18241155 -0.020494118 0.19190831 -0.064263515 -0.01716384 0.20280243 -0.10777844 -0.13653143 -0.11866832 -0.053934157 -0.09146159 0.024764737 0.16315556 0.00018911343 -0.02802438 0.14891885 -0.21256444 0.15852416 0.0020923377 -0.004407516
602 -0.1288805 0.01172495 -0.23162387 -0.07800296 -0.10686061 0.08804613 0.16721506 0.0097583365 0.09943343 0.14822368 0.11071779 0.09078777 0.120343685 -0.15553474 -0.020198146 -0.09117942 0.060649652 -0.061236918 -0.12211836 0.11577371 0.042311475 -0.107444644 -0.19534917 -0.097180754 -0.10565069 -0.0020726079 -0.14058219 -0.029634679 -0.117584005 0.13463402 0.08025585 -0.06973781 -0.049747773 0.06644929 -0.25462958 -0.03490245 0.2740631 0.22412293 -0.025916183 -0.034070488 -0.15059076 -0.0534259 -0.2032923 -0.061061084 -0.02879918 -0.13930935 0.16224712 -0.10229538 0.039276768 0.1335961 -0.24461217 0.095660135 0.13433209 -0.14181651 0.008467514 0.14826664 -0.066524595 0.07757496 -0.2687874 0.0007010874 -0.14812002 -0.02316564 -0.018631462 0.020315163 -0.2293328 0.11280391 -0.13174878 0.033028264 0.09035982 -0.28700572 -0.078915894 -0.23258694 0.23274928 0.19808511 -0.018744633 0.085486636 -0.094341226 -0.11250382 0.21885782 0.10013147 -0.23062862 -0.06333453 0.100081965 -0.053970225 -0.033153135 0.14579514 -0.15617462 -0.17752884 -0.14615887 0.01027715 -0.07528092 0.11399513 0.106974296 0.049972683 0.06714267 0.12589961 -0.20174024 0.17772146 -0.055397715 0.06166458
62 -0.12570456 0.015408987 -0.24816212 -0.0838262 -0.1285873 0.09673489 0.20456137 0.0049596126 0.08201617 0.17346051 0.13030878 0.069290064 0.1469774 -0.18538858 -0.03337981 -0.07208359 0.056232575 -0.07455786 -0.10805993 0.1436713 0.036275804 -0.13438132 -0.21439701 -0.10194031 -0.11146501 -0.0028785774 -0.093220405 -0.03553186 -0.11925023 0.14564133 0.043798137 -0.10632944 -0.063561715 0.08960839 -0.23533869 -0.030894188 0.25851688 0.20249435 0.000562587 -0.014433574 -0.15349017 -0.019384826 -0.18295136 -0.03429847 -0.043855563 -0.15637666 0.19606736 -0.10867349 0.016612777 0.11207276 -0.18920307 0.063933745 0.15291877 -0.11892569 0.0031579614 0.09276935 -0.02694381 0.063724115 -0.23757702 0.018926691 -0.14724705 -0.039855916 -0.039614 0.025852103 -0.2066323 0.1126214 -0.10622395 0.024435194 0.09211992 -0.29852036 -0.078110345 -0.22597326 0.20923 0.20561184 0.00495386 0.07892616 -0.09244562 -0.10520521 0.18581401 0.10378432 -0.21912101 -0.021500967 0.08956996 -0.039246757 -0.017714163 0.1520015 -0.14648868 -0.19587073 -0.13216785 -0.032150462 -0.055524018 0.07847718 0.13233379 0.049756583 0.03781424 0.13582434 -0.20614539 0.16342172 -0.046923358 0.05452001
569 -0.06574513 0.011193911 -0.24354851 -0.112980284 -0.14678101 0.0479621 0.0976937 -0.016682321 0.13912632 0.020766698 0.14485101 0.12149344 0.06961433 -0.057341248 -0.019421622 -0.10233348 0.07852415 -0.08509515 -0.16562697 0.12391447 0.014375724 -0.08527611 -0.19424391 -0.09373592 -0.18731704 -0.05496219 -0.1192463 -0.057269406 -0.062216125 0.100474894 0.04228361 0.0067974944 -0.012478588 0.036687084 -0.25083214 0.003276566 0.29259717 0.18077193 -0.014654914 -0.06400766 -0.1229766 -0.010072651 -0.21777216 -0.0665387 -0.01643455 -0.15082215 0.2037045 -0.007703442 0.07977787 0.16907685 -0.27107581 0.119564086 0.13330211 -0.03326437 0.005019598 0.17234266 -0.08525075 0.13539138 -0.2979131 0.041875638 -0.18047345 0.05012001 0.0019337687 0.030144209 -0.15380618 0.043953307 -0.14371961 0.045728244 0.07535806 -0.26202813 -0.13239095 -0.19287826 0.25150922 0.2523432 -0.10596309 0.15981944 -0.041445956 -0.10812156 0.28134283 0.092421226 -0.23182583 -0.08043122 0.14600298 -0.055659812 -0.09416394 0.10497096 -0.1555443 -0.19779673 -0.20530723 -0.008988174 -0.07933964 0.11211347 0.09844609 0.054546434 -0.011708474 0.17137583 -0.11102298 0.16596346 0.065158024 0.12396307
26 -0.1118886 0.021605978 -0.23060068 -0.08545559 -0.13277711 0.081873894 0.16649503 -1.26485975e-05 0.09399916 0.15318614 0.12567766 0.0921131 0.13106446 -0.17039406 -0.017831916 -0.062283568 0.038819294 -0.11648522 -0.08887996 0.12244258 0.029217241 -0.09300576 -0.18644243 -0.08589188 -0.1028228 0.00071516895 -0.14210081 -0.0074486197 -0.11347221 0.15836531 0.08254539 -0.077192776 -0.067516856 0.09457557 -0.27418867 -0.029824778 0.27130374 0.21721768 -0.04761559 0.0030025535 -0.17269117 -0.036677897 -0.21475138 -0.03824507 -0.061840326 -0.14183958 0.18283921 -0.11615772 0.004916881 0.11123181 -0.19334543 0.077599816 0.13013944 -0.13138478 0.03216546 0.12428611 -0.08321264 0.076621406 -0.23849364 -0.015596107 -0.0945333 -0.08088361 -0.024537338 0.016335076 -0.21218719 0.16061366 -0.13337225 0.02200028 0.121861726 -0.27529058 -0.0861458 -0.21700568 0.1903597 0.1704318 0.010470865 0.07206103 -0.10674403 -0.1072114 0.19927981 0.088938214 -0.2068677 -0.050010923 0.109095015 -0.036931105 -0.010274233 0.13388805 -0.15296908 -0.14263102 -0.13028148 -0.020103415 -0.05454223 0.09256642 0.13101904 0.07903407 0.070315056 0.13876626 -0.16160226 0.16683064 -0.05299741 0.06738324
61 -0.116334334 0.008718469 -0.283147 -0.08066228 -0.124820806 0.13249598 0.19640237 0.0047013634 0.07041316 0.16884995 0.14435852 0.05312598 0.10604137 -0.16111319 -0.048171066 -0.08727147 0.0720541 -0.0951113 -0.114577234 0.16188349 0.03377892 -0.12234419 -0.22378618 -0.09846021 -0.10550522 -0.03371883 -0.081854075 -0.028260345 -0.102777965 0.12896411 0.023479601 -0.10606379 -0.05866026 0.07321312 -0.24575923 -0.05632591 0.23206857 0.21757717 -0.0014197486 -0.0089847455 -0.115958855 -0.017232448 -0.18489115 -0.05180524 -0.042390678 -0.16228272 0.20646752 -0.07914359 0.036192533 0.103222005 -0.20872457 0.078536764 0.1704021 -0.11324533 -0.008433894 0.12481702 -0.03418939 0.06490426 -0.2426133 0.035015114 -0.15084076 -0.012534658 -0.062372636 0.04470803 -0.19815768 0.07417023 -0.10815525 0.037239995 0.100407295 -0.31080657 -0.08670602 -0.22608528 0.22749013 0.21233208 -0.008180388 0.09044699 -0.085990205 -0.09167399 0.20764819 0.12607594 -0.22857292 -0.05213236 0.10036776 -0.065860234 -0.013919825 0.16652961 -0.1285549 -0.17711253 -0.1525188 -0.037685994 -0.07597732 0.08804489 0.11758156 0.018980607 0.03047498 0.13276832 -0.21021354 0.15935096 -0.023462329 0.04576326
54 -0.08251887 -0.009163527 -0.28627583 -0.09605962 -0.14308974 0.10042289 0.1497255 -0.029208818 0.057776097 0.11962692 0.15948386 0.062218454 0.07945367 -0.09977696 -0.04348886 -0.097436264 0.10020684 -0.098253235 -0.14118458 0.15869452 0.0067266 -0.11096945 -0.20491834 -0.094399504 -0.16290301 -0.06027862 -0.068266876 -0.08111223 -0.06568014 0.13576181 -0.040131494 -0.05685445 -0.059874427 0.04976867 -0.24499312 -0.082312934 0.2476416 0.18085967 -0.014831964 -0.023803184 -0.13294156 0.012864983 -0.21957386 -0.03674968 -0.055390596 -0.14790599 0.20077461 -0.037930213 0.06373612 0.097909346 -0.24344806 0.10106404 0.15649392 -0.085364774 0.014279789 0.15469016 -0.049420826 0.071239844 -0.21683578 0.07140033 -0.16944999 -0.023315087 -0.020714965 0.04382197 -0.15109298 0.023533195 -0.0821397 0.043990538 0.05956483 -0.24414903 -0.09702538 -0.16861835 0.23006152 0.23104814 -0.027878618 0.13212463 -0.064929076 -0.09573091 0.21475738 0.09700301 -0.21514244 -0.043368768 0.138865 -0.049413312 -0.031415015 0.1304209 -0.14457251 -0.19897664 -0.13787958 -0.038735755 -0.06902819 0.084513575 0.13340959 0.06251504 -0.015281259 0.15257007 -0.13142301 0.17091855 0.06137403 0.07671616
35 -0.122104116 -0.018063137 -0.31189206 -0.106869705 -0.106212825 0.110908926 0.1850257 -0.02093976 0.049030527 0.16330533 0.16410449 0.058116987 0.14512084 -0.110377245 -0.03619047 -0.046543375 0.06416212 -0.078883156 -0.15684873 0.15404914 0.045675807 -0.15598975 -0.19715935 -0.098882936 -0.17082328 -0.068128906 -0.038616087 -0.055293243 -0.09193036 0.13399541 -0.0076673967 -0.15511476 -0.07917938 0.09906214 -0.22460258 -0.06292465 0.24470277 0.20105706 0.030514862 0.0063993908 -0.11555852 0.0117005855 -0.20409851 -0.015810478 -0.06080422 -0.11603107 0.24806386 -0.08472395 -0.005436819 0.12262799 -0.22472946 0.06550121 0.18232173 -0.10484031 -0.0240421 0.13233656 -0.0011803696 0.027621074 -0.21957454 0.056345288 -0.19219616 -0.039309345 -0.09493776 0.07119664 -0.12977307 0.08500547 -0.11326691 0.028172322 0.10076338 -0.27426997 -0.090889186 -0.16640341 0.20162755 0.24007636 0.016138684 0.106328025 -0.096725054 -0.11110644 0.16969693 0.09130289 -0.21807425 -0.031862136 0.14545503 -0.062550806 0.0013887438 0.19749574 -0.11947534 -0.19320212 -0.1341616 -0.08721793 -0.08953477 0.09400651 0.1404198 0.040987086 -0.022066 0.17842822 -0.1838288 0.1579759 0.010303624 0.029468378
69 -0.13509424 0.012529468 -0.24602427 -0.084909156 -0.1250255 0.09835318 0.2247797 0.007967229 0.08112602 0.19452809 0.113580555 0.068764605 0.15179746 -0.1653852 -0.028497573 -0.061769452 0.07633674 -0.06241518 -0.11615258 0.15360403 0.053062033 -0.14110956 -0.2103737 -0.085185386 -0.11246629 -0.017712079 -0.08150796 -0.019566087 -0.1301934 0.13811259 0.025582938 -0.13218524 -0.06058437 0.10578594 -0.22017232 -0.023896473 0.25980473 0.1896586 0.010921631 -0.016005788 -0.14488508 -0.030809633 -0.19089395 -0.025666675 -0.037904546 -0.15539669 0.21081053 -0.1096255 0.026953423 0.14684215 -0.2023187 0.046119716 0.16973886 -0.11509041 0.008959751 0.10663139 -0.010691976 0.06784585 -0.23833694 0.021954058 -0.16552673 -0.028904308 -0.058229342 0.03297078 -0.20054442 0.111709036 -0.10406219 0.03103357 0.082770325 -0.2986853 -0.07871029 -0.22101428 0.23013271 0.21940058 -0.004019937 0.095726214 -0.07466582 -0.08599861 0.20710237 0.10085704 -0.20852435 -0.026649445 0.08900529 -0.05655967 -0.0025957348 0.16314372 -0.14224805 -0.20924976 -0.1199825 -0.053710252 -0.06454645 0.07945855 0.12626024 0.037563816 0.028471746 0.13660982 -0.2189988 0.16845669 -0.04293719 0.050138187
674 -0.09340448 0.015061034 -0.33017236 -0.08487977 -0.13232552 0.11527244 0.20790105 0.02320171 0.053082913 0.11920339 0.16274895 0.039740343 0.12763822 -0.15658437 -0.045928806 -0.08955793 0.066944756 -0.08395927 -0.106942564 0.15604235 0.018330239 -0.12781756 -0.22956543 -0.10297579 -0.09554935 -0.019953517 -0.08569066 -0.06748014 -0.06841387 0.11352334 0.031184927 -0.09310519 -0.084913634 0.09657369 -0.27467257 -0.07453503 0.25451988 0.21137485 -0.023625238 -0.0022642494 -0.12599547 0.0046406216 -0.14459474 -0.05541589 -0.09705973 -0.14089367 0.19183375 -0.09896782 -0.0017196413 0.066043444 -0.22800274 0.08715417 0.1377191 -0.16051736 -0.053143773 0.13809848 -0.05399448 0.060636416 -0.24666585 0.016867591 -0.16483356 -0.046538442 -0.040833578 0.01915964 -0.25617647 0.07349531 -0.1145985 0.043402307 0.07031359 -0.27964836 -0.12441748 -0.23020287 0.19912991 0.19991024 0.0057903184 0.10747406 -0.07258795 -0.112057805 0.18482277 0.093345955 -0.23823242 -0.045243535 0.12866199 -0.059045125 -0.038244396 0.13758096 -0.15388209 -0.1930646 -0.1279274 -0.009648544 -0.11362281 0.14908677 0.14567463 0.02000546 0.016902402 0.13258715 -0.16308586 0.11922193 0.0038334152 0.045235343
112 -0.10705017 0.008241903 -0.31785324 -0.08179769 -0.13304965 0.14851405 0.22053784 0.009353415 0.043180466 0.13468878 0.1731642 0.02379187 0.10333087 -0.13532764 -0.055490226 -0.09047163 0.04505708 -0.09676241 -0.08756141 0.17571755 0.029347824 -0.11898203 -0.22085714 -0.12056471 -0.10735365 -0.028435789 -0.07449279 -0.055538338 -0.088233456 0.12283868 0.0063466416 -0.1021822 -0.08459599 0.06409978 -0.26027393 -0.06483725 0.24616598 0.19675474 -0.0012008799 0.0018017152 -0.11250026 0.01047436 -0.19064954 -0.025412925 -0.08917792 -0.14130655 0.22123556 -0.10217674 0.03265231 0.036199126 -0.22599262 0.08460089 0.16022821 -0.15043938 -0.039485686 0.1408291 -0.061410595 0.073229425 -0.2751905 0.010151522 -0.18525328 -0.018853106 -0.08015839 0.041201487 -0.21310368 0.06874061 -0.1193966 0.025834559 0.09031005 -0.28302538 -0.10915758 -0.24026471 0.20015638 0.23819573 -0.008547931 0.10299157 -0.1062592 -0.10442953 0.1977757 0.10479025 -0.22697724 -0.026309296 0.12649073 -0.07145268 -0.04829922 0.1668096 -0.14484599 -0.1795684 -0.15220346 -0.04195657 -0.09675594 0.118818425 0.14022578 0.030870534 0.02259235 0.12518814 -0.17352916 0.15167506 -0.008821475 0.024093786
690 -0.114323124 0.034746356 -0.27904966 -0.072102286 -0.0998191 0.11558519 0.1683407 0.01435864 0.08193414 0.12974326 0.13802436 0.08346838 0.09757139 -0.15995495 -0.027830115 -0.08204033 0.06621396 -0.09197166 -0.101289436 0.13428469 0.028229162 -0.12231029 -0.20984198 -0.075049646 -0.08500994 -0.010144334 -0.1277984 -0.03368159 -0.09212862 0.13300736 0.08808971 -0.056552004 -0.037628915 0.06493941 -0.2738775 -0.032774173 0.28950953 0.23915926 -0.021662612 -0.021315306 -0.125799 -0.03841973 -0.1782825 -0.042538494 -0.041875143 -0.14009352 0.15737526 -0.08654871 0.023593944 0.10378227 -0.22840114 0.101319544 0.11888922 -0.15219913 0.012566153 0.16463344 -0.07505841 0.0808317 -0.26553786 0.0036582774 -0.14846848 -0.019437576 -0.023567496 0.026725696 -0.2354228 0.107170455 -0.1556844 0.057307877 0.098120734 -0.27464563 -0.086376026 -0.23569566 0.21349654 0.19422927 -0.020935388 0.096259736 -0.07774325 -0.085854076 0.21271367 0.11221218 -0.24872945 -0.056605924 0.10426266 -0.058509182 -0.044031043 0.13767044 -0.16021371 -0.1789484 -0.15136892 0.027613578 -0.07763974 0.13704051 0.124633074 0.04069589 0.075144894 0.11621 -0.17495841 0.18344228 -0.030825999 0.058418743
568 -0.06838162 -0.001226876 -0.30847892 -0.08722589 -0.14161067 0.10495685 0.13934954 -0.020178301 0.08356878 0.109280035 0.14145315 0.061238576 0.082412265 -0.10190114 -0.04256719 -0.08511264 0.07952412 -0.10099831 -0.12109348 0.13040973 0.02801981 -0.11537496 -0.19843785 -0.090513796 -0.15828143 -0.014462847 -0.10696158 -0.05141842 -0.07881879 0.11532161 0.023884911 -0.05432292 -0.066267155 0.04143234 -0.27674466 -0.038097564 0.27811 0.20772277 0.027426558 -0.0107459575 -0.11889461 -0.018283207 -0.20533267 -0.06191418 -0.04857604 -0.14605199 0.17983752 -0.055958644 0.053418998 0.09328633 -0.23024392 0.09949562 0.15157111 -0.089774795 -0.0015249446 0.15454458 -0.09127386 0.08394611 -0.28393432 0.03704757 -0.16061074 0.015391451 -0.021920795 0.027994173 -0.19389386 0.06992057 -0.11431505 0.052159075 0.09902285 -0.27849838 -0.10700979 -0.21134898 0.20110369 0.23425786 -0.01891674 0.12722246 -0.091710955 -0.093801506 0.23471282 0.104766555 -0.20838036 -0.06019291 0.1590262 -0.036055848 -0.068093106 0.12648429 -0.14852026 -0.18532038 -0.16119632 -0.008884522 -0.09600295 0.10654934 0.13027178 0.055204563 0.01123811 0.14137691 -0.14628592 0.1669993 0.02926318 0.0623988
36 -0.11719081 0.007058838 -0.27877915 -0.08673039 -0.11418242 0.10004048 0.17483644 -0.0066454276 0.08013219 0.13571012 0.13392636 0.07829614 0.13460548 -0.120953575 -0.031877145 -0.06476465 0.06995962 -0.081688374 -0.1354886 0.12979557 0.030865168 -0.11952528 -0.19939175 -0.08019133 -0.13844256 -0.038486023 -0.0749971 -0.020092921 -0.09913049 0.12339096 0.02106772 -0.105374776 -0.047000304 0.101242 -0.23108804 -0.029094558 0.2538578 0.20654228 0.008751531 -0.0056614107 -0.124621764 -0.01561187 -0.19729929 -0.040974595 -0.033976573 -0.14156196 0.20354971 -0.08728626 0.011188876 0.14338227 -0.21299 0.067640066 0.14302672 -0.091489464 -0.004044582 0.11077084 -0.037888583 0.06451426 -0.23008798 0.04391719 -0.15050119 -0.014613661 -0.037463907 0.0264942 -0.15619652 0.089328185 -0.11686559 0.04587283 0.08488122 -0.2707046 -0.088994786 -0.19206712 0.2253999 0.22660317 -0.014784161 0.10248832 -0.07675438 -0.094665 0.20650944 0.112862185 -0.21001525 -0.041614782 0.10126216 -0.05253943 -0.019366344 0.17256023 -0.12254849 -0.1859239 -0.136839 -0.049889248 -0.07623594 0.08797245 0.12314901 0.03438723 0.01257275 0.15309237 -0.20150544 0.1649127 2.7929826e-05 0.050987244
38 -0.1212594 0.0017304191 -0.2673269 -0.06279582 -0.14061402 0.099146195 0.21008709 0.00062026584 0.05966916 0.17440626 0.12724485 0.05475953 0.15224592 -0.16018926 -0.04674473 -0.07780923 0.06968519 -0.06897372 -0.12665842 0.15641862 0.046489917 -0.13838166 -0.205328 -0.10198234 -0.10126177 -0.02804406 -0.074829206 -0.031956196 -0.12863079 0.1244227 0.021999778 -0.11280473 -0.07402658 0.11117479 -0.2200427 -0.044655077 0.2340063 0.19682857 0.0019062096 0.005141776 -0.13630363 -0.008847567 -0.1918381 -0.022558177 -0.080796644 -0.120036356 0.21455538 -0.0977351 0.0005914148 0.081676066 -0.17568551 0.046980806 0.15365805 -0.11286498 -0.009229878 0.08779912 -0.018680284 0.048878267 -0.20413451 0.031437825 -0.14655934 -0.060922284 -0.049036354 0.024491474 -0.19011292 0.10868097 -0.092640184 0.02058875 0.07479875 -0.27776626 -0.08520999 -0.17991503 0.17982133 0.21303584 0.014888915 0.09005308 -0.103459 -0.089751534 0.17405139 0.10782361 -0.22096403 -0.020806344 0.08756213 -0.060422596 -0.0013397562 0.16649686 -0.13006936 -0.17253846 -0.11588594 -0.06359021 -0.06642594 0.07583755 0.14980243 0.014390139 0.011389311 0.124727584 -0.20740762 0.14568599 -0.017202994 0.03664226
34 -0.10455056 0.010239592 -0.28339913 -0.10382891 -0.1320657 0.12097585 0.17272197 -0.027018026 0.05470599 0.15230241 0.16709934 0.02935461 0.07296892 -0.13001153 -0.036082122 -0.04435532 0.08740601 -0.114232056 -0.1600889 0.14005417 0.006843924 -0.130364 -0.20138444 -0.080554515 -0.16005857 -0.027960831 -0.040410623 -0.023307247 -0.07601942 0.12798546 -0.009673955 -0.106536746 -0.045858465 0.064529695 -0.26058638 -0.06451994 0.23492035 0.21415885 0.01745448 0.03348882 -0.10250204 0.011886326 -0.19506246 -0.039308526 -0.04356783 -0.17713785 0.23614053 -0.09355223 0.05644469 0.099604875 -0.20574208 0.08029114 0.18968174 -0.084217094 -0.00449025 0.10821737 -0.02813976 0.046365798 -0.20906575 0.07056909 -0.16016607 0.010617746 -0.056500867 0.07451383 -0.15793921 0.032028235 -0.08869686 0.055273455 0.09344557 -0.2731155 -0.072612226 -0.17562364 0.22985372 0.23351002 -0.021162981 0.10948481 -0.07727133 -0.08349679 0.20016707 0.12508981 -0.16894285 -0.05380436 0.1695192 -0.056690563 -0.04544099 0.19341893 -0.106936835 -0.16534714 -0.14003938 -0.03632759 -0.08571436 0.035903238 0.12723975 0.03342111 -0.013643954 0.15701254 -0.19563842 0.1384501 0.010114432 0.036021832
65 -0.17131637 -0.045150943 -0.31657574 -0.12682278 -0.08495091 0.053827673 0.21315832 0.034640003 0.053648587 0.14852768 0.13998918 0.039983504 0.14413193 -0.20911387 0.009421938 -0.12486791 0.022917273 -0.050756436 -0.17146297 0.13625084 0.008099838 -0.15862943 -0.15742517 -0.17312428 -0.118330516 0.029031156 -0.04088383 -0.07713433 -0.09913536 0.120888576 -0.048329793 -0.12542956 -0.049067546 0.005611854 -0.19528644 -0.13119692 0.29344788 0.14069358 -0.027155247 0.011444893 -0.18089014 -0.030085409 -0.13136542 -0.059754673 -0.11343498 -0.13625126 0.26568615 -0.13360496 0.02235178 0.01468338 -0.2051607 0.10236614 0.1906216 -0.15196152 -0.03375255 0.083759494 0.01999738 -0.032260712 -0.20769747 0.011011911 -0.23820497 -0.08957683 -0.0861945 0.1281603 -0.28164136 0.045863416 -0.051205937 -0.043911494 0.063178435 -0.27549666 -0.08507425 -0.2098244 0.15064882 0.27201888 0.015762039 0.09193487 -0.0404401 -0.15330772 0.15086636 0.07479456 -0.20181526 0.0013542027 0.13358851 -0.06808507 -0.08234804 0.10836588 -0.1339215 -0.13505274 -0.117088385 0.0009939531 -0.076119706 0.0176386 0.18766737 0.06462146 -0.048789807 0.058574844 -0.104663834 0.09120262 0.019162714 0.06369479
114 -0.113570765 0.010111819 -0.29668036 -0.05949904 -0.12353883 0.11098769 0.21312746 0.00802706 0.08140925 0.17387062 0.13320437 0.060008712 0.15430315 -0.16403484 -0.025773736 -0.08424676 0.062088873 -0.07658857 -0.10475035 0.13872439 0.042796213 -0.13654718 -0.2141966 -0.107009895 -0.10365058 0.0013989991 -0.10822864 -0.050314065 -0.117665805 0.12786722 0.034278452 -0.111051716 -0.058794092 0.096525475 -0.26021588 -0.042800132 0.26081678 0.20042174 0.0006526888 -0.023754597 -0.14027706 -0.027178537 -0.19380799 -0.032445855 -0.06133201 -0.13792185 0.17879698 -0.12700862 0.015052868 0.10404578 -0.20123512 0.063180886 0.15509912 -0.15343496 -0.015613212 0.11524726 -0.04228563 0.05764219 -0.2570404 -0.005319672 -0.1641969 -0.049638275 -0.047735676 0.007781104 -0.22690403 0.10719308 -0.11913041 0.03210349 0.08188927 -0.30086517 -0.09345187 -0.23785292 0.19841078 0.21364278 0.01336137 0.08499069 -0.101972826 -0.0859608 0.19490287 0.09266464 -0.23933427 -0.035452675 0.11390529 -0.04228999 -0.022856131 0.14449391 -0.16682354 -0.19324848 -0.12658253 -0.04870707 -0.074269965 0.12525786 0.14149928 0.039151408 0.044424564 0.11237576 -0.19703175 0.16753185 -0.02657839 0.033696838
671 -0.08601352 0.035131652 -0.15165292 -0.18952902 -0.13657646 -0.051626306 0.041336827 -0.053718828 0.24976404 -0.1080105 0.20628427 0.26791003 0.037785318 -0.01418517 -0.0034220768 -0.097416066 0.04925619 -0.08227616 -0.22240642 0.1189621 0.017607057 -0.09387946 -0.31312224 -0.07450391 -0.2580532 -0.097918026 -0.13474937 -0.049324643 -0.076724656 0.05131493 0.026340527 0.09809786 0.014860029 0.0116189625 -0.29756206 0.12245536 0.34466627 0.111441866 -0.041667093 -0.112892 -0.06384188 0.034766123 -0.23796336 -0.119855255 0.059909344 -0.2331106 0.25321618 0.03361727 0.14867523 0.29599234 -0.38107422 0.10328139 0.10003857 0.12389129 0.09815898 0.2108349 -0.0487463 0.24495964 -0.34625328 0.009066572 -0.21888274 0.12513487 0.09972115 0.015612654 -0.16024408 0.037161857 -0.20801625 0.063035294 0.0046412516 -0.28448096 -0.16607526 -0.22529182 0.26509142 0.39119902 -0.21841437 0.22865997 -0.039933726 -0.065824926 0.37555555 0.05606547 -0.19941896 -0.109984614 0.11334217 -0.061174262 -0.15834677 0.08909037 -0.24356101 -0.23475514 -0.29444158 -0.046325687 -0.06632553 0.11127219 0.12131215 0.136139 -0.0336531 0.18285254 -0.051588546 0.14011349 0.07063574 0.23350905
713 -0.09409946 0.022344623 -0.2689087 -0.11817043 -0.13300864 0.038244594 0.14809693 -0.0038570273 0.1159868 0.054591995 0.16528414 0.07679455 0.086991474 -0.069176175 -0.023681797 -0.09277365 0.07003814 -0.0740037 -0.15114082 0.114516646 0.002833879 -0.10355708 -0.20864582 -0.10746627 -0.18403174 -0.041113317 -0.075732395 -0.05391452 -0.06015861 0.09824519 0.015303498 -0.045133 -0.0479603 0.0413226 -0.25539523 -0.039233726 0.29534498 0.18828192 -0.031589508 -0.033874113 -0.10749268 -0.015984342 -0.23053065 -0.068135284 -0.020783642 -0.12224238 0.22377966 -0.042547308 0.046159353 0.14464763 -0.25123852 0.10485821 0.11884061 -0.08207045 0.011292359 0.17058873 -0.056842048 0.10874995 -0.2710053 0.033963926 -0.1710231 0.01346797 -0.001510797 0.03614077 -0.19624646 0.06280136 -0.14758286 0.027114397 0.06462919 -0.26061127 -0.11690701 -0.18691972 0.2296036 0.26995218 -0.046125773 0.14823447 -0.07661058 -0.10327232 0.24331065 0.08747053 -0.20858029 -0.06453868 0.16205099 -0.047413267 -0.06741907 0.13658343 -0.15913756 -0.19366616 -0.18859161 -0.036454022 -0.070114285 0.11790285 0.1352723 0.051101513 -0.022059103 0.16479798 -0.11548864 0.1615535 0.043300014 0.11144851
100 -0.11172384 -0.021712923 -0.36953384 -0.101125725 -0.095359646 0.1192904 0.1593151 -0.012016543 0.013448421 0.1049306 0.177212 0.007949828 0.062419597 -0.082495965 -0.043989893 -0.113914296 0.09269414 -0.10540086 -0.11560808 0.1005493 0.01885402 -0.108561546 -0.17860273 -0.153241 -0.16092114 -0.022196975 -0.061658923 -0.10006839 -0.091628805 0.14510386 -0.055694122 -0.09006139 -0.10557167 0.056111354 -0.22263718 -0.14466217 0.20335183 0.21484807 -0.029598402 -0.058634974 -0.11196245 -0.032229427 -0.21432078 -0.052721158 -0.08334396 -0.11547799 0.23655531 -0.048075575 0.014252194 0.06702963 -0.29160404 0.09682849 0.15384224 -0.09180416 -0.0013970017 0.2272714 -0.046459038 0.028946886 -0.25338218 0.034910593 -0.16532637 -0.02525893 -0.042657014 0.0049733603 -0.1535184 0.021503344 -0.09063848 0.03884813 0.11177129 -0.29624563 -0.08010254 -0.18947749 0.2110513 0.28774837 -0.006492295 0.0881936 -0.06232081 -0.118485644 0.1798418 0.072040714 -0.25939107 -0.052471 0.16403267 -0.05052735 -0.03907656 0.118750826 -0.10891642 -0.18117915 -0.15109682 -0.046380747 -0.11647899 0.14699699 0.111178875 0.0047295163 0.005061388 0.12943184 -0.12440183 0.18199798 0.026397273 0.0044295066
113 -0.110606745 -0.0045276238 -0.25682354 -0.05206378 -0.12773763 0.105405785 0.18833001 -0.0026102809 0.082542375 0.16270266 0.12692702 0.068690106 0.13836524 -0.1705504 -0.02093045 -0.07494178 0.06966702 -0.093570344 -0.10038164 0.13885938 0.04035009 -0.12985192 -0.1953691 -0.10786433 -0.11944543 0.020196693 -0.11826379 -0.052134518 -0.119898096 0.13155599 0.06845371 -0.09010833 -0.04593764 0.08651736 -0.2721392 -0.021601127 0.2879857 0.21973094 -0.0061382735 -0.012138781 -0.14125045 -0.03241647 -0.19276363 -0.035850167 -0.06488451 -0.14197107 0.17170282 -0.12717685 0.026481723 0.103389084 -0.22660547 0.07600835 0.14021893 -0.15552162 0.011095977 0.116716266 -0.06578997 0.06880685 -0.27195197 -0.004325745 -0.15065317 -0.04444746 -0.024749136 0.011204556 -0.23378687 0.12685438 -0.10943369 0.031189518 0.097175464 -0.27121314 -0.08417936 -0.22466962 0.19195014 0.20186317 0.0084754005 0.07773559 -0.105289586 -0.0927321 0.21367109 0.09015252 -0.23858306 -0.02778571 0.12274229 -0.030314844 -0.036344934 0.13791457 -0.1577769 -0.16653799 -0.15939847 -0.008112847 -0.076923154 0.10533651 0.14014761 0.06278084 0.05146874 0.11700752 -0.18980236 0.17670326 -0.044869907 0.036368728
84 -0.11202161 -0.0016060317 -0.28669176 -0.08884398 -0.11649988 0.103177026 0.19762333 0.00090030476 0.083167985 0.16413702 0.12778188 0.075231254 0.1386534 -0.15169826 -0.027530782 -0.076275915 0.068167634 -0.08857086 -0.1201675 0.12643465 0.039081454 -0.14159018 -0.20449512 -0.09275472 -0.124221206 -0.017663963 -0.09708855 -0.04655284 -0.11304014 0.1372842 0.039897695 -0.107044026 -0.037636545 0.102759525 -0.24088456 -0.0335064 0.27710104 0.20983109 -0.0049621062 -0.0146875875 -0.14294207 -0.03479845 -0.19338332 -0.02743857 -0.057177257 -0.13396938 0.19841173 -0.10982598 0.024259431 0.12655395 -0.22175194 0.075700216 0.15451528 -0.12432418 -0.004028512 0.12693842 -0.035324004 0.050617136 -0.2453421 0.02615432 -0.15518303 -0.036364827 -0.0401945 0.02032998 -0.20216896 0.10818304 -0.10452608 0.0393314 0.08745614 -0.2852169 -0.08805472 -0.20057017 0.21726014 0.21885683 0.0045370376 0.09534822 -0.09331601 -0.09297121 0.20280941 0.10202838 -0.23031434 -0.04104343 0.11737905 -0.05299619 -0.026731579 0.16394185 -0.14208445 -0.1809835 -0.13132115 -0.04161698 -0.06759166 0.088799864 0.14099102 0.05055524 0.034949657 0.1322386 -0.20070568 0.1667224 -0.02625081 0.049647678
540 -0.10916945 0.001858597 -0.27395967 -0.08756376 -0.102662705 0.09363892 0.12950884 -0.00092377467 0.11997248 0.06260714 0.15732689 0.123014316 0.047440205 -0.11015983 -0.008215297 -0.11219877 0.057758514 -0.10565546 -0.13991135 0.10945861 0.03896373 -0.11555993 -0.19827622 -0.09528435 -0.12676495 -0.047799386 -0.15264493 -0.0443751 -0.094978265 0.0858811 0.085656665 0.01366259 -0.0079035815 0.030550547 -0.27402598 -0.019350087 0.29791236 0.22172043 -0.0059764893 -0.041945316 -0.12665889 -0.030635836 -0.20865637 -0.048638273 -0.04285715 -0.13020806 0.16587648 -0.05039731 0.06711331 0.12456687 -0.26197594 0.099626765 0.10625323 -0.11110727 0.008007205 0.18415403 -0.0897894 0.094441436 -0.3085689 0.032069147 -0.16450116 0.015519273 0.0026854961 0.014958523 -0.19578156 0.07736886 -0.15841761 0.062789045 0.09821411 -0.25968614 -0.11089009 -0.21427795 0.2261191 0.22097246 -0.051736616 0.13591745 -0.07555735 -0.09157425 0.26852733 0.12729205 -0.24804321 -0.074514985 0.117379755 -0.061700527 -0.07182096 0.14118306 -0.14431514 -0.19155115 -0.193468 0.027118718 -0.078753255 0.13140513 0.10654391 0.074524105 0.05513614 0.13651288 -0.15604214 0.17569947 -0.0032679169 0.073741145
176 -0.04565133 -0.03415866 -0.3644625 -0.12241083 -0.16494264 0.12612133 0.17461298 0.023272734 0.03723867 0.08975058 0.24127406 -0.048640072 0.11664729 -0.04979579 -0.030587094 -0.08184694 0.120276935 -0.055239916 -0.16018185 0.17113663 -0.0072636497 -0.12665969 -0.18049705 -0.0854144 -0.21412317 -0.022566339 -0.0244712 -0.10413421 -0.039743226 0.12940672 -0.03977174 -0.093265526 -0.11493961 0.09067753 -0.27446538 -0.1151071 0.27235997 0.16477282 0.006906615 -0.0025573622 -0.17959173 0.029767102 -0.22183578 -3.834026e-06 -0.10715852 -0.09502776 0.2566041 -0.05537272 0.055301804 0.038910408 -0.22162835 0.11777663 0.19065975 -0.12368815 -0.009082723 0.21053983 -0.07933442 0.014684187 -0.225335 0.096494675 -0.22622086 -0.018246792 -0.076180756 0.06233393 -0.12630835 0.002272207 -0.07787909 -0.015205097 0.09806398 -0.24976295 -0.11128252 -0.12824464 0.2664501 0.23713033 0.0536529 0.12844762 -0.058715053 -0.1268076 0.20774591 0.10118073 -0.22976372 -0.030417625 0.24008653 -0.041277442 -0.039195612 0.10245966 -0.15426004 -0.23045382 -0.10418963 -0.07489053 -0.094048545 0.104263574 0.18300615 0.027242478 -0.07358074 0.19765931 -0.089784354 0.16979289 0.1097862 0.037044264
7 -0.15143889 -0.071488835 -0.38241765 -0.08609578 -0.0855407 0.18213892 0.16604087 -0.025014536 -0.014973765 0.12285408 0.2301115 -0.0071592517 0.06929594 -0.11584262 0.007831584 -0.037062798 0.036275707 -0.17066285 -0.13759619 0.15321854 -0.014991417 -0.1902696 -0.18619153 -0.082856275 -0.16947629 -0.09232208 0.017552953 -0.041542865 -0.03755775 0.06924997 -0.06566726 -0.14109577 -0.045198534 0.07796368 -0.25439933 -0.15948279 0.18962124 0.21530384 0.063810565 0.094718836 -0.10445834 0.041870777 -0.1750571 -0.046098772 -0.108422615 -0.13876335 0.26919782 -0.062962405 0.012076401 0.009526927 -0.17495169 0.04977322 0.21473978 -0.07737954 -0.012111564 0.16236171 -0.02691888 -0.06332799 -0.14109863 0.045898307 -0.21529397 -0.07320877 -0.12711412 0.11358859 -0.079597056 0.05839546 -0.08127238 0.036651414 0.10609048 -0.24132626 -0.081304915 -0.06364137 0.1396589 0.27877617 0.049163155 0.111287855 -0.120836884 -0.12641278 0.12970419 0.12439668 -0.18697847 -0.03056739 0.18132989 -0.07430826 -0.00680401 0.1886844 -0.10857819 -0.09937859 -0.0892849 -0.08391824 -0.10394419 0.05631459 0.20527697 -0.025283886 -0.046033226 0.16720973 -0.12791786 0.14049162 0.022908544 -0.033448357
592 -0.07960112 0.0076869684 -0.24566829 -0.07757652 -0.11743871 0.06885721 0.14871404 0.0019320347 0.10634879 0.108218975 0.13293901 0.10001636 0.11048552 -0.11969754 -0.014850897 -0.08534873 0.066056035 -0.08059333 -0.11057208 0.11637531 0.025629822 -0.11203086 -0.20454274 -0.108129054 -0.13048145 -0.0020041806 -0.10802486 -0.033129923 -0.07806686 0.11493285 0.065123364 -0.048362285 -0.064058274 0.07376889 -0.2535842 -0.043831028 0.295735 0.20134889 -0.016270831 -0.018363241 -0.13941886 -0.04239047 -0.22222863 -0.03912942 -0.05896554 -0.13003697 0.20426093 -0.09992558 0.059711233 0.12687843 -0.21768823 0.08116486 0.12727872 -0.12128113 -0.004714135 0.14274988 -0.06961604 0.09840994 -0.25966495 0.011779655 -0.14993732 -0.020965403 -0.019298699 0.021936135 -0.20695096 0.11593635 -0.14073128 0.038713086 0.08922677 -0.2577137 -0.101743095 -0.18142654 0.21306191 0.22099233 -0.014584046 0.10734159 -0.09010618 -0.11416561 0.2319855 0.08428082 -0.22317232 -0.055790253 0.14032722 -0.03955073 -0.034154546 0.120322235 -0.1441786 -0.17074865 -0.1712916 -0.02789148 -0.057627693 0.109493755 0.12775171 0.052439753 0.033281937 0.15234932 -0.15724708 0.15678582 -0.0056432076 0.08385373
91 -0.119397275 0.009009169 -0.2858061 -0.0880463 -0.11315439 0.12742937 0.19666596 0.00073742395 0.05472645 0.13185494 0.1560017 0.061249487 0.11844071 -0.14638889 -0.046966244 -0.09122353 0.051528897 -0.10146231 -0.10777409 0.16508362 0.031444874 -0.12703374 -0.22399208 -0.102590576 -0.12139368 -0.039493304 -0.091763146 -0.051612932 -0.09195089 0.1198636 0.025543943 -0.09543137 -0.058932308 0.07036779 -0.24837099 -0.044919595 0.25340083 0.21947768 -0.0020897116 -0.0072555337 -0.10878805 -0.013495571 -0.19743578 -0.039864697 -0.06059598 -0.13361739 0.20205769 -0.082657576 0.02274113 0.0850513 -0.2166015 0.08347435 0.14288777 -0.1322803 -0.018624498 0.15057053 -0.056404322 0.07271878 -0.25816956 0.033163846 -0.15855831 -0.017574739 -0.052618664 0.039419577 -0.1953278 0.09180506 -0.12865387 0.0311593 0.10906841 -0.2800886 -0.09911292 -0.22858864 0.2075931 0.2201799 0.0021086056 0.0878179 -0.10799446 -0.111836016 0.21173593 0.10457649 -0.23992804 -0.041053426 0.11352921 -0.059011515 -0.034568246 0.15957828 -0.13569544 -0.17987862 -0.16601701 -0.033801116 -0.0754072 0.108865604 0.13271531 0.035327885 0.01336049 0.14254044 -0.18222317 0.16459481 -0.012786776 0.03885097
172 -0.08552059 -0.05867416 -0.5108403 -0.05282809 -0.12031737 0.18830037 0.08934787 -0.064964056 -0.07004497 0.050873242 0.3259718 -0.14248556 0.04861493 -0.11541131 -0.022536753 -0.078699835 0.10328144 -0.17868915 -0.12530303 0.09112293 -0.07967886 -0.18158522 -0.19845873 -0.17067596 -0.21251686 -0.009403106 0.084459655 -0.047124363 0.01620234 0.08803696 -0.12393947 -0.10630704 -0.17790504 0.15340611 -0.26849586 -0.23678565 0.16869621 0.22204766 0.06550702 0.015089177 -0.09757759 0.05690522 -0.20354587 -0.075897045 -0.15075745 -0.12703624 0.35237727 -0.031273387 -0.008385541 -0.04036281 -0.31474677 0.09328125 0.22861607 -0.12458336 0.059013195 0.25658447 -0.022594457 -0.0956404 -0.18372202 0.013874482 -0.24654436 -0.0689012 -0.12831455 0.080199055 -0.110263705 -0.031322375 -0.1426937 0.07482353 0.10829267 -0.30303827 -0.011201517 -0.12132313 0.15114081 0.3784402 0.078753226 0.12416378 -0.11441465 -0.10761134 0.1332939 0.106618926 -0.22673449 -0.032849964 0.27187017 -0.0801357 -0.050588865 0.14140871 -0.094726615 -0.118858956 -0.069127604 -0.09453162 -0.1710437 0.14041337 0.21483333 -0.12332081 -0.04965994 0.11668027 -0.05252591 0.2216715 0.03797294 -0.07057993
86 -0.15096407 -0.024628958 -0.297793 -0.029478453 -0.15318248 0.11969186 0.22446193 0.015849276 0.06868951 0.17929585 0.11258694 0.020132527 0.17267987 -0.18276338 -0.031363185 -0.10656067 0.061956428 -0.06693737 -0.10560353 0.13730644 0.035816908 -0.13758262 -0.16927208 -0.13432187 -0.11583352 -0.010004146 -0.09339732 -0.09526644 -0.106589146 0.13726404 0.006031132 -0.113086715 -0.012387522 0.06581273 -0.2353691 -0.058718905 0.28827664 0.19908921 -0.02121252 0.027558358 -0.13925938 -0.01951521 -0.17934479 -0.041571762 -0.114450715 -0.1515873 0.20444602 -0.113511145 -0.0073368284 0.06643417 -0.18518625 0.09926927 0.16486019 -0.16955404 -0.02229234 0.09579385 -0.04841099 0.0450161 -0.22988456 -0.008710088 -0.16101295 -0.074941866 -0.07629075 0.049586352 -0.26780283 0.09233201 -0.10971231 -0.00056654285 0.04986679 -0.28931063 -0.1302048 -0.21556191 0.17838937 0.23465116 -0.0144803645 0.07378301 -0.07475591 -0.103347145 0.19807987 0.07410355 -0.24325453 -0.0058340253 0.12344965 -0.045735862 -0.023034237 0.15127824 -0.19490908 -0.17745604 -0.12641264 -0.016680883 -0.06498204 0.13783553 0.18695442 0.023475941 0.016507955 0.07149493 -0.13969393 0.16206138 -0.0053105485 0.052415997
75 -0.11729031 0.0053197714 -0.2956227 -0.05629769 -0.120536335 0.10167999 0.2222971 0.011632959 0.07078732 0.1638748 0.1266137 0.05465688 0.15598325 -0.1504571 -0.04463917 -0.09640204 0.06102618 -0.07233024 -0.09833009 0.14865468 0.049381834 -0.12323866 -0.22173631 -0.121792205 -0.10677859 0.006682744 -0.09467013 -0.04139314 -0.11773194 0.13114302 0.017118888 -0.13137604 -0.053595454 0.11050896 -0.22431107 -0.043065596 0.2639149 0.19720107 -0.016633004 -0.007708464 -0.13863726 -0.02701315 -0.1920759 -0.03354504 -0.060616735 -0.14349875 0.2006975 -0.13386884 0.00296885 0.09558627 -0.19318675 0.06789577 0.15277362 -0.16140562 -0.019541342 0.09513392 -0.03931596 0.08111573 -0.24719222 -0.019540891 -0.15180068 -0.05247261 -0.06705608 0.0035828475 -0.21891108 0.1080314 -0.11564916 0.04066497 0.07297844 -0.28835988 -0.10201068 -0.23986916 0.20620787 0.22215918 0.019298809 0.07724154 -0.09884473 -0.09462495 0.1965446 0.08418494 -0.22020344 -0.020265898 0.09139229 -0.038755745 -0.020350158 0.14205538 -0.15824889 -0.19253393 -0.11219898 -0.061219834 -0.08450345 0.10576488 0.12844633 0.030117719 0.032434568 0.12264611 -0.19682087 0.15458485 -0.032791864 0.03643766
107 -0.11390096 0.014178283 -0.25716278 -0.062447056 -0.10752047 0.11622475 0.18947855 0.0057049333 0.06979795 0.16567606 0.13375682 0.068647556 0.12411047 -0.16757405 -0.03622348 -0.065615386 0.06783976 -0.09954536 -0.08758066 0.13171332 0.03307374 -0.13074444 -0.21715933 -0.09976825 -0.09497259 -0.014049132 -0.08633599 -0.03056982 -0.10734426 0.13729724 0.0476572 -0.10008433 -0.06643818 0.079227604 -0.25298405 -0.031304512 0.25756076 0.19824927 0.0076364893 -0.013810629 -0.12546761 -0.018607717 -0.19344614 -0.037444204 -0.053144395 -0.14605398 0.18302092 -0.10442732 0.031525288 0.10298623 -0.18463144 0.07510072 0.14829779 -0.123217486 0.011703305 0.12157994 -0.05116992 0.07143893 -0.23629776 0.0015589901 -0.12314749 -0.027616818 -0.03587229 0.024076708 -0.20655535 0.11892849 -0.10148384 0.039868712 0.09881464 -0.2793296 -0.067666024 -0.2250377 0.18220887 0.19219287 0.006878779 0.08692609 -0.11404261 -0.08776329 0.18423824 0.09523597 -0.21199572 -0.020048225 0.09163529 -0.04172884 -0.015728757 0.14476633 -0.1308265 -0.17460977 -0.1361534 -0.029314201 -0.07032419 0.08760265 0.12635778 0.04494424 0.03695901 0.124840975 -0.1918143 0.16579896 -0.04153339 0.037910506
74 -0.106067054 -0.010073119 -0.3083796 -0.08723413 -0.12151046 0.12846306 0.17667477 0.0021578087 0.04543756 0.13955691 0.14406036 0.017705325 0.10975303 -0.116063975 -0.044429317 -0.09581203 0.07331172 -0.103391565 -0.109396905 0.13764618 0.026242932 -0.12727866 -0.1972819 -0.1141565 -0.13029394 -0.025686188 -0.064301334 -0.0665086 -0.106189065 0.13681844 -0.018653868 -0.097651236 -0.07595511 0.06254255 -0.23888195 -0.08575669 0.24697395 0.21108116 -0.019861665 -0.017090088 -0.12014667 -0.026107306 -0.2044381 -0.026806762 -0.085903436 -0.11731808 0.21462357 -0.070619896 -0.002567891 0.073390536 -0.25335538 0.08266855 0.16041729 -0.13397394 -0.0039941682 0.16057403 -0.050620582 0.060271148 -0.23101097 0.033018585 -0.18225975 -0.04587333 -0.048843924 0.04088939 -0.16963822 0.078540765 -0.0805469 0.008116952 0.0873456 -0.2640731 -0.09422272 -0.20063028 0.20209391 0.24071242 0.002866477 0.077408455 -0.08747727 -0.11860202 0.1955481 0.079386435 -0.23649395 -0.035325743 0.11898436 -0.046294536 -0.018490056 0.15474777 -0.124242775 -0.17914979 -0.14063919 -0.065821834 -0.0758763 0.114445165 0.10516121 0.03386714 0.013018294 0.14356335 -0.15818988 0.16178504 0.019439941 0.041263476
108 -0.14731829 -0.05842041 -0.3435518 -0.068487614 -0.1053161 0.20099446 0.18432365 0.005683554 0.0074098036 0.17125887 0.19240229 0.01435355 0.073946 -0.15630636 -0.0347053 -0.06749424 0.045486502 -0.1487318 -0.09535387 0.16760121 0.0054314397 -0.18131016 -0.19650768 -0.12354056 -0.09995388 -0.029454501 -0.06722664 -0.04645248 -0.09353535 0.09569919 0.013398965 -0.10940054 -0.045563843 0.021072082 -0.29187903 -0.08002951 0.2305329 0.2527635 0.029980494 0.04675229 -0.07845055 -0.024877908 -0.18801194 -0.03486313 -0.11804576 -0.13078797 0.21208309 -0.11388338 0.03398075 -0.0048967614 -0.22191916 0.0844583 0.19795251 -0.16535455 -0.025118103 0.15954743 -0.08788536 0.019332655 -0.22016026 0.020836936 -0.19153768 -0.03213362 -0.08179005 0.07473017 -0.19470136 0.10618057 -0.11868307 0.044796314 0.11682352 -0.26939222 -0.07418983 -0.16361736 0.18762471 0.22571588 0.029913617 0.05805123 -0.15596686 -0.09738069 0.1977811 0.11789697 -0.23345535 -0.03855589 0.17958757 -0.03636742 -0.04767851 0.20500103 -0.13479769 -0.11619471 -0.14114325 -0.055120226 -0.12256975 0.08541804 0.18730012 0.009054055 -0.0042300518 0.14084631 -0.18047878 0.17718787 -0.0010249323 -0.0057947305
73 -0.09692414 -0.012113999 -0.29758123 -0.10815347 -0.1284106 0.12149154 0.16594 -0.0075204554 0.047119338 0.13903995 0.1552957 0.03815652 0.123580776 -0.10503944 -0.04120509 -0.08532107 0.09822947 -0.08175505 -0.13843201 0.16052824 0.017207384 -0.13368326 -0.191412 -0.10708182 -0.15959685 -0.021659423 -0.057284914 -0.072687335 -0.09087691 0.1347935 -0.021820897 -0.087526575 -0.092461035 0.08289354 -0.23659611 -0.07432966 0.26321644 0.1895594 0.004774688 -0.014916088 -0.13929376 -0.014313313 -0.19631325 -0.025847554 -0.075504325 -0.12633535 0.22171342 -0.076225616 0.01587318 0.09962619 -0.2435122 0.09144135 0.17733131 -0.10362184 0.010156513 0.15350613 -0.03425027 0.040441453 -0.22747074 0.057386886 -0.16314992 -0.018301925 -0.045469362 0.042908207 -0.17058444 0.049508043 -0.08237976 0.023056876 0.07871186 -0.26805967 -0.0781743 -0.19560863 0.22848606 0.23062529 0.0020252916 0.09129889 -0.07617446 -0.10645276 0.18731505 0.10031078 -0.22533081 -0.03512723 0.13941656 -0.028918631 -0.033587504 0.14527963 -0.14527771 -0.20395912 -0.13310355 -0.05880136 -0.07965743 0.103961386 0.13909753 0.039188027 -0.014288138 0.15883599 -0.16018896 0.18216537 0.023667535 0.0536401
175 -0.06873373 -0.025717437 -0.3646335 -0.10781813 -0.14729722 0.08470019 0.19696403 0.029861504 0.031622406 0.092829086 0.18878977 0.00023442079 0.09134021 -0.069221675 -0.0334992 -0.05442983 0.100275725 -0.04371489 -0.1663535 0.13937858 -0.0039262916 -0.13360137 -0.17820247 -0.08680975 -0.19380644 -0.052552905 -0.03708537 -0.064020954 -0.047359068 0.1315947 -0.04087912 -0.11803101 -0.08540895 0.079247236 -0.25829136 -0.11007835 0.26732743 0.17680818 -0.028714271 0.0030294799 -0.14545472 -0.01220388 -0.22490406 -0.011415295 -0.0932001 -0.074140385 0.23366103 -0.08166272 0.009222879 0.07319328 -0.22404912 0.10482982 0.17540327 -0.1265004 -0.00773702 0.17711806 -0.07354435 0.01518149 -0.22791483 0.053376257 -0.22846988 -0.032369483 -0.06096038 0.04518362 -0.15500596 0.024784915 -0.109000795 0.008836669 0.0812148 -0.2715957 -0.106198594 -0.14045462 0.21690153 0.24288338 0.022845443 0.14427382 -0.05435191 -0.11029426 0.18603832 0.10012064 -0.22482625 -0.06442063 0.22356617 -0.07426789 -0.0120053915 0.15377152 -0.122946955 -0.18495923 -0.08429553 -0.08283351 -0.10475357 0.101855524 0.16831137 0.0031615098 -0.051234923 0.18061058 -0.115085416 0.17942844 0.05465965 0.012526437
151 -0.09289168 -0.024778781 -0.33841792 -0.11079104 -0.14710265 0.11517369 0.15570767 -0.014701701 0.032320168 0.11828335 0.2028329 0.016007112 0.11119164 -0.09594969 -0.02090036 -0.06822514 0.07880075 -0.066337466 -0.16685586 0.16050033 -0.0009871152 -0.14904922 -0.19434717 -0.100620806 -0.15667969 -0.032989543 -0.031194925 -0.06750394 -0.071624964 0.1148774 -0.048837706 -0.092265025 -0.10265585 0.08314694 -0.24001364 -0.111741535 0.23169106 0.19340004 -0.016363954 -0.016919868 -0.15873183 0.008844033 -0.20935759 -0.024211211 -0.08988562 -0.11830887 0.25375396 -0.043403614 0.013207354 0.05696647 -0.2434869 0.0815841 0.21167426 -0.100915 -0.017460981 0.15968311 -0.041975737 0.04035307 -0.21796305 0.085234515 -0.21373081 -0.018408783 -0.07837844 0.06338716 -0.13950132 0.035940766 -0.10462046 0.023609566 0.08138968 -0.27293497 -0.074763104 -0.1460302 0.23212579 0.2536122 -0.0015621745 0.11192523 -0.062161494 -0.09589203 0.18926279 0.11671658 -0.24008147 -0.040158115 0.17699073 -0.05866934 -0.028346336 0.14467645 -0.1360072 -0.20145954 -0.11807488 -0.09767629 -0.09897645 0.094840385 0.15666045 0.017363809 -0.033419807 0.17016432 -0.1316076 0.18240933 0.05452885 0.022888524
160 -0.05170423 0.024062129 -0.3804024 -0.0752205 -0.12989342 0.16944635 0.23034215 -0.00054239924 0.030365884 0.08762486 0.26095855 -0.026863987 0.090460956 -0.061109446 -0.07054448 -0.08886701 0.0317586 -0.0935676 -0.0812639 0.17844972 0.08810682 -0.10615006 -0.23362562 -0.17613731 -0.15785226 0.013691215 -0.024058277 -0.07735641 -0.028208422 0.10777728 -0.012025031 -0.09690369 -0.1884812 0.024651732 -0.25269482 -0.08956872 0.23180248 0.1641277 0.029021248 0.016113916 -0.081666134 0.014036787 -0.22666599 0.021948999 -0.13602795 -0.085941695 0.2655548 -0.09980436 -0.0011548948 -0.05289465 -0.18085314 0.057503022 0.12579967 -0.22838706 -0.046622552 0.1725367 -0.055312473 0.057296555 -0.32022727 0.021391569 -0.19775581 -0.045313906 -0.094916545 0.012720561 -0.21358885 0.07129812 -0.17143485 0.014394898 0.14405127 -0.2457023 -0.14503528 -0.22646631 0.11893704 0.28540906 0.07606142 0.1098347 -0.1582179 -0.0938507 0.19455713 0.0455777 -0.23538715 0.012977215 0.18387845 -0.08117431 -0.08207281 0.14752653 -0.14918308 -0.24021013 -0.19742794 -0.00978022 -0.101016976 0.16872682 0.15009879 0.035673376 -0.0180694 0.12449176 -0.07738208 0.08341821 0.043853715 -0.03144413
309 -0.01599943 -0.06563103 -0.41195315 -0.2074554 -0.1634176 -0.040243313 0.17456669 0.0016972019 0.061641004 0.029511616 0.21966735 0.0010505485 0.16364057 -0.060045265 -0.0770067 -0.06355832 0.21441084 -0.08439933 -0.18484575 0.07833298 -0.019154077 -0.24830678 -0.21131715 -0.063149154 -0.3456557 -0.14007683 -0.021190373 -0.18914858 0.03478763 0.029774502 -0.092797354 -0.047658257 -0.022737123 0.15688303 -0.27910388 -0.08777117 0.32575184 0.26306775 0.007060455 -0.0068027806 0.057356834 0.046692125 -0.13656636 0.03500251 -0.15616527 0.12013738 0.26006362 -0.09016674 0.10311567 0.1536291 -0.31036305 0.08560045 0.15517606 -0.10672108 -0.1952612 0.32275322 -0.07812549 0.052732013 -0.17085822 0.009165067 -0.2995623 -0.16085821 -0.09534068 0.09503059 -0.10635136 -0.021447068 -0.1668838 -0.040193956 0.12415982 -0.21766046 -0.26364717 -0.13952342 0.2762642 0.26111078 0.129559 0.18870269 0.04172015 -0.18401499 0.122045286 -0.08108514 -0.16401494 -0.16952686 0.38784355 -0.055647243 0.009815232 0.14679946 -0.11408595 -0.2539309 -0.12971154 -0.03009534 0.0002469602 0.13164118 0.17650492 0.03889765 -0.19724834 0.11491191 0.0013772303 0.16322078 0.17247643 0.15321338
106 -0.072927006 -0.028148802 -0.31320295 -0.11969472 -0.15850212 0.12362358 0.17647237 -0.012254149 0.037237316 0.16457142 0.12976268 0.06498619 0.06780857 -0.103632286 -0.021456894 -0.094706215 0.09900741 -0.087215364 -0.13724281 0.15584224 0.021977346 -0.1205559 -0.18382621 -0.13246752 -0.1401071 -0.025131168 -0.08179185 -0.059225135 -0.09368637 0.14420386 -0.007956596 -0.051272653 -0.017312385 0.044662576 -0.2592722 -0.040951166 0.21943493 0.20804358 0.029216519 -0.009749996 -0.12231415 -0.015222488 -0.19165874 -0.0707718 -0.062503174 -0.1547464 0.20988967 -0.09481965 0.0672499 0.06525609 -0.2317831 0.07820068 0.17919584 -0.1288394 -0.036054656 0.15753207 -0.06237275 0.0610401 -0.25250706 0.07655883 -0.16055351 0.030872688 -0.05395455 0.06556583 -0.1753393 0.0042678057 -0.095899105 0.04947578 0.057781972 -0.29181036 -0.12774698 -0.20456919 0.24413414 0.23101014 -0.05681599 0.10531672 -0.061207883 -0.09751373 0.2049295 0.15492138 -0.19478518 -0.08064393 0.14651003 -0.05448635 -0.06795933 0.19994228 -0.10783769 -0.17657827 -0.17119761 0.005188713 -0.13188365 0.06174722 0.10990784 0.06969848 0.01222382 0.11609897 -0.21501721 0.13179259 0.0293761 0.05002894
154 -0.078111164 -0.029181397 -0.34090224 -0.11418489 -0.14320946 0.09805677 0.17129973 0.017457185 0.056361858 0.086869344 0.19389094 -0.0062199 0.12135363 -0.08257588 -0.025115745 -0.08570142 0.075947925 -0.09543672 -0.16581513 0.12844376 -0.014997201 -0.13345093 -0.17915063 -0.08540564 -0.18161774 -0.06435071 -0.027943127 -0.077768214 -0.046937685 0.11343209 -0.004531601 -0.088326044 -0.077445686 0.1006357 -0.27030212 -0.07435985 0.2648604 0.20425303 -0.015626416 -0.014961547 -0.14216557 0.01696956 -0.20491505 -0.015240569 -0.095354125 -0.090379566 0.22836316 -0.048879385 0.034229625 0.08695172 -0.25041723 0.096026294 0.18321049 -0.08320349 -0.04889742 0.19497004 -0.03982521 0.039554927 -0.23057014 0.060362987 -0.2058471 -0.047534354 -0.08601192 0.06811478 -0.13525778 0.023819579 -0.08615746 0.016517453 0.09558296 -0.26302555 -0.12257357 -0.14327793 0.21724232 0.24848062 0.0056089205 0.11608636 -0.05549475 -0.1390739 0.18001026 0.10001518 -0.22613183 -0.054786354 0.20087184 -0.052413285 -0.05320663 0.13427302 -0.12157952 -0.20206524 -0.13850322 -0.057568505 -0.086711325 0.1140537 0.16775012 0.018382622 -0.038661383 0.16998167 -0.12874338 0.17867804 0.05812205 0.049026
163 0.11034238 0.20638297 -0.5024712 -0.063508295 -0.13024893 0.2065746 0.4709109 0.0049180323 -0.12539062 -0.05114257 0.44636443 -0.24152242 0.104670145 0.010298931 -0.17093886 -0.1100716 -0.032971792 -0.19998093 -0.0013127184 0.41009602 0.27836102 -0.008242898 -0.42066422 -0.24308391 -0.36257747 0.14294772 0.12976894 -0.39033842 0.07880313 0.05766578 -0.18799281 -0.041878656 -0.4049318 -0.15643968 -0.4369961 -0.14573827 0.32684213 0.037855566 0.10929181 0.11928423 -0.16042803 0.16641691 -0.37606016 0.21407619 -0.1957886 -0.060972583 0.28916782 -0.3553118 -0.03720101 -0.38268852 0.039948612 -0.019332094 0.022106485 -0.4164053 -0.25167203 0.08744863 -0.1761476 0.13838513 -0.50078136 -0.013717615 -0.08227635 -0.06450176 -0.079241596 -0.20715916 -0.33065718 0.12101188 -0.08643092 -0.1575187 0.24582793 -0.08638612 -0.32637033 -0.43002838 -0.12028189 0.2884768 0.20298809 0.2193926 -0.20205212 -0.16907941 0.2091974 -0.057165585 -0.18317361 0.2171468 0.19462895 -0.03873377 -0.25952515 0.15607755 -0.2668297 -0.39128554 -0.21719962 0.008854358 -0.2144457 0.31828788 0.15800324 0.14311741 0.021591187 0.13467924 0.032389004 -0.14885159 0.15190871 -0.17216761
618 -0.080092154 -0.013009238 -0.33446154 -0.07476902 -0.13931286 0.06585651 0.22601274 0.02504244 0.05354883 0.12227812 0.14363025 0.02472408 0.114690945 -0.1092393 -0.062412422 -0.11494113 0.07167064 -0.0792529 -0.09625949 0.13370967 0.032700837 -0.11686829 -0.22128001 -0.11727048 -0.14377512 0.011925833 -0.09033417 -0.0875497 -0.06949971 0.10946038 0.027221663 -0.067441024 -0.08928711 0.07822763 -0.29218012 -0.056220293 0.25991794 0.20538168 -0.0068526724 -0.01438796 -0.12354196 -0.017234525 -0.1864787 -0.033362728 -0.10776189 -0.106255904 0.20889594 -0.112707935 0.017723158 0.07109809 -0.22359645 0.09641873 0.13768527 -0.1612445 -0.068115756 0.144808 -0.07431645 0.088894784 -0.24725921 -0.018355614 -0.1727414 -0.026011312 -0.047654834 -0.015049875 -0.2492974 0.09561124 -0.1237328 0.045794044 0.05571123 -0.28250074 -0.14659967 -0.22917926 0.18172486 0.25842348 0.024964858 0.12115675 -0.09874993 -0.09486866 0.19537005 0.07581442 -0.22000118 -0.036923815 0.1389613 -0.050050914 -0.057158504 0.13296492 -0.1727422 -0.20468797 -0.12787153 -0.032937903 -0.11244294 0.13536045 0.14601123 0.015034878 0.017012404 0.1216086 -0.15098593 0.11642231 0.0067232405 0.049551394
109 -0.074947685 -0.016161544 -0.30265135 -0.10842916 -0.1300743 0.08158114 0.19720683 0.009753929 0.058092244 0.11568222 0.15215884 0.035548948 0.11008327 -0.12172385 -0.037942432 -0.08650751 0.08584482 -0.08175866 -0.1265023 0.15629743 0.0049304315 -0.123689435 -0.18055142 -0.10941434 -0.15938912 -0.010347948 -0.050568815 -0.060485307 -0.075788826 0.13650405 -0.0068643377 -0.079528525 -0.07372284 0.05467274 -0.2572343 -0.057655018 0.2594136 0.18612076 0.005596157 0.0052368455 -0.13145652 -0.023063598 -0.1927128 -0.040632974 -0.0744705 -0.1025024 0.21122314 -0.095249005 0.03584904 0.07225803 -0.20354275 0.07505727 0.13170317 -0.106049836 -0.028569443 0.12493781 -0.05514175 0.053569403 -0.22554334 0.044514842 -0.16868412 -0.05585088 -0.0075529623 0.019530296 -0.19524647 0.08521565 -0.09178118 0.030735822 0.06613798 -0.25445107 -0.10796591 -0.17102335 0.19352798 0.23101 0.019968057 0.10766158 -0.0771439 -0.09855893 0.2085848 0.08681608 -0.22431935 -0.048855927 0.1676148 -0.03878984 -0.053500146 0.1328223 -0.1334055 -0.1791524 -0.13742009 -0.023177722 -0.08573112 0.089888126 0.14814548 0.05670654 -0.012570489 0.13856235 -0.14205022 0.12878138 0.0189478 0.04749272
111 -0.06287886 -0.01282987 -0.29683867 -0.11288431 -0.14242955 0.122878075 0.15718332 0.0069279624 0.06324051 0.14320727 0.11611437 0.05365903 0.05061609 -0.10559363 -0.017821997 -0.09301261 0.116333574 -0.0895463 -0.13618994 0.13981675 0.027657127 -0.09338841 -0.18460354 -0.12721774 -0.119724855 -0.01342322 -0.08270739 -0.04560241 -0.09287586 0.14191 -0.015072662 -0.040899 -0.026131233 0.0068250443 -0.2448272 -0.024167603 0.23260555 0.20572929 0.01528867 -0.032372836 -0.12525952 -0.037421033 -0.17785057 -0.07556715 -0.048290983 -0.1595751 0.18495724 -0.074235514 0.06903223 0.061001725 -0.2456431 0.10403584 0.15557647 -0.120602876 -0.017088708 0.16575064 -0.07128986 0.082427315 -0.27155823 0.064984165 -0.16882287 0.040855996 -0.037451558 0.06736981 -0.1895301 0.009294026 -0.08159029 0.046365317 0.07625541 -0.28496248 -0.120137446 -0.21349175 0.25470915 0.23333338 -0.05564502 0.091355145 -0.03222207 -0.10892378 0.21093307 0.14263448 -0.21701582 -0.085584804 0.15768155 -0.037263557 -0.08189264 0.15828326 -0.1130639 -0.18168385 -0.16502024 0.023799988 -0.121300325 0.061153926 0.09359079 0.07413235 0.02425692 0.10507956 -0.18540458 0.15283138 0.021898244 0.066926576
37 -0.10502499 0.0021011818 -0.31942043 -0.07932666 -0.122767925 0.0872729 0.16909228 0.01695112 0.03435478 0.09264598 0.14488521 0.05776705 0.11371648 -0.079685934 -0.053365175 -0.06267677 0.101372235 -0.021401199 -0.21710095 0.17329687 0.046044514 -0.13623779 -0.19819753 -0.11347079 -0.12573661 -0.031392045 -0.03488994 -0.038090926 -0.10703261 0.08894834 -0.036597252 -0.079712026 -0.09752581 0.08393689 -0.19974771 -0.08679573 0.2299759 0.20316215 0.0046839532 0.03659884 -0.15831341 -0.0006899365 -0.16201928 -0.004507148 -0.1363488 -0.037877552 0.27942175 -0.052455552 -0.02534409 0.04244679 -0.20766877 0.06619355 0.14220122 -0.12168818 -0.06407384 0.0790258 0.00031847638 0.014416601 -0.19499026 0.10102857 -0.21701021 -0.060334187 -0.070003875 0.029089577 -0.15187076 0.101236284 -0.122726046 0.0022931914 0.07287928 -0.26172087 -0.09188287 -0.12116557 0.167682 0.2450299 0.038780645 0.09814807 -0.08630018 -0.08491723 0.147159 0.1451911 -0.2254157 -0.0264558 0.12780058 -0.05489883 -0.040366318 0.19715542 -0.09577662 -0.17536674 -0.17388427 -0.07971631 -0.08192627 0.107364565 0.14936376 -0.019699844 -0.07101829 0.1309089 -0.16709428 0.13571936 0.009574538 0.0018047944
92 -0.09900338 -0.002557666 -0.268525 -0.09946637 -0.13649794 0.08484451 0.14054318 -0.009028115 0.10766636 0.107004546 0.1330232 0.089085236 0.08143893 -0.121060476 -0.010746708 -0.098975755 0.06879245 -0.09357652 -0.14168113 0.12224689 0.03356496 -0.11546906 -0.17570156 -0.08351556 -0.14401105 -0.041597903 -0.11973764 -0.037495375 -0.085826755 0.09809793 0.052316006 -0.03365525 -0.016218923 0.059412923 -0.25825644 -0.0065648016 0.28190535 0.21526168 -0.016608069 -0.036656898 -0.13326265 -0.012143163 -0.20152658 -0.055465832 -0.02885779 -0.1484889 0.18946323 -0.06405697 0.03851534 0.13988861 -0.25051078 0.08793452 0.13305067 -0.10961737 -0.002680502 0.15976465 -0.070542134 0.09374242 -0.28498375 0.04376758 -0.16527325 0.020793697 -0.019303454 0.04067735 -0.17703989 0.06843997 -0.14705867 0.051743723 0.1004921 -0.27030012 -0.11248234 -0.2083628 0.22499457 0.22594158 -0.06485173 0.12412398 -0.069632046 -0.11660648 0.24797228 0.12363009 -0.23854548 -0.073661394 0.1293298 -0.05768448 -0.06064144 0.15805006 -0.14314777 -0.19836304 -0.17699656 -0.0032688454 -0.08931866 0.11844498 0.11459887 0.067582764 0.039482128 0.15257199 -0.1716462 0.16510521 0.010683901 0.0872665
66 -0.10568809 -0.017828997 -0.30393013 -0.092605405 -0.116284765 0.10737499 0.21485521 0.0011237194 0.029212328 0.1377072 0.14979105 0.019647544 0.120216094 -0.11260334 -0.051491667 -0.08028708 0.053642724 -0.09817946 -0.11872583 0.16063328 0.04237762 -0.13416271 -0.19817962 -0.096262515 -0.13572688 -0.03719097 -0.044735704 -0.04759557 -0.08681245 0.11611968 -0.014600273 -0.10762256 -0.06977762 0.073241085 -0.24184437 -0.088062264 0.2475981 0.1879041 0.001448452 0.02429507 -0.1259136 -0.0003090483 -0.19346686 -0.018462723 -0.07560728 -0.10393504 0.23893738 -0.09690033 0.016373347 0.06670439 -0.18711984 0.06343415 0.15075196 -0.12565525 -0.029917931 0.108657524 -0.02766904 0.043478545 -0.21817757 0.042930115 -0.16735093 -0.04989066 -0.06210261 0.035803467 -0.18018717 0.0929276 -0.0865041 0.01188238 0.085699014 -0.23742755 -0.09899109 -0.16799784 0.17265318 0.23929623 0.015312067 0.117816046 -0.09726056 -0.10645911 0.17095672 0.08778 -0.2077798 -0.033838492 0.14252928 -0.058870334 -0.032857813 0.16808996 -0.12763338 -0.1628376 -0.12693064 -0.05016721 -0.083467804 0.080231324 0.15736863 0.037133213 -0.021460623 0.1385142 -0.14755316 0.12787357 0.028246567 0.020290293
162 -0.030725218 0.049857035 -0.36892334 -0.0689842 -0.13257766 0.13190058 0.27622607 0.012228963 -0.008592091 0.07369763 0.22199337 -0.035973217 0.11700465 -0.0947291 -0.075419165 -0.111635424 0.04538846 -0.112943426 -0.066794656 0.19856465 0.09358599 -0.09329479 -0.2659664 -0.15004063 -0.1564474 0.033944752 -0.035664234 -0.14284258 -0.054211657 0.097265735 -0.044048913 -0.09010587 -0.1432759 0.021924049 -0.2998384 -0.07777227 0.24606015 0.1594803 0.010891584 0.025432969 -0.1310814 0.029669173 -0.22864524 0.03836686 -0.12216319 -0.10917858 0.20353153 -0.18337604 -0.013358786 -0.050494 -0.16448493 0.052175928 0.11822821 -0.23080629 -0.12009924 0.12691942 -0.082613476 0.1090923 -0.3076609 -0.024391036 -0.13835542 -0.039436318 -0.06360262 -0.07099 -0.25273246 0.11251304 -0.104360856 -0.016279822 0.12476766 -0.2263126 -0.163925 -0.28167936 0.10927122 0.26053852 0.070549875 0.14006773 -0.11734757 -0.10113387 0.18366994 0.047184803 -0.23273525 0.017027728 0.13706432 -0.043851864 -0.10053899 0.1580967 -0.180148 -0.2221025 -0.1427036 -0.057760224 -0.13529257 0.19037265 0.14389887 0.022863066 0.013956631 0.1369083 -0.106305 0.07555948 0.027949458 -0.012039739
694 -0.08520089 0.0093499115 -0.3163644 -0.06377939 -0.13689521 0.118032284 0.21416795 0.014966166 0.049598817 0.13960749 0.15294632 0.017056335 0.112141915 -0.14144415 -0.0515272 -0.108033374 0.06338094 -0.10074168 -0.09021855 0.15940493 0.041848287 -0.12570907 -0.21884005 -0.119003475 -0.10446333 0.0018083144 -0.10211019 -0.061982602 -0.08984883 0.10648133 0.0152136795 -0.0943182 -0.08034932 0.07034011 -0.27940506 -0.061121482 0.26677293 0.2160491 -0.015985098 0.008237827 -0.110738836 -0.012502345 -0.19142187 -0.025593355 -0.09014199 -0.13298188 0.19213949 -0.10966415 -0.00386894 0.04893559 -0.21351844 0.08655193 0.14480983 -0.17552379 -0.04681893 0.13110936 -0.06987273 0.0846651 -0.27244493 -0.0038241062 -0.15962549 -0.024177492 -0.058494005 0.00093087927 -0.24037425 0.09800182 -0.10847228 0.030149171 0.08088935 -0.26154488 -0.1058046 -0.24581915 0.18151562 0.21872866 0.020558335 0.10105622 -0.0926892 -0.09617268 0.19092503 0.08662158 -0.23108935 -0.04264259 0.12157739 -0.041068535 -0.055100292 0.15075462 -0.16228394 -0.18108854 -0.13466445 -0.025991218 -0.100038685 0.123324096 0.13016847 0.030143296 0.024004448 0.12943456 -0.17641619 0.14810923 -0.011018504 0.051681116
638 -0.11748846 -0.019162957 -0.36688107 -0.10049873 -0.09959242 0.08480347 0.21569604 0.04438523 0.038337342 0.0970917 0.1745053 0.0647186 0.08139142 -0.12753496 -0.008468713 -0.11862371 0.052427895 -0.07601862 -0.13449925 0.13619661 0.003387719 -0.15363966 -0.17712982 -0.16109549 -0.1145446 -0.0041149296 -0.08663303 -0.055193454 -0.08803222 0.11161627 0.022688096 -0.07352076 -0.06334128 0.025832858 -0.2555789 -0.09741833 0.26362318 0.19172767 -0.014880762 0.02024508 -0.10745386 -0.03735757 -0.14411588 -0.016597103 -0.09198029 -0.100144565 0.22849175 -0.09823226 -0.01410371 0.040094335 -0.22109912 0.09980995 0.14324443 -0.19654006 -0.0318516 0.15995717 -0.07634067 0.034715664 -0.2519542 0.013394068 -0.23544616 -0.06852317 -0.048328802 0.054049823 -0.23870234 0.10561062 -0.15260462 0.044418424 0.089480005 -0.28154367 -0.12294591 -0.20980653 0.17971045 0.24673 0.035187557 0.10192972 -0.08815886 -0.11578307 0.20135842 0.08166392 -0.2635797 -0.05108182 0.1585567 -0.079790965 -0.068612635 0.11902762 -0.14478116 -0.15937823 -0.14733125 -0.0036308793 -0.10848878 0.1329657 0.15325686 0.035275858 0.0045213182 0.12009235 -0.11312674 0.14477627 0.012375576 0.03435265
164 -0.12012248 -0.015573588 -0.2919912 -0.07749915 -0.09312205 0.13589495 0.18525133 0.008487059 0.056910682 0.14241672 0.13673308 0.07045775 0.089291506 -0.16824344 -0.024378438 -0.0843675 0.05441444 -0.11023412 -0.11376428 0.13729736 0.039323624 -0.14046581 -0.19420393 -0.10408975 -0.082722984 -0.015965449 -0.10545632 -0.033594772 -0.11428589 0.13183753 0.065245226 -0.06608047 -0.0513712 0.04258391 -0.2689764 -0.06916308 0.2543319 0.22232594 0.0015508331 0.013760645 -0.12701322 -0.026684219 -0.17956129 -0.023784935 -0.076648675 -0.12396981 0.17413363 -0.09868585 0.018293437 0.05705106 -0.20214124 0.0914665 0.15091862 -0.15760943 -0.0026299611 0.13554248 -0.06761914 0.042870898 -0.2393612 0.0071427263 -0.15907592 -0.043746687 -0.046409547 0.036953963 -0.21746278 0.11165647 -0.11782621 0.027137708 0.09326407 -0.2806703 -0.076874465 -0.19640206 0.18403701 0.1954543 0.019663807 0.08753591 -0.10115448 -0.09896099 0.19800225 0.11959906 -0.23057587 -0.06477278 0.11244739 -0.057777695 -0.0384772 0.16597885 -0.15051015 -0.16079403 -0.14455982 -0.0015498406 -0.09130268 0.101401195 0.14420469 0.043410238 0.040306885 0.11337923 -0.18118246 0.15260333 -0.033568665 0.028858043
187 -0.1031032 -0.0089722285 -0.3303695 -0.05170706 -0.11506435 0.10272142 0.20774876 0.007155141 0.042488966 0.14967473 0.15539779 0.020692911 0.13021496 -0.13694318 -0.0427732 -0.11685435 0.06447113 -0.09380943 -0.1171013 0.1382281 0.03444537 -0.14398548 -0.20980866 -0.13750221 -0.12604086 -0.017397169 -0.07874885 -0.07525412 -0.08900755 0.11373228 0.007863062 -0.10048658 -0.07727091 0.08875492 -0.27026418 -0.09464818 0.2668492 0.20331138 -0.025622148 0.022460334 -0.11722326 -0.021124749 -0.21102999 -0.0193789 -0.10620595 -0.11230621 0.21921441 -0.14274731 0.010792274 0.038934976 -0.19546688 0.079662174 0.16300823 -0.16812803 -0.043835547 0.15316585 -0.06851322 0.06005506 -0.22756946 -0.017587977 -0.15270475 -0.05837092 -0.07119451 0.0112467585 -0.2333398 0.088798374 -0.1103804 0.022070048 0.08487859 -0.26075354 -0.12178385 -0.21217346 0.17819183 0.23642066 0.027334534 0.10153141 -0.12089426 -0.08973577 0.18023518 0.05449115 -0.21450914 -0.023747172 0.13391297 -0.03554664 -0.037031565 0.14944966 -0.1744912 -0.17500024 -0.11165505 -0.055427313 -0.10424894 0.12925938 0.16489899 0.016313171 0.013878065 0.119724534 -0.15652697 0.14345057 0.0176569 0.030347893
238 -0.24762721 -0.14347544 -0.55260825 -0.08113604 -0.007364914 0.21419013 0.0645482 -0.18834211 -0.14009239 0.16383041 0.32936665 0.011673551 0.08385955 -0.15381901 -0.11385247 -0.075440355 0.023070721 -0.20777763 -0.1400391 0.22374256 -0.07305108 -0.22794876 -0.13797307 -0.29210043 -0.20702466 -0.13293818 0.021004708 -0.07484781 -0.014325128 0.03454068 -0.085636295 -0.13414319 -0.09574812 0.11453875 -0.36193967 -0.32236844 0.10040371 0.2207534 0.058265366 0.14925 -0.04452533 0.08546527 -0.29075745 -0.107142694 -0.18361671 0.038720895 0.34650743 -0.1945071 0.01132822 -0.12177922 -0.18056524 0.08284221 0.3339123 -0.10727456 -0.06648642 0.23690492 -0.100739405 -0.047366112 0.045802258 0.0018366338 -0.2113607 -0.12220579 -0.11403062 0.16734825 -0.064571716 0.102972165 -0.1043836 -0.015119624 0.08280778 -0.2192836 -0.04167996 -0.042328957 0.05534055 0.38709998 0.086044386 0.13351563 -0.2621451 -0.11769622 0.12280388 0.03357932 -0.15082797 -0.03525885 0.38457942 -0.0045613814 -0.064310156 0.38859743 -0.179958 0.0070447135 -0.063915074 -0.08630004 -0.17053422 0.03843684 0.38250145 -0.07247777 -0.15610835 0.1154861 -0.08027612 0.12765379 0.16704576 -0.10378875
631 -0.091869935 0.00016434824 -0.20161691 -0.15976553 -0.14299531 0.010318813 0.09523323 -0.026053129 0.15751895 -0.012071546 0.17936493 0.1731629 0.08641807 -0.056690916 -0.021122688 -0.09642653 0.061061956 -0.080862224 -0.18505666 0.13591373 0.015319317 -0.09204275 -0.26000506 -0.09848683 -0.2174652 -0.060771875 -0.11250023 -0.06296761 -0.085990146 0.068550825 -0.00023388244 0.035112098 -0.0134467 0.026772385 -0.29501584 0.047721013 0.32485572 0.13790724 -0.01066025 -0.059003286 -0.09345067 0.022756519 -0.24729127 -0.08665099 -0.006701661 -0.17804107 0.22599877 -0.026441265 0.09393421 0.20351702 -0.3122172 0.096757464 0.11423375 0.0024051035 0.044308018 0.18422528 -0.05535189 0.1666292 -0.29904714 0.016089901 -0.21036722 0.06258335 0.046308916 0.028454509 -0.18101287 0.050405 -0.15194793 0.031547893 0.04373263 -0.2852817 -0.1408985 -0.21180251 0.22738513 0.33634752 -0.11902696 0.17795794 -0.049092256 -0.07952922 0.2988597 0.06632022 -0.20601474 -0.06734064 0.12231203 -0.042364098 -0.1279212 0.122172885 -0.21370158 -0.21694483 -0.22116922 -0.049351502 -0.07264394 0.09868671 0.13132064 0.1002261 -0.03271387 0.17776647 -0.064773716 0.1558728 0.064582944 0.17158198
99 -0.122240655 -0.03092547 -0.3063684 -0.097648226 -0.1228654 0.10349486 0.19779395 -0.010565543 0.06125787 0.14388491 0.14808074 0.03882708 0.107268795 -0.120892584 -0.043049403 -0.07126504 0.052967854 -0.0897764 -0.12193407 0.16188452 0.037432175 -0.15512316 -0.19398494 -0.089584775 -0.13581036 -0.043210424 -0.0625082 -0.06041669 -0.08908686 0.10744015 -0.016272819 -0.11170698 -0.03628426 0.08582531 -0.26314557 -0.067602135 0.24334173 0.1880247 0.019256838 0.016517011 -0.13188802 0.0069201547 -0.1850955 -0.04764338 -0.076790996 -0.12153948 0.21163855 -0.0961928 0.01182202 0.086935565 -0.20381047 0.070000954 0.16618922 -0.10085026 -0.022985121 0.12043663 -0.0496946 0.049278557 -0.22887507 0.03483517 -0.17534184 -0.049048066 -0.04695501 0.048651334 -0.18089032 0.082371324 -0.07876817 0.033893608 0.08245614 -0.26482412 -0.10752422 -0.16656856 0.1824763 0.2290301 0.010960859 0.12986131 -0.09927198 -0.10384612 0.19626655 0.08310274 -0.21480341 -0.033050515 0.12831295 -0.057245046 -0.03418062 0.16617213 -0.15028255 -0.16221763 -0.12624419 -0.051469117 -0.09424173 0.07924018 0.14743306 0.03822539 -0.02652148 0.1339003 -0.16180709 0.14389333 0.019460898 0.034985065
198 -0.13756447 -0.04599138 -0.37250677 -0.04806296 -0.07201781 0.25649312 0.17697473 0.031739306 0.0016952207 0.1529604 0.19306467 -0.00304905 0.030838704 -0.15898906 -0.005236261 -0.075900435 0.03812679 -0.16038375 -0.06255756 0.15891042 0.008469689 -0.19192308 -0.17068247 -0.09779148 -0.055446185 0.012652896 -0.1422923 -0.04572663 -0.12275945 0.0887507 0.057524994 -0.061467 -0.056156714 -0.04960504 -0.31391856 -0.06900063 0.27930957 0.27795812 0.05213373 0.060071986 -0.08574359 -0.05950941 -0.17664853 0.016341439 -0.1466462 -0.14186928 0.16096306 -0.086951196 -0.015547526 -0.042698164 -0.23504531 0.106308095 0.15707503 -0.27432457 -0.011827345 0.19348651 -0.12977023 0.0015317098 -0.31077287 -0.0013976649 -0.20919088 -0.010522603 -0.09018897 0.05794095 -0.21684933 0.13648455 -0.13115126 0.07662211 0.12283882 -0.2671363 -0.05727904 -0.2106696 0.16077834 0.22425066 0.069191575 0.048102256 -0.1533651 -0.07179109 0.1903628 0.15789375 -0.2610467 -0.056050982 0.14425199 -0.036087368 -0.08745828 0.15794128 -0.15063277 -0.1409459 -0.1414283 -0.0026253208 -0.13206865 0.12656075 0.15585543 0.045392387 0.06834476 0.12125921 -0.18650055 0.19854349 -0.04097699 -0.032919884
97 -0.09337277 -0.01983501 -0.32335892 -0.09628199 -0.122004285 0.08227756 0.19295678 0.016435513 0.039560717 0.11763452 0.1636277 0.026496286 0.11017874 -0.11119004 -0.040181074 -0.076140836 0.08913889 -0.08397201 -0.13758458 0.16590971 0.015168705 -0.14973597 -0.19243415 -0.10801219 -0.15468253 -0.037805807 -0.035927776 -0.06192373 -0.09267857 0.11715715 -0.021775039 -0.07125653 -0.06791458 0.058928028 -0.24092354 -0.08846066 0.22833455 0.2064193 -0.0038675151 0.022515006 -0.13139085 -0.014243653 -0.18351758 -0.026001628 -0.10041538 -0.07981398 0.24491948 -0.07819241 0.006194652 0.06043151 -0.19460148 0.06313915 0.1497961 -0.096484646 -0.03718843 0.12763253 -0.035056856 0.04026295 -0.20872912 0.04669117 -0.18685034 -0.05465595 -0.037425473 0.03594861 -0.1591671 0.10541784 -0.105630286 0.018714637 0.05959682 -0.26041523 -0.11900226 -0.14021881 0.18777859 0.23616181 0.027814114 0.10519357 -0.09984739 -0.09539001 0.18924305 0.107028514 -0.22335038 -0.05502984 0.16564222 -0.042255003 -0.03955908 0.1728558 -0.12963021 -0.1758155 -0.1532686 -0.053071912 -0.08462484 0.10695132 0.16730054 0.02656522 -0.040292885 0.13363677 -0.14800549 0.1413272 0.0051247114 0.031921748
144 -0.07275451 -0.051844545 -0.3801153 -0.05565092 -0.098485984 0.098305225 0.2191516 0.02896825 0.020704903 0.12006266 0.14331192 0.056641728 0.15373129 -0.070950724 -0.02383776 -0.12746876 0.054065086 -0.058529053 -0.10588257 0.09681278 0.06848413 -0.12982535 -0.22595665 -0.18319179 -0.11383868 0.0095463 -0.09613359 -0.0343904 -0.091845304 0.10606222 0.021596894 -0.15854211 -0.03942454 0.14546739 -0.23498301 -0.12913941 0.27641553 0.21194014 -0.019485626 0.0060871677 -0.11137621 -0.046573035 -0.20481184 0.006158463 -0.09826645 -0.082848735 0.20647034 -0.18213429 -0.018178837 0.060164355 -0.23234224 0.08974527 0.17488202 -0.21924467 -0.04559651 0.1398039 -0.059077255 0.09301119 -0.2413089 -0.06394822 -0.20824964 -0.078973524 -0.10684768 -0.017123615 -0.2052428 0.1143193 -0.12405634 0.067664325 0.06535383 -0.29553035 -0.11545573 -0.18388747 0.20436205 0.26504996 0.04832585 0.07949864 -0.11544642 -0.12596515 0.17233694 0.036684208 -0.21522038 -0.021855408 0.1462734 -0.022075884 -0.0018072131 0.16127934 -0.14593904 -0.15462919 -0.121210955 -0.12052733 -0.12562077 0.13265976 0.122114494 0.019352429 0.05363063 0.1327257 -0.14904262 0.16007537 0.016142722 0.012587649
265 -0.09357058 0.010793622 -0.28516743 -0.078985736 -0.09999006 0.119209275 0.16754386 0.026158236 0.094610654 0.115160264 0.14015816 0.08307048 0.088276014 -0.13240208 -0.017531445 -0.10257597 0.06537027 -0.10094573 -0.10591537 0.10916692 0.032154698 -0.13028507 -0.19452544 -0.095657505 -0.10119146 -0.009709426 -0.14947207 -0.042756 -0.09604958 0.112109296 0.08524109 -0.040636268 -0.044680398 0.040795024 -0.286868 -0.04496619 0.29752564 0.23305604 -0.007165614 -0.0047361488 -0.121359445 -0.061833333 -0.19617224 -0.02111592 -0.06906213 -0.11239385 0.17058897 -0.08433114 0.021916395 0.071605176 -0.22598283 0.097797446 0.12641115 -0.1734314 0.0030521606 0.18144095 -0.10218099 0.06292416 -0.28598866 -0.0056696194 -0.1735484 -0.03675644 -0.01792079 0.030516895 -0.23545371 0.124520995 -0.1484892 0.053486127 0.1154323 -0.26646417 -0.10047404 -0.19691487 0.21251406 0.19397056 0.009105916 0.097598284 -0.0961426 -0.101634674 0.22816354 0.11024392 -0.24597813 -0.077705376 0.12461154 -0.051596683 -0.052762587 0.13278055 -0.15093456 -0.17077208 -0.15262705 0.012481354 -0.07643248 0.13699386 0.12650211 0.055993013 0.047702413 0.13565858 -0.1540855 0.17936382 -0.01076973 0.039356884
242 -0.08296785 -0.07026009 -0.46658033 -0.095747836 -0.109061584 0.13544309 0.12659264 -0.011967787 -0.0077395476 0.082802154 0.2247738 -0.067877784 0.05107308 -0.033834018 -0.012133199 -0.1463987 0.10863526 -0.1322768 -0.124989495 0.08649432 -0.006117123 -0.13073643 -0.18695065 -0.21041021 -0.18149948 0.02862149 -0.03060928 -0.10138863 -0.05993204 0.13193157 -0.1060779 -0.081128776 -0.1287822 0.08717738 -0.23198815 -0.20060177 0.17211424 0.20077139 -0.004714538 -0.0828541 -0.122146524 -0.031368818 -0.20312594 -0.08253936 -0.13236459 -0.0844597 0.29116738 -0.033074595 -0.0012867168 -0.0017638673 -0.32965758 0.10623147 0.17872247 -0.09748613 0.00044047672 0.28552184 -0.05298698 0.0009666121 -0.27836663 0.00800059 -0.242414 -0.054478336 -0.06920708 0.0007147808 -0.16012157 -0.01351501 -0.07307052 0.05953058 0.09309584 -0.30975184 -0.11426846 -0.14620367 0.20465559 0.34622476 0.0353259 0.05938713 -0.040430706 -0.14972566 0.17972317 0.035774752 -0.26579583 -0.060572777 0.23806116 -0.03179972 -0.06364253 0.1003038 -0.10083894 -0.14833218 -0.1540809 -0.094601795 -0.14668784 0.16800351 0.111641385 -0.017121198 0.008662612 0.10857916 -0.03653106 0.1958262 0.06319905 -0.027933214
96 -0.07713916 0.011847272 -0.27484596 -0.10454764 -0.12048282 0.077922106 0.15370429 -0.013899602 0.085863195 0.07395876 0.14659017 0.07904452 0.08431955 -0.09900317 -0.022482501 -0.08588926 0.061895642 -0.09620472 -0.13711177 0.13762814 0.017019305 -0.116108075 -0.20556772 -0.0932566 -0.14562766 -0.030934604 -0.07268727 -0.037161645 -0.07473624 0.09737063 0.022605704 -0.051151454 -0.02914593 0.054843392 -0.2532647 -0.01919758 0.25820497 0.18023 0.00027546578 -0.023393316 -0.10909748 -0.01514557 -0.1946431 -0.049454827 -0.04878075 -0.13805571 0.21161017 -0.06481958 0.051606666 0.122079976 -0.22884005 0.07995352 0.13579543 -0.06678079 -0.008786411 0.13513389 -0.050635595 0.08868716 -0.24295591 0.035770815 -0.16647927 -0.0050215013 -0.014878115 0.025474288 -0.17133124 0.0740331 -0.1117262 0.045449488 0.071126096 -0.24627897 -0.11174642 -0.17805263 0.19704135 0.248061 -0.03668543 0.12844963 -0.06881616 -0.10356159 0.21776578 0.08556079 -0.20797135 -0.054438412 0.14829741 -0.04720512 -0.07423378 0.13677181 -0.13317901 -0.16479424 -0.16620305 -0.021454053 -0.073160306 0.09713077 0.12769857 0.043746717 -0.010634857 0.14776461 -0.1366994 0.12832119 0.034306448 0.078135565
249 0.020877935 0.013430335 -0.41846493 -0.08806283 -0.1296108 0.3536735 0.13222352 0.072662465 0.044452786 0.12698005 0.11897655 0.009239225 -0.061395243 -0.20972075 -0.0524393 -0.061743356 0.11404814 -0.17108582 -0.016032204 0.19611038 0.06240588 -0.14453603 -0.1590543 -0.047283422 -0.020117624 0.007237422 -0.21799533 -0.031542003 -0.17779541 0.083379574 -0.061172094 0.016094709 -0.044083405 -0.12712218 -0.3880956 -0.028518612 0.3323559 0.25339556 0.021850526 0.10757338 -0.17566708 -0.094311446 -0.17487721 -0.04190162 -0.1310839 -0.13103557 0.072031185 -0.11946534 -0.00046170363 -0.19127904 -0.31558117 0.13752049 0.07642804 -0.31480786 -0.01061945 0.20604664 -0.1923724 0.12718706 -0.3773775 0.071253255 -0.28796583 0.012731704 -0.11052231 0.101004705 -0.28829652 0.1466175 -0.123147905 0.0921681 0.06859955 -0.22274005 -0.08288896 -0.20291428 0.17474368 0.21828562 -0.07786671 0.035093226 -0.05220622 -0.03193808 0.16138895 0.14119618 -0.3370387 -0.06381614 0.15341353 -0.14185116 -0.12422756 0.168522 -0.10717047 -0.10378165 -0.13407244 0.037868727 -0.18596484 0.12719707 0.03750365 0.07780491 0.061232172 0.02923594 -0.25224918 0.20686229 0.030514393 -0.020194666
68 -0.10071626 0.009916526 -0.3052077 -0.09280764 -0.10739469 0.103784926 0.19440213 0.007756163 0.05442669 0.13625771 0.15355718 0.05605013 0.1038882 -0.13666219 -0.023068745 -0.08526496 0.07123839 -0.101049736 -0.13078077 0.1286047 0.031531584 -0.14174657 -0.20914273 -0.09722925 -0.11715535 -0.02749993 -0.083974965 -0.049947754 -0.08966086 0.11960685 0.02179055 -0.094248734 -0.027402446 0.09135054 -0.24230824 -0.059357483 0.25324145 0.19553728 -0.010792974 0.0004476276 -0.11324061 -0.018201215 -0.1605869 -0.033835236 -0.068261296 -0.13680269 0.21092671 -0.090557665 0.02688926 0.078174286 -0.21550412 0.076265596 0.143087 -0.11475826 -0.019517785 0.14397399 -0.048662797 0.05486874 -0.23640424 0.020008592 -0.16877759 -0.026431436 -0.054773405 0.028478699 -0.18394879 0.063167594 -0.11957753 0.033726778 0.07861967 -0.27686015 -0.0961594 -0.20208053 0.21193919 0.2117421 -0.00027272583 0.10311142 -0.08338801 -0.10882042 0.1880774 0.108746976 -0.22092192 -0.04477083 0.13366698 -0.056037337 -0.03972045 0.16122167 -0.12593968 -0.15725917 -0.1493564 -0.018592352 -0.07782592 0.10339663 0.13120894 0.043968488 0.0139842145 0.1247 -0.18152826 0.15310334 -0.0059145875 0.032289095
83 -0.07228235 -0.02502219 -0.33836138 -0.074632086 -0.066160455 0.096485704 0.20120351 0.030660488 0.06299287 0.128462 0.16814049 0.1266648 0.15030058 -0.08809409 0.019021997 -0.13589631 0.05670585 -0.0503716 -0.11527472 0.08656173 0.055102177 -0.13182911 -0.2321507 -0.19145223 -0.119495094 0.011603245 -0.0976346 -0.029428804 -0.08481247 0.108518675 0.047486734 -0.15210767 -0.06434037 0.11341575 -0.21824093 -0.095339835 0.2815528 0.18542756 -0.004757042 -0.014928678 -0.13099663 -0.07062731 -0.1849156 0.0023870294 -0.065384164 -0.08571196 0.22551951 -0.16024493 0.018616008 0.08263651 -0.21152651 0.079191625 0.1602227 -0.22040874 -0.029663667 0.14280388 -0.037565723 0.08640135 -0.2543595 -0.030850047 -0.19936807 -0.07827251 -0.09927603 0.0014393037 -0.21509635 0.14610803 -0.14419825 0.0879586 0.07461979 -0.3021036 -0.11803897 -0.16346326 0.2164694 0.26799503 0.059953168 0.07326356 -0.09102568 -0.13293712 0.18697414 0.04263935 -0.23014827 -0.023571448 0.15135086 -0.023375772 -0.014890858 0.14154115 -0.1337955 -0.15327823 -0.11980592 -0.083520904 -0.1183737 0.10679596 0.11438408 0.030236173 0.045718696 0.14491303 -0.17747363 0.15027386 0.02635543 0.033507116
677 -0.120548405 0.04747261 -0.21219294 -0.21436504 -0.10792234 -0.0118774315 0.09327761 -0.017270224 0.19952972 -0.08853152 0.21022291 0.20737234 0.0469371 -0.012508727 0.010179038 -0.11990738 0.06641237 -0.079284295 -0.1921098 0.11833927 0.017939225 -0.11862996 -0.28707406 -0.07867845 -0.26243705 -0.09744064 -0.12964748 -0.063085005 -0.07347061 0.057752497 0.041914083 0.06475398 0.014693224 0.013499818 -0.2968472 0.06893051 0.32428807 0.12326808 -0.029814217 -0.07190705 -0.06455817 0.03748989 -0.24685292 -0.090699226 0.017746164 -0.19271651 0.2518212 0.022475323 0.12585796 0.26971442 -0.3580601 0.09823982 0.08724503 0.09387613 0.07251114 0.21817072 -0.060516957 0.20829625 -0.33039996 0.021762116 -0.22911377 0.04913195 0.08806181 0.047306284 -0.19766936 0.046250615 -0.16417576 0.03156117 0.015748404 -0.30258706 -0.18009356 -0.19475032 0.22117618 0.38843542 -0.13947985 0.19078338 -0.06048986 -0.10523069 0.35785678 0.04326071 -0.21919294 -0.10044984 0.13577867 -0.07483321 -0.16263807 0.07095765 -0.22052002 -0.23618813 -0.27337095 -0.041817624 -0.04633531 0.12943822 0.12632494 0.12304909 -0.021115134 0.18897912 -0.023746243 0.14132121 0.0702083 0.23232406
672 -0.06870512 0.029411905 -0.30362853 -0.06523513 -0.16041738 0.09423107 0.20907065 -0.0069790804 0.039934445 0.11837506 0.1301545 0.013108617 0.11625337 -0.115605205 -0.0715458 -0.09297517 0.07615224 -0.1036227 -0.11826921 0.15422647 0.029810732 -0.14371 -0.21115416 -0.09888562 -0.12865958 0.001801973 -0.08354485 -0.051623993 -0.10493818 0.106281154 -0.0017374232 -0.08776266 -0.044925634 0.10656195 -0.25817922 -0.040939122 0.23784867 0.20319581 -0.027072897 0.010135608 -0.10651032 -0.018262664 -0.19593552 -0.046346515 -0.07816041 -0.14971446 0.2186777 -0.12462436 0.02232056 0.06538355 -0.21546492 0.09465363 0.1473193 -0.13853234 -0.07134481 0.10535197 -0.042332165 0.07555356 -0.2655402 -0.002780295 -0.1657966 -0.042203072 -0.04374642 -0.005546223 -0.21107402 0.08367185 -0.100785404 0.039479192 0.07578907 -0.24402353 -0.10562775 -0.21771011 0.18784851 0.25575882 0.00055398385 0.13026725 -0.07949749 -0.10102217 0.21180843 0.11307256 -0.23885636 -0.04569077 0.14452438 -0.055792958 -0.044439673 0.1695811 -0.15852454 -0.15838897 -0.15104179 -0.059593942 -0.10663633 0.107429154 0.135743 0.016003627 -0.016783858 0.16266784 -0.18170293 0.13191636 -0.0050582937 0.05313728
161 -0.093070604 -0.00022149619 -0.32177806 -0.06816684 -0.14689273 0.11420751 0.21967967 0.023744803 0.04652152 0.12246486 0.1548345 0.005219377 0.12717588 -0.13853563 -0.050189544 -0.10336915 0.07407171 -0.079699785 -0.09484007 0.171258 0.041007265 -0.12150883 -0.20875096 -0.12103016 -0.12364496 -0.0037227948 -0.07835694 -0.08056304 -0.090462156 0.102569364 0.0061131837 -0.097304076 -0.061169878 0.08433873 -0.2624893 -0.063267745 0.2671975 0.22042538 -0.019760048 -0.009802582 -0.12213289 -0.003824319 -0.19585228 -0.04375505 -0.09261221 -0.12889263 0.21527725 -0.10667456 0.0170423 0.055104736 -0.21885665 0.08873448 0.15301594 -0.16541116 -0.05440987 0.14188763 -0.069751926 0.08284952 -0.26369825 -0.0036521 -0.16320565 -0.030440278 -0.060687557 0.012314892 -0.23588964 0.06442253 -0.12267652 0.01742034 0.078847915 -0.26827106 -0.115846686 -0.23412775 0.1962666 0.2372925 0.0011547141 0.10542454 -0.08901448 -0.10144683 0.2000995 0.09125719 -0.23529576 -0.03214788 0.14045094 -0.043789588 -0.05718939 0.14537835 -0.17115206 -0.18290854 -0.14207828 -0.033472937 -0.098121986 0.13119149 0.1400598 0.01616291 0.011123116 0.1265414 -0.15345041 0.12935849 0.003971762 0.036388196
138 -0.08934009 -0.031060133 -0.34849688 -0.10463561 -0.13097657 0.11119042 0.18723011 -0.0012806002 0.032160707 0.10675269 0.19284227 0.015372047 0.11591979 -0.099495836 -0.044954784 -0.05828114 0.074972205 -0.08428528 -0.14338806 0.1442654 0.017574659 -0.14627008 -0.19618043 -0.09997701 -0.17443494 -0.059457056 -0.027998183 -0.0674624 -0.064016216 0.11597646 -0.027447455 -0.10813418 -0.083173014 0.08926871 -0.25370246 -0.096322216 0.23818901 0.20515418 0.0095819505 0.023933137 -0.10884561 0.0012719376 -0.19317177 -0.009299099 -0.11567108 -0.064022906 0.24409483 -0.08142382 0.008342759 0.0484692 -0.21567325 0.07827749 0.175733 -0.1132274 -0.040835697 0.15838158 -0.044564642 0.016843501 -0.21313936 0.05364432 -0.20450504 -0.07183838 -0.07402063 0.064813256 -0.16161795 0.07167924 -0.114424236 0.009734635 0.100660495 -0.25026658 -0.11063984 -0.14343593 0.1915715 0.24796404 0.04332438 0.11207535 -0.093721226 -0.12115909 0.17548409 0.08121818 -0.21768157 -0.050259963 0.19431287 -0.07386684 -0.021340452 0.17356983 -0.12849362 -0.17689043 -0.14247212 -0.058530483 -0.084728055 0.106545694 0.1681434 0.017378766 -0.046285126 0.14074245 -0.12807214 0.15451603 0.049379732 0.021478113
