3379 100
3737 0.36923066 0.014216063 -0.1443211 -0.2772988 -0.2051891 0.36530465 0.05962329 -0.17940672 0.3378975 -0.15185909 -0.025626305 -0.01523644 -0.64543355 -1.1122036 0.33462125 -0.19813646 0.06885137 -0.42922148 0.06690925 0.628453 -0.55216 0.39747855 1.211778 -0.08744725 -0.07770788 -0.09306353 -0.57217616 0.06825501 0.48352787 -0.3519771 -0.33338726 -0.5081888 -0.14115614 -0.30822736 -0.055573083 -0.0037576712 -0.23919456 0.83574045 0.4063647 0.4802347 -0.43604884 0.1262427 0.48041055 0.44993395 -0.20400627 0.79963243 -0.0426813 -0.06739175 -0.19592409 0.5146418 0.3546471 0.5302878 0.6711817 -0.075552635 0.15472157 -1.0739282 0.08392376 -0.11173818 -0.05427996 -0.34466517 -0.6526085 -0.43917567 -0.2185253 0.09132131 0.3960445 0.2670856 -0.66000855 -0.00045161275 -0.2898031 -0.9418749 0.87491065 0.09852409 0.31673625 -0.15985951 0.6039193 -0.607338 0.0011569506 -0.33864665 0.52329767 -0.98290163 -1.0226457 -0.59953433 -0.33363503 -0.7350424 0.5443721 0.50795144 -0.23899144 0.33232588 -0.022251343 -0.6221348 0.013496741 -0.04995383 -0.7253462 -0.32150996 -0.17162809 0.1422731 0.054722786 -0.30778524 0.35833353 -0.93500066
4098 0.28796026 0.7076518 0.21922554 0.1348231 -0.54556626 -0.040790513 0.38511345 0.29992822 0.72141 -0.359627 -0.16667694 0.084507585 -0.51361334 -0.5293164 -0.20277144 -0.46019858 -0.23094381 -0.089161456 -0.022957724 0.20212157 0.31860116 0.58198774 0.9587531 -0.15823554 -0.35815316 0.24369773 -0.14531985 0.8077241 0.11691761 -0.56220883 -0.059363488 -0.32255778 0.36425233 0.3094804 -0.8213952 -0.7120075 -0.2383436 0.5458152 0.49486986 -0.24214914 -0.06041546 -0.13018015 1.0065173 0.43736374 -0.62691516 0.2546682 0.3949088 -0.20166372 -0.5831348 0.45649624 -0.51455003 0.21632862 0.6375353 0.17704533 -0.178251 -0.631651 -0.10484725 -0.21924235 0.031394344 -0.22122397 -0.3232023 -0.22277266 -0.2646066 0.20551683 0.043624386 -0.5744089 -1.0687457 0.071813226 0.1302236 -0.9095476 1.1604471 0.4523222 0.10718302 -0.14527206 -0.043627676 -0.04017696 0.0888042 -0.31064487 0.40394837 -0.5514097 -0.59173715 -0.06181715 0.027190171 -0.6356587 0.9445538 0.3948021 -0.018178903 0.64651954 -0.33788 -0.6489007 -0.7562962 -0.56930256 0.099545464 -0.48787016 0.48504412 -0.35097405 0.7268538 -0.15773314 0.20412026 -0.43687454
1597 0.6087607 -1.0056478 -0.8841549 -0.24545224 0.36895815 0.0155991595 0.19616956 -0.4878758 0.6661504 -0.068502635 0.27576292 0.34660277 0.5548254 -0.2090251 -0.4330324 -0.40217072 -0.42514488 0.018832017 0.36630479 -0.18628328 -0.22392485 -0.042063307 0.21951923 0.0768679 0.47418472 -0.31837535 -0.6514323 0.1232715 -0.41857538 0.062285934 0.19167718 -0.18208285 -0.6066155 -0.12658466 -0.2054411 -0.43610218 -0.17194982 0.293504 0.7582357 0.62544996 0.61810267 0.48317266 -0.456817 0.18652147 0.13881896 0.07348061 -0.011117633 0.8506213 -0.5587938 0.506849 -0.42201206 0.36369988 0.88354784 -0.75529975 -0.02230107 0.141519 -0.48733565 0.16242659 0.6293459 0.34088102 -0.064350165 -0.6322184 0.23766103 0.5694497 -0.2142988 -0.20069654 -0.34850937 0.3158128 0.5960137 -0.13615954 0.0033603937 0.95132184 0.12030515 -0.33935252 0.51881206 0.1463268 0.89769024 -0.37305364 0.7673685 0.012546137 -0.24727356 0.17598315 0.12788841 -0.104726575 0.26486334 0.90693444 0.46808732 0.6625907 0.37328833 -0.6983472 -0.35524115 -0.39953694 -0.05569973 0.15496577 0.5803719 -0.71656835 -0.7670543 -0.27450818 0.1594885 0.114605814
1789 0.16835898 0.17532694 0.27884018 -0.3279085 -0.33629513 -0.5095572 -0.12265051 0.36690024 0.4457993 -0.10067816 -0.31134716 -0.3543922 0.37673047 -0.38155884 -0.33168817 -0.6652791 -0.106248334 -0.12112137 0.5389914 -0.44442543 0.10596436 0.4115744 -0.15247574 -0.8945726 0.08397124 0.1980312 -0.6987885 0.892135 -0.18522418 -0.10409171 -0.097658575 0.020537086 -0.45975336 -0.45752177 0.11516209 -0.1236306 0.19629295 0.017321141 0.119844295 0.7890194 0.06594715 0.5461618 0.1296626 0.32109246 -0.00665208 -0.057211217 -0.07600567 0.34724903 -0.7161495 0.44040528 -0.06406596 0.40574685 0.6926777 -0.08706098 0.057408337 -0.88609046 -0.92363995 -0.62950534 0.937445 0.7247524 -0.14932522 -0.7159981 -0.13624068 0.63185805 0.010649861 -0.20350793 0.16326226 -0.03050855 0.13614736 -0.8628755 0.576944 -0.2281654 0.19127488 0.053206842 -0.42842042 0.07234409 0.38065875 -0.35999578 0.28719476 0.42152792 -0.468757 0.11102051 -0.18009162 0.11533857 0.4088997 0.16986765 -0.101005085 1.1886473 -0.47760206 -0.29990542 -0.41838592 -0.18068098 -0.067860015 0.40971294 0.25653812 -0.6594376 -0.32451734 -0.29119098 0.03902153 0.13478743
2175 0.38557112 -0.6480546 -0.44851115 -0.026861656 -0.1051559 -0.95158803 0.006902222 0.23666714 0.13904168 0.40848568 -0.028427964 0.2285974 0.20721687 0.21549274 -0.5325322 0.009748043 -0.028599279 -0.33342782 0.6667708 -0.13561867 0.12226373 0.12791325 0.21054909 0.11382871 0.6267282 -0.09485962 -0.36397693 0.27672222 -0.56706536 -0.6614851 -0.8726942 -0.35429424 -0.035150178 0.24012575 0.006396038 -0.47018483 -0.34773648 0.16630507 1.2201296 0.40804002 -0.18782812 -0.32708016 0.27806154 0.4270873 0.31265646 -0.49003923 -0.3549435 0.6522577 -0.9210037 0.07523408 -0.5216294 0.95653653 -0.08738948 -0.6778483 -0.09671699 -0.33632863 0.048656352 0.84543765 0.6890644 0.17161709 0.025551112 -0.25138646 -0.043924186 0.5499319 0.12647745 -0.26707348 -0.15293773 -0.058749042 0.6974985 -0.88112664 0.7330766 0.8153588 -0.015175826 -0.5564693 0.68003786 0.37409094 0.48670095 -0.11703904 0.1965266 -0.52105 -0.5128635 0.22709872 0.049246423 -0.09825668 0.38427708 0.19229126 0.3905259 0.349948 -0.2972968 -0.20368123 -0.46830446 -0.30647495 0.121485725 -0.38022992 -0.10683199 0.15385324 -0.17869505 -0.17993945 0.55021155 0.09910249
2518 0.026825562 -0.21018475 -0.08070983 -0.38924024 0.07849452 -0.005927255 -0.24747264 0.36592576 0.27139854 -0.24082087 -0.17438845 0.20075513 -0.16339725 0.56158084 -0.27490157 -1.0864872 -0.3932759 -0.38396278 0.32676345 0.025760306 0.40747914 0.18429317 0.7155047 -0.14128152 0.047674023 0.59356725 -0.72919524 0.29972103 0.37640837 0.052254453 0.020380389 0.33913636 0.2609377 0.62304646 -0.052253965 0.2648052 0.02608939 0.20491654 0.09337695 0.37290186 -0.25480467 -0.67728585 0.42391393 0.14592217 -0.4012668 0.41719183 -0.42702103 0.12514175 -0.27521667 0.22218567 0.13522722 0.8031071 0.39888242 -0.13458014 0.20023258 -0.75921553 -0.011602681 0.20151164 0.5626785 0.36601335 -0.007352049 0.201973 0.06904458 -0.023674406 0.8784351 -0.34105933 -0.3644537 -0.3764788 0.23975113 -0.6286949 0.39680347 1.0579545 0.14348836 -0.4511911 0.43944597 0.17235942 -0.08448042 -0.75873387 0.6259163 -0.56591016 -0.3413527 -0.48520845 0.018512065 0.42091295 0.27452192 0.08953875 -0.3348013 0.37493187 -0.22105661 -0.22429523 -0.007445483 0.069404654 -0.14399555 0.04133801 -0.48422998 0.23185909 0.38243976 -0.26126835 0.3382006 0.31448966
2799 0.14147541 0.21908405 0.09142864 -0.00021926798 -0.23214394 -0.14752321 0.4883268 0.007699416 0.30150095 0.31090775 -0.19163457 -0.04940471 0.02621553 -0.16492611 0.20120688 -0.3099224 0.15359977 -0.07194531 -0.0010464281 0.3128613 0.1304384 0.48303849 1.136531 -0.32850137 0.29446843 -0.2504254 -0.36737892 -0.06255634 -0.0015216433 -0.05122544 -0.4887285 -0.7588828 0.68144214 -0.21496792 -0.22292049 0.08770682 -0.2584804 0.5248396 0.6815341 -0.023224864 -0.5410562 -1.0163386 0.7331214 0.40031514 -0.22804905 -0.24314256 0.13550194 0.32227957 -0.67146623 0.5181525 -0.29220495 0.79978454 0.0801054 0.03514404 0.2590694 -0.19544724 0.012777731 0.2928458 0.4819854 -0.20188436 -0.17559533 -0.26838127 -0.17080997 0.24312948 0.22087866 -0.1719241 -0.6805175 -0.1762504 0.22371338 -0.86698884 0.65772706 0.47882006 0.04436835 0.12752514 0.3776918 0.049959287 -0.20032477 -0.44278377 -0.19728993 -0.9424222 -0.3654397 0.1955605 0.28612247 -0.3356209 0.49969453 0.3562062 0.2161957 -0.050047994 0.0022061882 -0.554779 -0.19461559 -0.5331872 0.27342892 -0.58142686 -0.3858208 -0.10320923 0.35788453 -0.3721048 0.02568461 -0.5729896
2055 0.16937494 -0.37540874 -0.10041746 -0.033633683 0.10979385 -0.40944365 0.080250606 0.37089792 -0.19758776 0.0883038 -0.04653952 0.07700993 -0.0142354835 -0.36321607 -0.24339285 -0.23086637 0.08711657 -0.08886943 0.6864073 -0.10962051 -0.2371206 -0.062250476 0.023408053 -0.09183161 0.041462008 0.15762362 -0.5657814 -0.18459424 -0.03694515 -0.31181288 -0.21456555 0.065834746 -0.055587575 -0.33931753 0.18688476 -0.18784529 0.10596544 -0.23510253 0.079678886 0.99121404 -0.3827526 0.13221426 -0.08889678 0.10377555 0.31920418 -0.66400725 -0.66322845 0.23011318 -0.7003406 -0.20005181 0.32675722 0.39675876 0.4870206 -0.8514075 -0.5686526 -0.4542079 0.04100501 0.5101271 -0.18039247 0.34425488 0.3265074 -0.5554245 0.06409069 0.4812388 0.19082698 0.700796 -0.1813505 0.05844046 0.43869913 -0.6858381 0.80049103 0.21316205 -0.3937859 -0.17657213 0.61974645 -0.20763642 0.82806456 0.60035396 -0.031120636 0.067168966 -0.21494845 -0.26836583 -0.319853 -0.034057464 0.30005348 -0.2566064 0.19428071 0.14067811 0.07835563 -0.2008516 -0.4754261 -0.57599187 -0.25613755 0.04478335 -0.029294288 -0.23404045 -0.1371259 -0.10349875 0.08727416 -0.11474881
1736 0.09781996 0.1175092 -0.010689105 0.014061344 -0.21315964 -0.27049693 0.12588447 0.056085065 0.5272074 -0.6077814 -0.03305684 0.17564909 0.021609558 0.029299892 -0.4332618 -0.743246 -0.442958 0.09804145 0.29489234 -0.08665982 0.19860339 0.5730011 0.07383641 -0.18031465 0.12219407 0.42709905 -0.3210538 0.77048737 -0.04487364 -0.25653353 -0.01769813 0.07124735 -0.29054293 0.02342587 -0.13363616 -0.3177223 0.035500456 0.22815055 0.5102207 0.37442708 0.15182813 0.6577541 0.4477385 0.37203142 -0.21292071 0.03201281 0.14016382 0.5610761 -0.83948123 0.39035943 -0.5254181 0.10888636 0.5485838 -0.088516116 -0.010307057 -0.43931556 -0.4603558 -0.36735374 0.5500695 0.36520186 -0.13446853 -0.25783938 -0.00745213 0.5549756 -0.351307 -0.39068013 -0.32499117 0.53409517 0.06421433 -0.57037914 0.43435243 0.6287708 0.13830303 -0.2536921 0.00364412 0.22947389 0.050420888 -0.35052338 0.31257704 0.07593 -0.27973485 0.034037814 0.15687943 0.16499938 0.47622973 0.5066425 0.09231426 0.93026257 -0.093542434 -0.22217731 -0.73672867 0.05299727 -0.049026355 -0.026630567 0.6181984 -0.40474263 -0.34318733 -0.44477248 0.29986948 0.28844285
1045 0.3332419 -0.4795408 0.08556143 -0.1823481 -0.011460313 -0.15399353 0.2823784 0.6307179 -0.16641365 -0.1546021 0.22729184 -0.35846505 0.252702 0.11883288 -0.51487166 -0.42487234 -0.1399462 0.21353446 -0.26364958 -0.027267596 0.40596396 0.25316647 0.28739932 -0.38082004 0.11277372 -0.21247135 -0.4147493 0.3206572 -0.13267592 0.46480933 0.5273533 0.067847885 -0.009277137 0.104279965 0.56134564 0.15754902 0.07380428 0.16567165 0.20671302 0.38845924 -0.043264423 -0.2327952 0.25122002 0.25646 -0.4501338 -0.03887427 -0.15261157 0.051415585 -0.7241805 0.27407107 -0.0063214316 1.0566199 0.5668321 0.17171468 0.13659467 -0.21327788 -0.3065291 -0.1229538 0.77163154 0.3753048 0.28868055 -0.2601338 0.033813756 -0.16385558 -0.158601 -0.11991259 -0.13589364 0.06812505 0.33385754 -0.39384025 -0.07966952 0.23353212 -0.028094169 -0.16120295 -0.19961272 0.2979576 0.38648704 -0.68665946 0.30082846 -0.0020198901 -0.013654756 0.25417134 -0.09152902 -0.14946488 -0.24183968 0.13549021 0.35903507 0.87973726 0.31491038 -0.9478609 -0.19451576 -0.15220942 0.37588385 0.431144 0.028738892 -0.61355865 -0.010144634 -0.038087137 -0.06668695 -0.34185773
2642 0.00070179574 0.46910077 0.15256068 0.028508538 -0.1796161 -0.13709189 0.37188873 0.3798562 0.3139776 0.15960895 -0.27499175 -0.17636763 -0.042702656 0.012861505 -0.2111655 -0.49474317 0.16228177 0.030766744 0.038528513 0.08401725 0.42349494 0.5404024 0.6790849 -0.36091566 0.06605056 0.07884689 -0.4835896 0.19220284 -0.06680573 -0.003210866 -0.19037408 -0.3821866 0.43426216 0.09060812 -0.31606877 -0.12664866 0.007222663 0.5655778 0.29275036 0.068172425 -0.44051814 -0.90226483 0.74717253 0.29150307 -0.39975908 -0.20729561 0.037428033 0.2006179 -0.47916916 0.313397 -0.5005007 0.7833492 0.12738533 0.21704483 0.11773737 -0.31502622 -0.03950684 -0.0381841 0.6390448 0.03213031 -0.038352866 -0.14082086 -0.01940277 -0.028280936 0.35101524 -0.30410123 -0.57495177 -0.21005647 0.25280684 -0.8014934 0.5590379 0.42191863 0.089650854 0.18269765 0.22471792 0.22361235 -0.0871826 -0.50253904 -0.081529744 -0.7580775 -0.31030163 0.18442069 0.20444232 -0.2571135 0.49965408 0.37464002 0.17661263 0.21808557 -0.068690784 -0.45267236 -0.2509893 -0.28992832 0.431746 -0.21388607 -0.2897129 -0.17685473 0.41115093 -0.4383546 0.07393066 -0.42293027
3990 0.48033637 0.6490972 0.3237147 -0.028879642 -0.4688881 -0.24629697 0.30824432 0.4705235 0.24120927 -0.298385 0.070981406 0.39061108 -0.99693173 0.03239569 -0.5337512 -0.20635794 0.10923749 0.04926308 0.13546515 0.20819485 0.4319533 0.011059804 0.7905653 0.23325914 -0.8063157 0.371819 -0.25084043 0.8150469 0.15392323 -0.61112624 0.5425026 -0.31411234 -0.0034471387 0.015344927 -0.7469711 -0.3393598 -0.07098843 0.5330294 0.44338265 0.029120814 -0.052172996 -0.4517447 0.55647177 0.40673745 -0.3951155 0.22051744 0.5010644 -0.35693 -0.16768143 0.2689699 -0.06625674 0.38773575 0.7433097 -0.10849111 -0.28386655 -0.4292647 -0.19999039 0.15088552 -0.12191409 -0.23527822 -0.2501631 -0.1282568 -0.19222455 0.27540335 -0.2575138 0.01682151 -1.043999 -0.05376379 0.51752865 -0.46060342 0.9161375 0.3000732 -0.04916269 -0.21959014 -0.21907237 -0.19477183 0.69816405 0.24233265 0.38759404 -0.21041605 -0.36491555 -0.49660745 -0.11121115 -0.3041068 0.6870713 0.13087678 0.044740595 0.7331568 -0.66244566 -0.33549395 -0.5342392 -0.70161355 -0.26818827 0.047598537 0.5592704 -0.26949272 0.24842668 0.157627 0.06821431 -0.11812367
3848 0.37930453 -0.070313625 -0.06326691 -0.0073909005 -0.15178747 -0.06259991 -0.17516713 -0.11953869 0.1836716 -0.016512748 0.17855644 0.15549529 -0.5165925 -0.8939914 -0.16933191 -0.20400359 -0.16577388 -0.27884734 0.31769267 0.09668804 -0.018614197 0.090267755 0.538558 0.1719894 -0.2370244 0.5449784 -0.41908866 0.15592088 0.048316583 -0.24755263 0.2319114 -0.17894992 -0.32451314 -0.4902073 -0.031688806 0.02633881 -0.013070662 0.09708506 0.55582017 0.69547313 -0.34077016 0.25497326 0.041146733 0.15472478 -0.18587497 0.29072413 0.046834335 -0.28380606 -0.25778058 0.36626983 0.3161846 0.10454819 0.5835436 -0.58290625 0.05509663 -0.44719177 0.16135056 0.27872586 -0.09871635 0.10851095 -0.24661161 -0.3225828 -0.05138165 0.28561598 0.10605267 0.43772656 -0.6287439 0.32220495 -0.12855077 -0.31601056 0.82744694 -0.19951732 0.26886415 -0.120497 0.42262807 -0.88097405 0.46169013 -0.0268637 0.6319837 -0.4285637 -0.45694864 -0.82826585 -0.36441812 -0.17875795 0.6760326 0.009211819 -0.15722103 0.4483199 -0.19150336 -0.28144538 -0.077589735 -0.41449216 -0.8174526 0.111609414 0.5000437 -0.056164205 0.12679438 -0.048383944 0.63889754 -0.52173966
3094 0.7831689 1.0312495 0.18865067 -0.11057761 0.27689844 0.14777389 0.3052835 -0.23242031 0.27652004 0.116952 -0.14183201 0.107526965 -0.67718834 0.078558825 -0.709832 -0.00214801 -0.3716266 -0.30055946 0.7877151 0.36164895 0.17726922 -0.58404505 0.5330649 -0.22456865 -0.5105195 -0.6538891 -0.7692382 -0.31130645 0.024543645 -0.49160445 -0.64542824 -0.43343812 -0.1967896 0.124124706 0.24456367 -0.3861687 -0.29345265 0.3553843 -0.45121065 0.525815 -0.32775664 -0.5396804 0.15036228 0.9576005 0.28798488 -0.58129114 -0.60623384 0.07606075 0.060821183 -0.13590913 -0.3550327 0.48589703 -0.14225432 0.12758908 0.21628065 -0.575216 -0.0675083 1.2430464 0.61766934 0.06615951 0.094952434 0.32828915 0.1353482 -0.122925915 0.9125061 -0.34470966 -0.023107927 0.071796834 0.6921667 -0.75832593 -0.35193652 0.49509928 0.33134794 -0.116909906 0.16751641 -0.5000333 0.46605888 -0.8079408 -0.18973888 -0.59025 -0.059393745 -0.23298638 -0.004841558 0.050147045 0.021404503 0.2729568 0.067185 0.09645736 -0.38692358 -0.03807191 0.13244472 -0.67454463 0.22041216 -0.32645538 -0.3330013 -1.7404153 0.15058863 -0.18943632 -0.14445454 -0.47207743
3526 0.63147575 0.4040316 -0.37696937 -0.1369854 -0.6079575 0.54486996 -0.10384415 -0.35300422 -0.047916293 0.19653061 -0.3797532 0.061686978 -0.038851123 -1.1687996 0.43346518 0.09486185 0.14221519 -0.4600517 0.08072218 -0.033456776 -0.48792812 -0.14069864 0.9129519 -0.06627758 -0.66020006 -0.44122574 -0.42541608 0.04127392 -0.012389486 -0.12702408 -0.80735147 -0.086582996 -0.71520334 0.32830763 -0.05000851 0.5404785 -0.09615213 0.39954787 0.10837439 0.32901803 -0.3103205 -0.10147334 -0.16692209 0.54572386 0.02280708 0.1883253 -0.28822064 -0.14542688 -0.141685 -0.10917131 0.54844415 0.24424544 0.3467164 -0.46761593 0.29011178 -0.49152339 -0.15468414 0.008160904 0.0984229 -0.15609087 -0.6387204 -0.18555827 0.05979811 0.17326534 0.15484212 0.14390267 -0.23813203 0.14333288 -0.02642051 -0.47684506 0.33050233 0.18950912 0.31776482 -0.23590438 0.3345856 -0.49124914 0.061624806 -0.3281282 0.05862523 -0.45789868 -0.49029723 -0.3984957 -0.06605666 -0.29609042 -0.23491104 -0.20830223 0.26412314 0.21732596 -0.048879985 -0.4880978 0.16200238 -0.29366246 -0.6818103 -0.15345022 -0.08353715 -0.31869704 0.346506 -0.18204089 -0.04302186 -0.38716376
2606 -0.037565455 0.26534867 0.10659961 -0.06615914 -0.06400549 0.23470162 0.16543606 0.57873446 0.3335889 0.028942889 -0.13510755 -0.16068715 -0.23192748 0.075931445 -0.21999873 -0.7927877 -0.045001537 -0.12381758 0.093470834 0.039994784 0.6266243 0.65566075 0.63662505 -0.356007 -0.045690753 0.3632186 -0.6588012 0.48570287 0.18677267 0.082059704 -0.027095031 -0.016689582 0.3998884 0.2278702 -0.19140863 -0.30049106 0.024870064 0.61129594 0.08461995 0.1882801 -0.015802061 -0.8124222 0.797795 0.17196555 -0.51811564 0.063671544 0.043412976 0.25480175 -0.24609445 0.27956146 -0.32097253 0.693961 0.45583805 0.0032427623 0.09491399 -0.5419096 -0.10096629 -0.023682404 0.5918159 0.34133795 -0.16663814 -0.026703488 -0.09593794 0.05502862 0.7505741 -0.47533774 -0.5000183 -0.43318892 0.21667445 -0.7172968 0.65428257 0.65409696 0.036021676 0.08729738 0.2308996 0.34404755 -0.25389645 -0.60197014 0.072004154 -0.68026507 -0.31931952 0.10002332 0.07903883 -0.06668783 0.29357994 0.5536552 -0.025778078 0.6924983 -0.09724747 -0.22079879 -0.017645204 0.002026462 0.29714763 -0.07602365 -0.41082054 -0.24071497 0.3909804 -0.53314704 0.11470344 -0.24487291
1623 0.4730798 -0.6143303 -0.5795049 -0.2145908 0.37262344 0.09069091 0.14999193 -0.19431075 0.5940206 -0.139049 0.113172844 0.18247202 0.46523133 -0.15407483 -0.44146758 -0.48722452 -0.37079462 0.091939576 0.39492217 -0.08989731 -0.26137006 0.007416075 0.1209318 -0.04349194 0.16611663 -0.10774313 -0.6135012 0.26771805 -0.14993325 -0.018200979 0.09987916 -0.12635705 -0.37953624 -0.17307718 -0.10352544 -0.3275823 0.023422927 0.09199976 0.40787882 0.6035369 0.5225133 0.5109154 -0.33944413 0.23663306 0.08407871 0.019340929 -0.08465443 0.62163204 -0.5797124 0.42456436 -0.2703124 0.058993567 0.8633867 -0.47872877 0.016296584 -0.13438492 -0.49255016 -0.02661671 0.47170866 0.35671932 0.0196195 -0.41909632 0.08328591 0.45329893 -0.2635239 -0.09927331 -0.2712765 0.3304241 0.33488783 -0.2776911 0.13210987 0.77222276 0.101440355 -0.24775136 0.24974377 0.08400939 0.60088265 -0.28251347 0.5663447 0.07334604 -0.14219134 0.06427025 0.057682194 -0.095131174 0.12327811 0.6089084 0.32572383 0.72196406 0.24159166 -0.43991587 -0.35145238 -0.23831224 -0.10380556 0.25512567 0.5973316 -0.70009536 -0.7313356 -0.2762876 0.120680295 0.020417958
2396 0.4330039 0.10978592 -0.27540118 -0.36668122 -0.22922117 -0.42763603 -0.010235606 0.080738634 0.10007555 0.109398976 -0.20912474 -0.089867875 -0.40802187 0.34308448 -0.54726607 -0.045940507 0.011241132 0.07689504 0.6077842 -0.062532544 0.03861504 -0.37487522 0.4119967 0.030671231 -0.03402449 -0.22940722 -1.0742717 -0.0079405205 0.25335106 -0.64091355 -0.52216244 0.3011552 0.00855183 0.5046378 0.35225073 -0.06281798 0.19029333 0.34219822 -0.13224463 0.07426357 -0.18489186 -0.26281118 0.3049133 0.018441958 0.32694873 -0.2782407 -0.43510416 -0.056184065 -0.059112474 -0.3553053 0.24325648 0.5380576 0.031374913 -0.24963833 -0.031559907 -0.8221685 -0.21677113 0.16443408 0.09185728 0.15446754 0.040712718 0.05437654 -0.008738117 -0.2949692 0.73727113 -0.6133668 0.025695113 0.11341168 0.4781513 -0.5316722 0.0761484 0.47787994 -0.04292337 -0.53115875 0.0595041 0.25414455 0.07492978 -0.41447952 0.4347237 -0.49924108 -0.36075073 -0.2361059 -0.1598035 0.015718438 0.42817482 0.42299166 -0.13856548 0.26452327 -0.47280747 0.07275399 -0.18669328 -0.55093426 0.08250164 -0.37927395 -0.53201115 0.053713363 0.26666647 0.025184223 0.09925595 -0.28673017
3128 0.69567376 0.8972402 0.2426007 0.11100953 -0.03152064 0.30109084 0.17749473 -0.2019227 0.14410876 0.13350022 0.15588477 0.0925984 -0.6686946 -0.24155699 -0.5160995 -0.11126401 -0.3005359 -0.30257097 0.64712477 0.5470136 0.0379803 -0.22092278 0.53797853 -0.17707913 -0.49755675 -0.48676777 -0.49782318 -0.02060606 0.07947979 -0.4953035 -0.80003554 -0.35372186 0.021257536 0.0511499 0.09703811 -0.38712353 -0.396116 0.09726427 -0.5303567 0.45551792 -0.0464393 -0.6188424 0.21184525 0.5025892 0.054363497 -0.53349113 -0.5307834 0.139949 -0.19637643 0.028332992 0.011685483 0.2374526 -0.26295587 0.07764839 0.12296948 -0.299475 -0.017456219 0.850972 0.2810331 0.06501673 -0.013344113 0.4422017 -0.12362597 0.060455345 0.6578356 -0.28188854 0.05029662 -0.2859246 0.6034521 -0.6841932 0.007575935 0.638816 0.30012426 0.23766087 0.07518697 -0.48859105 0.31000376 -0.5771552 0.14961243 -0.43008223 -0.13192645 -0.17168826 0.08340729 0.021407766 -0.08804805 0.11731391 0.013027675 0.15881433 -0.25300032 -0.3805956 0.14014691 -0.57932484 0.21068375 -0.22278363 -0.06757496 -1.7838837 0.37833956 -0.14792307 -0.24837053 -0.77647966
3703 0.50126165 -0.95711166 -0.0025899725 0.17989203 0.19920109 0.43629158 0.035788137 0.22288725 0.31728053 0.1479057 0.24626769 0.0134799 -0.23364651 -0.74115545 0.0011727934 -0.09258607 0.011835096 -0.78342134 0.46463785 0.6266884 -0.70664686 -0.23938996 1.066839 0.27207384 -0.18239187 -0.044039987 -0.5285917 -0.02773893 -0.028049445 -0.32052025 -0.3761107 -0.24291985 -0.26983336 -0.60545325 -0.08671332 0.69629264 -0.049921867 -0.020279586 0.04053299 0.3548093 -0.41985765 -0.4246699 -0.026916144 0.3507057 0.040567677 0.3343681 0.19104353 -0.17092629 0.15302046 0.4449444 0.3240523 0.21024388 0.3419899 -0.07300963 0.16350429 -0.30252832 0.101757206 -0.26861376 0.108280376 -0.45690814 0.016651103 -0.27287567 -0.11817809 0.17549787 0.1625574 0.6574055 -0.7709324 0.072214514 0.14846586 -0.39015478 0.9313204 0.19760144 0.06547867 -0.0012038711 0.36901546 -0.5928209 0.0924219 0.13987833 0.39347196 -0.76523757 -0.53845805 -0.22423144 0.038810294 -0.81075734 0.34983632 0.026634816 0.25633192 0.12632063 -0.5803365 -0.6784735 0.013007212 0.013838498 -0.34129822 -0.47888383 -0.0066343504 -0.9293969 0.14277765 -0.6280315 0.507489 -0.55776215
3597 0.32143018 0.5005194 -0.002788172 0.05629833 -0.44970992 0.38638246 0.08471576 -0.16730292 0.16141534 -0.20597619 -0.15425618 -0.047280803 -0.3003934 -0.6191353 0.08899022 -0.31896943 0.12565559 -0.33487296 0.040561154 0.20051096 -0.12870988 0.09300576 1.0474056 -0.11091548 -0.44229287 -0.067882426 -0.052426673 0.17239183 -0.06928185 -0.46343654 -0.42983383 -0.33455154 0.115606226 -0.059818476 -0.4424304 -0.022732057 -0.31424 0.41030106 0.32583782 0.15301934 -0.36051127 -0.39763814 0.49088117 0.42969674 -0.35584053 0.0583773 0.18695419 -0.49029422 -0.35085046 0.22580317 -0.15790743 0.100623704 0.16772752 -0.029218024 0.063012294 -0.43635696 0.080120884 -0.17189413 0.111001514 -0.248065 -0.5038594 -0.17770939 -0.21799792 0.14170623 -0.0583929 -0.10406772 -0.7799747 0.11785435 0.003631155 -0.5949661 0.7682236 0.2539068 0.06761233 0.032016587 0.24252364 -0.6445082 0.15987955 -0.16697492 0.23171648 -0.61288303 -0.5425659 -0.30968767 0.21928066 -0.40362823 0.41920945 -0.01496849 0.089825116 0.2644926 -0.055045746 -0.53478616 -0.29770866 -0.4864046 -0.06428902 -0.3962346 0.1619749 -0.49270475 0.7512515 -0.117338054 0.1486592 -0.64372224
2179 0.54351586 -0.5355098 -0.38003743 -0.17721659 -0.33199757 -0.8621248 -0.15134975 0.20841816 0.062460225 0.25327078 -0.066856995 0.23938036 0.0036992088 0.15988192 -0.5890685 0.16434683 -0.11259261 -0.3767281 0.63938594 -0.16264327 0.04796398 -0.0648859 0.11574498 0.29099706 0.2922014 -0.11149792 -0.35564056 0.27306226 -0.55969226 -0.69112974 -0.7748519 -0.31271532 -0.119921476 0.37739626 0.18427669 -0.2896257 -0.25769997 0.11790441 0.985077 0.22359793 -0.2295356 -0.35296655 0.27667448 0.42000666 0.43411443 -0.48190644 -0.34232017 0.4193693 -0.72428477 -0.13955581 -0.26541576 0.8592627 -0.22843032 -0.5735235 -0.16829145 -0.35827583 0.12343044 0.73042494 0.5703779 0.04689601 0.026275324 -0.28177223 -0.033702254 0.384903 0.12467132 -0.059307624 -0.122037105 0.08659767 0.79344153 -0.73585355 0.59297895 0.7823606 -0.11496766 -0.6510293 0.6324683 0.22179723 0.44801098 -0.09885798 0.16956088 -0.5395595 -0.40558928 0.06473711 -0.12476153 -0.210579 0.26901042 0.074855655 0.30457583 0.37660617 -0.38274527 -0.35704032 -0.507032 -0.4289511 -0.19247876 -0.39074898 -0.06277298 0.1659142 -0.14819446 -0.08496305 0.52653426 -0.058453478
3635 0.27927402 -0.38185835 -0.32169485 -0.119641416 -0.21476758 0.6857137 -0.30447486 -0.28321183 -0.0043252604 -0.018833557 0.1880306 -0.042525575 -0.25377053 -0.89794534 -0.12867929 -0.3794996 -0.03854937 -0.5095944 0.19390485 0.120782696 -0.24263833 -0.13317531 0.7074678 0.04325455 -0.5554352 -0.072699055 -0.33080828 -0.039734308 -0.16078457 -0.32371503 -0.41863024 -0.15690589 -0.33795238 -0.19269976 -0.18504302 0.33467215 -0.12783787 0.39462253 0.36723745 0.43765104 -0.14330888 -0.005417533 -0.034058724 0.38419247 -0.19501576 0.17248088 0.15414359 -0.43643132 0.113870494 0.0930954 0.25958896 0.028048355 0.562152 -0.33720866 0.20804368 -0.46237847 0.29422647 0.015739277 0.21924174 -0.30692443 -0.6256813 -0.16647545 -0.048945367 0.10478703 -0.09683935 0.3121262 -0.6833058 0.28810638 -0.036154136 -0.5129451 0.40530574 -0.009876447 0.040145867 -0.03663033 0.40749508 -0.92191976 0.40827912 -0.09944668 0.32196018 -0.5427305 -0.6247446 -0.47696817 0.21968809 -0.3522965 0.26834214 -0.46363962 0.25070956 0.4451089 -0.03335073 -0.26565167 -0.2436256 -0.48990986 -0.617808 -0.088961646 0.14549683 -0.2776304 0.5029728 -0.053180523 0.47041544 -0.7090363
2276 0.41788897 -0.35830456 -0.37758717 -0.15676257 -0.18164593 -0.8936617 -0.1625408 0.32953927 -0.13130331 0.356961 -0.2901004 0.08254283 -0.19447304 0.32133332 -0.44172388 -0.126635 0.14102305 -0.082800895 0.55518055 -0.0731342 -0.092204295 -0.22437195 0.30282542 -0.10162987 0.21688326 -0.1189986 -0.40091205 0.29185623 -0.24246751 -0.69947207 -0.7887497 -0.17097591 0.13660073 0.40177915 0.17743894 -0.011308517 -0.19188245 0.15564406 0.52180326 0.17422561 -0.19636276 -0.30889496 0.32761413 0.36402336 0.21379694 -0.3459336 -0.23174259 0.38538978 -0.5201526 -0.1807523 0.11718378 0.8735242 -0.056886908 -0.56310946 -0.030478546 -0.4169748 -0.07813516 0.35267627 0.36458743 0.056707866 -0.1877671 -0.04515817 -0.0060664583 0.15671782 0.19556588 -0.1485654 0.02712535 -0.05087491 0.3965732 -0.791777 0.47817892 0.5885249 -0.05001939 -0.4900406 0.46437266 0.22445415 0.22505392 -0.23316753 0.19790722 -0.6486192 -0.35610366 0.042387914 -0.0029233424 -0.06704697 0.37267047 0.16762188 0.19413222 0.21818307 -0.46926367 -0.186297 -0.4418577 -0.3402873 -0.0021344898 -0.22607175 -0.44556254 0.47394767 -0.02891814 -0.18463875 0.3421449 -0.067185044
1497 0.123723 -0.22004944 -0.7281414 0.2363226 0.49813554 -0.2433603 -0.13987416 -0.123978786 0.29496035 -0.117230214 0.80737567 -0.104374446 0.47589025 0.016078247 -0.03189529 0.01809835 -0.24794711 0.19295101 0.19602998 0.5067029 0.15151437 -0.08330806 0.06383171 -0.08306607 -0.48737428 -0.507307 -0.051375594 0.1495767 -0.19930133 0.30764472 0.08108678 0.070284665 -0.35488865 -0.1648399 0.27873218 -0.8780544 -0.45025495 -0.054637533 0.09894293 -0.10754088 0.7060836 0.25778773 -0.1644488 0.077220306 -0.04263808 0.035044905 -0.12870379 -0.25950426 -0.6651659 0.32339334 -0.1516099 0.96023846 0.8874929 -0.721813 -0.15650573 -0.31433162 -0.100759216 0.051438693 0.49774107 0.45015046 -0.5777614 -0.38613206 0.07047366 -0.2158665 -0.009626414 0.46139023 -0.6212347 0.50598353 0.68746346 -0.25465807 -0.66863924 1.0660686 -0.0028899703 -0.20352826 0.27609184 0.23348883 0.3007026 -0.17758565 0.01639847 -0.36819106 -0.16026145 -0.7435148 -0.2683187 -0.11355507 0.15793747 0.5654162 0.50858885 1.0002232 -0.24365082 -0.44926193 -0.17024088 0.084756106 -0.18220465 0.133555 0.29980606 -0.54161304 -0.36226758 0.13371155 0.0014145515 -0.23744446
2819 0.10301682 0.52873313 0.0024306695 0.12714341 -0.13167219 0.15775613 0.31966463 0.23058014 0.29405954 0.4397785 -0.05321087 -0.13743307 -0.06540189 0.114998035 0.031169958 0.11631537 -0.19923599 0.081676334 0.3895128 0.39575604 0.36951083 -0.26872912 0.8033029 -0.15131758 -0.16649003 -0.12466457 -0.5441045 -0.46165755 0.2693075 -0.35081184 -0.4824883 -0.57266265 0.3520178 -0.59511346 -0.26083526 0.049842797 0.27547628 0.21053797 0.043298148 0.13079527 -0.406724 -0.9915669 -0.005161542 0.30872968 0.05426771 -0.62424135 0.17867391 0.39393136 -0.196889 0.48823637 -0.3148126 0.43390423 0.34467933 -0.118404076 0.4953393 -0.13524838 -0.013600247 0.6717022 0.3982827 0.23467407 -0.046444155 -0.08589831 0.046517506 0.26886645 0.32004997 0.08613633 -0.44714853 -0.39232066 0.6229894 -0.6042504 0.031101461 0.40979168 -0.11449437 0.44233015 0.31372368 0.11388113 0.2039743 -0.0422058 -0.36406294 -0.69518137 -0.027667312 0.002173493 0.37559992 0.4273912 0.39162147 -0.22848333 0.21646601 0.33404937 -0.1415813 -0.36141926 -0.15009171 -0.4128775 0.26538777 -0.17285377 -0.23813474 -0.67995167 0.13473855 -0.081781626 -0.22959615 -0.20983802
2710 -0.15349203 0.65097356 0.022400325 -0.27906466 -0.12231272 0.1309328 0.25236115 0.34531245 0.49276227 0.2743193 -0.3123474 -0.08046972 0.19824965 0.036898814 0.17950507 -0.51799476 0.109099455 -0.0013349125 0.10340909 0.20067233 0.36398923 0.24972546 0.7082667 -0.4475881 -0.41330433 0.1514523 -0.7941931 0.038416766 0.04891057 0.2348646 0.006665388 -0.41775367 0.2909305 -0.41227368 -0.35043904 -0.009491271 0.32605278 0.5471639 -0.17672305 0.14042161 -0.5757139 -0.92803675 0.3396153 0.3804991 -0.42830086 -0.20848821 0.21519893 0.35152158 -0.26732826 0.23750913 -0.41555324 0.5839529 0.42240462 0.12947929 0.39948472 -0.34356508 -0.15318339 -0.023606172 0.83565366 0.14070676 0.00090309867 -0.24921475 0.0742009 0.021866662 0.3682108 0.30931586 -0.6713207 -0.42694822 0.29489207 -0.83961636 0.55562454 0.22434226 0.13425384 0.26717302 0.19775033 0.23993927 -0.061581098 -0.41706643 -0.20863286 -0.6620558 -0.29296085 -0.028246867 0.14566706 -0.07997093 0.5145817 0.15524271 0.10491324 0.3658766 -0.14504874 -0.47186247 -0.1525828 -0.122923926 0.31202763 0.09460935 -0.38298476 -0.14225242 0.34536257 -0.54872566 0.16641177 -0.16717707
997 0.38850516 -0.6289005 0.0059446353 -0.19405697 -0.0061069825 -0.06890399 0.26187518 0.6340775 -0.26373634 -0.47179145 0.052315485 -0.26455358 0.002658519 0.036717 -0.6735768 -0.29175854 -0.37380847 0.26870775 -0.14318448 0.06804818 0.46737722 -0.1297119 0.3130076 -0.34543943 0.19844037 -0.28335848 -0.52916825 0.13060449 0.0045511555 0.47675923 0.47548652 -0.018839028 -0.39033896 -0.04368059 0.67377555 0.38825533 0.1854461 0.1495554 0.08475555 0.4621575 -0.032115556 -0.27906144 -0.08592361 0.38070744 -0.18954629 -0.12362516 -0.10458718 0.029979605 -0.3131472 0.3072136 -0.11157921 1.089692 0.4236726 0.022390487 0.18000306 0.019784745 -0.077209756 -0.15433599 0.88603765 0.34838486 0.081851415 -0.12006688 0.33271465 -0.41813865 -0.09398479 0.35370478 -0.23070046 0.412694 0.4160465 -0.18409738 -0.3268355 0.43278462 -0.0642188 -0.4167938 0.010094572 0.07099651 0.43858027 -0.43928415 0.34438163 -0.09468968 0.15627363 -0.074374415 -0.12516713 0.097786605 -0.4132234 0.30273274 0.36018464 0.8978827 0.5193939 -0.94255304 -0.07730223 -0.4101471 -0.085984334 0.59816235 -0.10593525 -0.91587716 -0.10025605 0.15545715 -0.12447724 -0.11822539
3540 0.22785981 0.39474773 -0.22120263 -0.10390312 -0.25289762 0.39562824 0.21046783 -0.30643526 0.1870428 -0.13484363 -0.25024018 0.065244585 0.03886565 -0.8642307 0.55776405 -0.05552302 0.3750809 -0.45159572 -0.044455204 0.095686026 -0.41494027 0.072324485 1.1611247 -0.37303996 -0.40993917 -0.39465186 -0.354932 0.05432164 -0.17831455 -0.22963023 -0.59307086 -0.35864013 -0.041878697 -0.33461013 -0.15678364 0.38959822 -0.14791903 0.18540081 0.26068208 0.1654142 -0.73448193 -0.48351002 0.35734838 0.5657855 -0.254888 0.26004148 -0.00017921724 -0.1378195 -0.18153985 0.30465755 0.13882619 0.23715223 0.2507931 -0.1364723 0.36565736 -0.3886695 0.03786417 -0.123921774 0.3045733 -0.2065722 -0.4860492 -0.32280958 0.005610122 0.1823448 0.13795312 0.3121812 -0.7237444 -0.011138373 0.0024757262 -0.6004286 0.65613216 0.25437614 0.1897629 -0.008883627 0.4053495 -0.5563368 0.0018577401 -0.27635714 -0.1465408 -0.77031064 -0.6514346 -0.15761699 0.11477759 -0.6799483 0.007401101 0.21627952 0.043470103 0.29032192 -0.026241845 -0.8131148 0.14282204 -0.19263658 -0.3176833 -0.3874093 -0.23126714 -0.36330548 0.37448788 -0.35164917 0.15661034 -0.5122212
3958 0.405813 0.45800146 0.07053587 0.13147908 -0.58345693 -0.15025075 0.21702425 0.18685949 0.18768364 0.019558804 0.11499745 0.23604447 -0.68774587 -0.3015181 -0.31871715 -0.121666744 -0.23518625 -0.13949473 0.104826614 0.23021638 0.28071424 -0.0050857277 0.7025966 0.15983403 -0.5897982 0.3139056 -0.180346 0.5154312 0.064710386 -0.35023856 0.4180208 -0.27519473 0.08524035 -0.08413057 -0.5843749 -0.17557892 0.014407993 0.40723172 0.5208016 0.28137925 -0.19873115 -0.41936603 0.2939211 0.19316538 -0.4147225 0.31737202 0.20241919 -0.49520034 -0.23916525 0.3253899 -0.022925735 0.22050284 0.62918776 -0.18419784 -0.12741674 -0.3473799 -0.034958206 0.21201603 -0.05845976 -0.017380236 -0.14862455 -0.014307034 -0.116456866 0.24937433 -0.0788539 -0.010852747 -0.8030887 -0.026792778 0.10205187 -0.36899242 1.0467818 0.2219927 0.14389203 -0.16992082 0.097989604 -0.44251668 0.47583783 -0.11540996 0.59182507 -0.40281746 -0.3714649 -0.6201658 0.0033075842 -0.28966647 0.8192054 0.03231555 -0.018656215 0.40278724 -0.26363614 -0.34519303 -0.22625086 -0.5433932 -0.30593556 -0.1644255 0.6589319 -0.15921634 0.555067 -0.017000986 0.19418855 -0.4383098
2830 -0.13265745 0.68661463 0.10817571 -0.15270646 -0.225846 0.060225666 0.46084058 0.12780371 0.2570946 0.26713097 -0.26674083 -0.011808999 0.053635824 -0.04945191 0.30676994 -0.048088852 0.04691386 0.064780235 -0.007312386 0.3396132 0.21494994 -0.11347328 1.08214 -0.30973744 -0.3953697 -0.12152453 -0.57250524 -0.3072338 0.24950625 0.10327746 -0.35238057 -0.81370425 0.4250184 -0.5700852 -0.1882427 0.043034337 0.042598248 0.57191354 0.20663443 0.044637136 -0.5488156 -1.0638711 0.27836928 0.37768322 -0.14351293 -0.2991403 0.13381147 0.3378216 -0.27264774 0.3862075 -0.19890986 0.771559 0.39826447 -0.086204015 0.38010302 -0.16906883 -0.116974354 0.41320798 0.638244 -0.02011466 -0.07605158 -0.20941381 0.11016773 0.26022512 0.16670422 0.1999294 -0.7109502 -0.3430682 0.39495784 -0.5958385 0.48977625 0.39882794 -0.02401074 0.33632836 0.27135426 -0.029589035 -0.108184166 -0.10109159 -0.3779358 -0.9597918 -0.15397117 -0.048274823 0.3829795 -0.13859992 0.33913586 0.07554794 0.110891685 0.23084696 0.001843463 -0.4215362 -0.1805962 -0.35240197 0.3231967 -0.21670115 -0.23247351 -0.31932697 0.29600903 -0.29084167 0.05716291 -0.17422387
3118 0.8511339 0.99547863 0.29434213 -0.031049924 0.17895232 0.2374954 0.1784992 -0.3176982 0.18043698 0.17617743 -0.11270716 0.09159494 -0.6522881 -0.11747891 -0.6688403 -0.0010892424 -0.30388954 -0.36172074 0.68661577 0.46115297 0.101034276 -0.52406156 0.5243844 -0.21373747 -0.58577406 -0.6572864 -0.7170539 -0.11764942 0.0085107805 -0.49531797 -0.5975497 -0.40094173 -0.2545753 0.1395046 0.14507782 -0.3882098 -0.44866145 0.25952566 -0.51817757 0.49902016 -0.23909743 -0.4603901 0.1878628 0.89056724 0.13500609 -0.41474015 -0.55960494 0.04674456 0.014781811 -0.13857932 -0.17139575 0.2878935 -0.06991439 0.09871112 0.22847125 -0.53490096 -0.1162504 1.1078589 0.49930555 -0.023161959 -0.03855897 0.3443533 0.07021488 -0.08514074 0.86549115 -0.3260375 -0.104057424 -0.015816292 0.55327433 -0.73904806 -0.24818973 0.4354996 0.38132644 -0.06816882 0.06245373 -0.613951 0.45400903 -0.7721471 -0.07455964 -0.4635646 -0.09254099 -0.23425879 0.032314718 -0.030619692 -0.028787581 0.10449437 0.048216313 0.117904834 -0.35478228 -0.18074743 0.13120313 -0.59881836 0.17816173 -0.26739264 -0.21339566 -1.7265022 0.24529715 -0.17718107 -0.16418238 -0.5152263
3801 0.58699834 -0.06787546 0.09480653 -0.23077628 0.0064593297 -0.016006708 -0.056451607 -0.06568586 0.09571429 -0.05528386 0.09698274 0.05137572 -0.77072716 -0.75852495 -0.12117099 -0.15660545 0.011491055 -0.2868526 0.16490172 0.3351596 -0.217416 -0.023925493 0.74802357 0.07915171 -0.32554793 0.3596556 -0.6130873 0.024339546 0.10617758 -0.28884628 -0.04210744 -0.33498582 -0.27972564 -0.36630765 -0.015127476 0.0317373 -0.13569325 0.36855152 0.3245786 0.44847515 -0.28757632 -0.0076752896 0.069906116 0.41861254 -0.024255693 0.5894136 0.27351832 -0.3460832 -0.39134735 0.46618986 0.54274106 0.3002837 0.72020537 -0.40603134 0.025701514 -0.49694917 0.3104661 -0.011055037 -0.22344555 -0.26222974 -0.39893845 -0.21292983 -0.097095445 0.012519391 0.22972792 0.45817408 -0.57097095 0.18786177 -0.008601938 -0.4220846 0.7784668 -0.13258931 0.3154654 -0.10127317 0.42984644 -0.7893179 0.10338115 -0.17868577 0.5669176 -0.47459206 -0.5490453 -0.8863397 -0.24041118 -0.24490042 0.42755017 0.10589749 -0.09491209 0.39195484 0.029702911 -0.4655003 0.06610349 -0.11834039 -0.8833585 0.046184827 0.07119941 -0.15690538 0.19412483 -0.05304522 0.55776787 -0.474766
2596 0.011112397 -0.3256612 -0.10301448 -0.1092747 0.11968812 0.14335695 0.117269926 0.5996394 0.19246759 0.098964415 0.03391945 -0.092128545 -0.19177961 0.09185634 -0.27322805 -0.6631642 0.020374592 -0.43925777 0.13676493 0.018551089 0.45350674 0.5366496 0.64183295 -0.20380397 0.10273327 0.4002116 -0.62212694 0.41838092 0.09863113 0.06349841 -0.30883706 -0.003358339 0.41294697 0.24935852 -0.1274057 -0.1762138 -0.067306705 0.5277388 0.3141802 0.28481972 -0.022042727 -0.8089157 0.66504973 0.10583721 -0.41187635 0.19510682 0.013625768 0.24475737 -0.15269117 0.17789535 -0.14599812 0.8800235 0.34793982 -0.22980519 0.022407131 -0.5705157 0.11195691 0.20340505 0.49465516 0.20050994 -0.010180049 -0.05824619 -0.043649968 0.10437134 0.8277583 -0.37165463 -0.49663305 -0.4513877 0.18180841 -0.7237987 0.81878185 0.7979861 0.063747525 -0.086192444 0.4334713 0.33561358 -0.2506777 -0.45020172 0.08834231 -0.7841466 -0.4245785 0.005745901 0.03781776 -0.25397888 0.2704109 0.5458779 0.06800419 0.5360452 -0.194223 -0.13256404 0.03376625 0.1348757 0.25313807 -0.2327672 -0.6022298 -0.010424727 0.3748964 -0.6107538 0.3953148 -0.12013284
1985 0.3518544 -0.4386825 -0.00014306801 0.040140763 0.07452703 -0.62072706 -0.012413983 0.22308749 -0.10293018 0.16346166 -0.07309035 -0.027465222 0.439235 -0.10585475 -0.537176 -0.00861113 0.11350464 -0.17764671 0.54814357 -0.17297192 -0.087449014 -0.077233545 -0.1603145 -0.20474976 0.20384137 -0.14803241 -0.34769684 0.32407463 -0.017011195 -0.61452377 -0.46367234 0.013836888 -0.021271408 -0.2460515 0.19142339 -0.23065527 -0.21539986 -0.35743153 0.28558138 0.7732804 0.06136505 0.06119666 -0.12885572 0.40243846 0.4689962 -0.5482728 -0.34275433 0.29757947 -0.86733025 -0.11104761 -0.04822421 0.8292264 0.20761454 -0.8094742 -0.22664742 -0.6990147 -0.2850886 0.81228197 0.25972995 0.31378573 0.25410518 -0.27815506 0.055464234 0.58895266 0.08312445 0.10806469 -0.07669947 0.10488673 0.581114 -0.7393121 0.46095967 0.36992303 0.19303069 -0.51578903 0.0610091 0.060982425 0.67552954 0.20845762 0.07014842 -0.002325087 -0.20228943 -0.17617516 -0.22244607 -0.19850273 0.364861 -0.18586162 0.3189017 0.26438102 -0.025097989 0.24254197 -0.3826236 -0.35470232 -0.122303076 0.04770469 -0.08626044 -0.385401 -0.06640107 -0.005701803 0.11500096 0.11730156
802 0.46713787 -0.2328554 -0.06189033 -0.22892149 0.30675897 0.073184 0.24233551 0.37634495 -0.36589557 -0.3969093 -0.09468118 0.0797444 -0.0033820104 -0.009050279 -0.42713156 -0.26558238 -0.32291713 0.24236125 -0.14767064 0.019665968 0.67792594 -0.20443928 0.3885706 0.26276204 -0.16011031 -0.23330952 -0.5659954 -0.096600406 -0.088792376 0.41503438 0.15595044 0.017736638 -1.1292598 0.3536568 0.273563 0.3742856 -0.15647878 0.06788572 0.094999485 0.70559317 0.12781239 -0.14481944 0.019536978 0.5971468 -0.27015188 -0.28414297 -0.1398155 0.48996654 -0.2104996 0.51754075 0.10572513 1.1218841 0.24726114 -0.18522415 0.2737934 -0.16486096 0.057738923 0.23103939 0.73163384 -0.12400093 -0.05914212 -0.2870898 0.17160046 -0.022386337 0.12874825 0.5465356 -0.40333888 0.41512764 0.34114787 -0.32643786 -0.25586474 0.15005991 -0.13529097 -0.65257907 -0.284214 -0.3844992 0.08889373 -0.27801841 0.18470064 -0.22012821 0.20338716 0.18345463 0.3079137 0.4742855 -0.25992936 0.024393292 0.036664337 0.66375124 0.55333954 -0.35240257 -0.26709542 0.002377518 0.021698765 0.27741343 -0.17511547 -0.8972672 0.22503607 -0.5091447 -0.14238036 0.31881893
2003 0.4164265 -0.40491587 -0.13433841 -0.009019425 0.082172364 -0.7795795 0.10630029 0.33295023 -0.14018227 0.1543818 -0.08129355 -0.04016938 0.28685018 -0.07056454 -0.49526095 -0.110906005 0.22517847 -0.23751059 0.7585052 -0.19108549 -0.24052489 -0.1161157 -0.068244085 -0.16886304 0.15799047 -0.021600327 -0.402532 0.27490586 -0.21563472 -0.7010113 -0.7623553 -0.12783544 -0.12781546 -0.14635849 0.24211445 -0.32736433 -0.113728136 -0.18945052 0.41892904 0.84650695 -0.024971189 0.122053474 0.08023416 0.45481294 0.36372378 -0.66704863 -0.47591847 0.5082569 -1.0439075 -0.06787259 -0.08785882 0.87235487 0.21370934 -0.81134593 -0.28020987 -0.5369124 -0.08637865 0.75816226 0.30657417 0.23009017 0.09833667 -0.26514035 0.013481304 0.5750503 0.030438924 0.0489076 -0.040755644 0.13698602 0.5170057 -0.88515174 0.70353484 0.52461296 0.09450174 -0.4563679 0.28131473 0.028686102 0.76604265 0.072063334 0.06720541 0.010239552 -0.3806569 -0.17228517 -0.098465435 -0.083365895 0.3693439 -0.023822363 0.3528813 0.2729787 -0.15735176 0.09378898 -0.48152173 -0.45510963 0.0830551 -0.018002696 -0.13522117 -0.22290918 -0.12595904 -0.01551426 0.14603835 0.23292038
3212 0.7101296 0.7404303 0.25394043 -0.0859319 -0.3125668 0.2740507 0.05929708 -0.22358333 0.16987143 0.3891411 -0.01757833 0.15125011 -0.4141713 -0.15915787 -0.3824592 0.08462908 -0.13696107 -0.24826683 0.58420277 0.4128705 -0.16749854 -0.6050278 0.5316149 -0.17211951 -0.61062264 -0.70867115 -0.5371023 0.043256536 0.040223483 -0.35158995 -0.3939036 -0.29543152 -0.33277464 0.1647937 -0.07890853 -0.048813324 -0.21986546 0.31399238 -0.38606316 0.5021995 -0.120286725 -0.59520024 0.053199526 0.65329653 0.06323851 -0.22504632 -0.58764017 0.055974208 -0.051094044 -0.116253324 0.16360106 0.11322463 -0.14187287 0.04921643 0.38613033 -0.3434517 -0.16044173 0.90413034 0.2569068 -0.02654171 -0.2641837 0.36493856 0.10537727 -0.030763343 0.5733198 -0.17598869 -0.14785783 -0.26616308 0.25155672 -0.2794087 0.1234372 0.52529967 0.20506547 -0.021534476 0.070507154 -0.41253188 0.2985291 -0.45434508 0.06091185 -0.3898895 -0.20009817 -0.11796168 -0.06420889 -0.08582415 -0.23157908 -0.18055741 0.13643047 -0.092142425 -0.34699914 -0.30455613 0.071614996 -0.22629644 0.042530466 -0.15076329 0.015591138 -1.1086643 0.34652656 -0.22120912 -0.19922256 -0.3185874
2748 0.18723178 0.3665453 -0.34385157 -0.071061805 -0.4274969 0.4015189 -0.060510356 -0.09518845 0.25858256 0.39493325 -0.26561767 -0.11069008 -0.30847833 -0.4273165 0.43028092 -0.20995288 0.05294723 0.11140015 0.07743494 0.31493393 -0.13482037 -0.06899296 0.6885249 0.03093743 -0.19122815 -0.089159705 -0.6083785 -0.2735142 0.1732656 -0.37152663 -0.6126432 -0.1270821 0.08854846 0.036500257 0.08656077 0.2620576 0.2369442 0.5908504 0.011173941 0.2798195 -0.24415676 -0.40612623 0.08232007 0.24494798 0.040462214 -0.19356848 -0.117547974 0.21785882 -0.120557845 0.06283968 0.2562017 0.3101109 0.09402149 -0.12826808 0.21034104 -0.4707319 -0.0011789557 0.17207439 0.21461661 -0.07212917 -0.32698497 -0.036584385 -0.21229377 0.21805635 0.35793984 0.1001172 -0.29609418 -0.07869309 -0.075067356 -0.53699386 0.31861854 0.49173474 -0.0077683553 -0.05315032 0.5595546 0.03402659 -0.19714943 -0.14217205 -0.093369916 -0.6612688 -0.26550302 -0.32291597 -0.017686337 0.11684003 0.20594679 0.16413783 -0.06990055 0.27128184 -0.038158845 -0.16542932 0.06506956 -0.31707898 -0.26564783 -0.14302297 -0.33984601 0.020315597 0.22340019 -0.2611001 -0.17065023 -0.56005406
3091 0.46372625 0.74457765 0.20376483 0.3170102 -0.18983361 0.31747934 0.17775974 -0.19612083 0.3868057 0.28427178 0.058357336 0.13439587 -0.45507744 -0.24325514 -0.17606954 -0.31508455 -0.12852198 -0.22038405 0.48974594 0.63055724 0.024369672 0.06314518 0.69847995 -0.18617232 -0.29509872 -0.19763713 -0.44157293 -0.032730088 0.15178233 -0.44350633 -0.7908526 -0.35928604 0.38417467 -0.06919142 -0.1598046 -0.31681442 -0.20843698 0.06462862 -0.14391781 0.22964525 -0.09172102 -0.7355946 0.34205598 0.35071492 -0.03916768 -0.52128744 -0.1870087 0.13067743 -0.2523033 0.21638972 -0.1800988 0.23831297 -0.1938521 0.19600503 0.13835558 -0.22662856 0.1091516 0.45878223 0.2525398 0.018434994 -0.045119103 0.2567022 -0.34008208 0.17286159 0.6268363 -0.1963855 -0.32002738 -0.30186677 0.3154004 -0.69574904 0.2476165 0.67170584 0.13180387 0.45804474 0.2645058 -0.29935342 0.036822658 -0.38315627 0.043436024 -0.58693665 -0.07102198 -0.23385538 0.22291078 0.13260397 0.03355919 0.054777753 -0.011120392 0.18736489 -0.05999173 -0.38939586 0.016820664 -0.55065215 0.14634432 -0.28702384 -0.08782401 -1.2912356 0.4078303 -0.21861266 -0.2027195 -0.77148306
1452 0.4046532 -0.47121653 -0.49443793 -0.17384487 0.2398787 -0.06261562 0.005746607 0.129696 0.35506928 -0.30176458 0.2962729 -0.019212795 0.28697035 0.09993666 -0.11057876 -0.30676737 -0.29945868 -0.06563295 0.06420293 -0.060305856 -0.06584856 0.00942203 0.032806233 -0.120163605 -0.06972388 -0.36195508 -0.36870074 0.18304329 -0.2298804 0.15300666 0.36367956 0.08204132 -0.34532803 -0.22898354 0.46812716 -0.14034164 -0.13592182 -0.0028423648 0.023244541 0.44569167 0.48591536 0.2997053 -0.055557687 0.30695271 0.24868216 -0.07612338 0.16816644 0.4116514 -0.65584934 0.47494945 -0.1676373 0.32256848 0.53219706 -0.43250296 -0.1996127 0.03648246 -0.25231075 -0.14417619 0.6380433 0.3269391 -0.13214909 -0.4360593 0.20789813 0.20542103 -0.29156867 -0.22706342 -0.29614812 0.24669304 0.4983847 -0.13506067 -0.034038097 0.6755808 0.040372964 -0.12175996 0.33946544 -0.13336498 0.42528784 -0.44227844 0.35439816 -0.03154358 0.072104566 0.064257145 -0.3871258 -0.28675553 -0.015669396 0.5572128 0.33335373 0.58265 0.11794801 -0.56991154 -0.34548748 -0.2272327 -0.23037647 0.26109535 0.4624488 -0.6281153 -0.534246 -0.032937206 0.13380846 0.059071936
3430 0.73519486 -0.10984947 0.22418965 0.117208496 -0.0029847466 0.5415176 -0.123917475 -0.4883695 -0.08200708 0.021536581 -0.3638775 0.0836553 -0.17877996 -0.17438936 -0.2739665 -0.17369838 0.054146044 -0.57691884 -0.049260393 0.47178057 -0.05477791 -0.40043202 0.49656227 -0.55525184 -0.71663934 -0.65541965 -0.5975766 0.4352381 -0.3182084 -0.58593583 -0.8019125 0.039500877 -0.06532213 0.055697124 0.07800448 -0.1168286 -0.5131322 0.14705296 -0.37958422 0.14943503 -0.5239767 -0.31144032 -0.17680591 0.688404 -0.21898286 0.025472065 0.1967224 -0.35719913 0.30876985 -0.17881633 0.17869678 -0.0097138565 0.49736622 -0.40032357 0.37413833 -0.27990523 -0.17270268 0.22386712 0.49373442 -0.16280591 -0.39786816 0.1731655 0.07282043 -0.2604606 0.343837 0.27617678 -0.7853107 0.013274567 0.117536224 -0.31818315 -0.37051365 0.0569492 0.18779543 -0.062264193 0.22198382 -1.2503448 0.3719523 -0.37207052 -0.048086733 -0.18265054 -0.08397089 -0.577015 0.32117245 -0.410104 -0.19853017 -0.46993902 0.22375388 0.4854926 0.10594733 -0.51532423 0.037758823 -0.27428773 -0.4061277 0.07487439 -0.056197632 -0.56124705 0.3639798 -0.11481615 -0.25320333 -0.52205586
2491 0.16822082 -0.0030491424 -0.26475862 -0.3080226 0.04042125 0.033895347 0.017435431 0.20720236 0.17554934 -0.11550889 -0.084575646 0.032318335 -0.2542634 0.41972634 -0.29057804 -0.5713285 -0.21863599 -0.08743393 0.23482014 0.05769139 0.21592695 -0.16997384 0.66790956 -0.018721648 -0.1367359 0.13348606 -0.85303426 0.12948708 0.43458262 -0.18288334 -0.15606469 0.225093 0.25117227 0.4936928 0.09972721 -0.010615492 0.07084961 0.55047184 0.0010961879 0.21472976 -0.0834498 -0.56553614 0.3367279 0.06007389 -0.09643331 0.2255005 -0.22924124 -0.018679116 -0.124668896 0.06605323 0.15613173 0.6163232 0.23991838 -0.21065232 0.08447503 -0.7148871 -0.054638214 -0.016475117 0.45943892 0.259088 0.048676495 0.1379788 0.094948255 -0.26318055 0.8082064 -0.44532934 -0.30988863 -0.17412223 0.16293506 -0.41984454 0.27309036 0.89776176 0.17198893 -0.29446587 0.31214797 0.3915902 -0.19051361 -0.6369924 0.58632565 -0.40738934 -0.3022119 -0.28991836 -0.09645064 0.23196648 0.18102051 0.34909633 -0.14064297 0.20015134 -0.25749198 -0.0834365 -0.0029915476 -0.15865558 -0.07391268 0.055984896 -0.3862528 0.159118 0.30448174 -0.068535805 0.15883908 0.05752852
2549 0.069276005 -0.03953621 -0.2588305 -0.19272947 -0.16016306 0.14718235 0.1015553 0.26811707 0.31114277 0.038681723 -0.100416735 0.034292065 -0.28197125 0.16644956 -0.10419102 -0.5996051 -0.20674506 -0.10567527 0.11547971 0.109807454 0.24140441 0.17346418 0.68806946 -0.0067224833 0.04251238 0.36910883 -0.66816366 0.34471774 0.39492732 -0.14802803 -0.094882086 0.11598287 0.37464643 0.37312752 -0.082425825 -0.1891287 -0.041661806 0.59803164 0.33665705 0.23927228 -0.13559556 -0.49154547 0.41097334 0.029489525 -0.31334835 0.36039868 -0.05679979 0.180174 -0.07110731 0.11535703 0.095925346 0.67612606 0.4263294 -0.0911035 0.06740772 -0.68737864 -0.086392306 0.049894735 0.38346344 0.22005074 -0.15153842 0.008082411 -0.039272506 0.13970521 0.60796565 -0.2805286 -0.348787 -0.3114279 0.13602807 -0.5944801 0.50571686 0.7079977 0.013024928 -0.18271218 0.31640816 0.30202743 -0.27598694 -0.43285537 0.40357992 -0.57482696 -0.41207567 -0.124832585 0.036725752 0.15789814 0.29325235 0.53651786 -0.09301387 0.4333972 -0.15368262 -0.12570582 -0.10680806 0.024643568 0.00032028861 -0.049477473 -0.44899637 0.35033473 0.2233539 -0.25922602 0.23060757 -0.073468626
2907 -0.23455475 0.8351668 0.17171243 -0.10230979 -0.07370559 -0.15907378 0.3862993 -0.046551824 0.34775478 0.050045505 -0.24460454 -0.028084753 -0.11768763 0.19882594 -0.027720822 0.11668324 -0.45458305 0.16668597 0.38091803 0.4306794 0.1671346 -0.55558074 0.41085377 -0.24936688 -1.0699837 -0.20673457 -0.46319214 -0.3165042 0.30642086 -0.34113213 -0.31810224 -0.75004745 0.060801264 -0.51721245 -0.25393555 -0.20209976 0.092242 0.52492654 -0.26208067 0.38500556 -0.39020735 -0.6648194 -0.3545089 0.7261848 0.078373 -0.60934633 -0.007918763 0.30255187 -0.03687366 0.17575757 -0.1831537 0.5030335 0.41924533 -0.09691042 0.42471966 -0.31507728 -0.06502445 1.272932 0.71782964 0.044291146 0.1288991 0.23035918 0.43001136 0.2432276 0.41709092 0.3798156 -0.6102511 -0.08296542 0.5191426 0.025167663 0.2908605 0.60604566 0.03123265 0.034146167 0.31491143 -0.11367376 0.3853008 -0.16965483 -0.4092729 -0.6880895 -0.001872568 -0.31628418 0.1905475 0.16038685 0.11065808 0.017797686 0.1253873 0.212993 -0.14303766 -0.17074579 -0.37912887 -0.2682279 -0.07473501 0.030472273 0.044883527 -0.6985428 0.18793838 -0.19427338 -0.1454994 0.13879494
1625 0.55075276 -0.648061 -0.5960277 -0.39537406 0.38451144 -0.07239809 0.0922359 -0.082475066 0.42201507 -0.2454172 0.015640415 0.15213054 0.4006514 0.023605296 -0.4408598 -0.32057598 -0.37056342 -0.058968037 0.354306 -0.1313232 -0.36343437 -0.0073060524 0.075588286 -0.00022214842 -0.063711 -0.13962208 -0.49703488 0.21482067 0.010566306 -0.09044648 0.1371285 -0.060658474 -0.35122016 -0.30255154 0.06072668 -0.24213463 0.06034946 -0.15311691 0.20467897 0.7655697 0.6229407 0.327816 -0.23850287 0.2677749 0.27396557 -0.105227314 0.10798819 0.60035896 -0.6203087 0.28225732 -0.1065439 -0.031484634 0.75454885 -0.47299445 -0.1993919 -0.21117128 -0.3287679 0.054814775 0.42268908 0.26833847 0.06894539 -0.37730688 0.15005353 0.3994473 -0.18607295 0.0046454566 -0.22820652 0.25671273 0.30262983 -0.27825698 0.15466793 0.6063083 -0.01858982 -0.2511355 0.25461057 -0.094215624 0.53588593 -0.14971343 0.38663155 0.1319132 -0.050016467 0.1064876 -0.10905477 -0.24679357 0.044293847 0.5393243 0.3368464 0.52705157 0.08368397 -0.3679488 -0.33067515 -0.1755952 -0.25891992 0.16692053 0.50129205 -0.77027285 -0.7058349 -0.18199022 0.038631685 0.13700697
2319 0.49598297 -0.23050962 -0.5310067 -0.17713289 -0.24880446 -0.632448 -0.22066751 0.20858265 -0.0074321423 0.30841714 -0.20797265 0.13977297 -0.4536676 0.60985094 -0.4355216 -0.111986876 0.023981618 0.112158634 0.41814104 0.075067826 -0.052806366 -0.40307677 0.40855584 0.0052218093 0.105026685 -0.2422798 -0.41691786 0.32098857 -0.15096226 -0.6733648 -0.38652918 0.06941853 -0.06437985 0.45487583 0.3989162 -0.14149 -0.009714864 0.042485423 0.3593697 -0.011180567 0.058611464 -0.19130424 0.23131454 0.30102926 0.15021224 -0.09372654 -0.18569653 0.009150785 -0.16112825 -0.22241977 0.16563386 0.7844813 0.02720441 -0.49995655 -0.055051837 -0.49034745 -0.09569082 0.26823393 0.2844613 0.09633368 -0.22355135 0.038312342 -0.053227093 -0.006730705 0.15183231 -0.2172685 -0.11290988 0.09663162 0.6400378 -0.5171238 0.1355531 0.7729686 -0.2998266 -0.57617015 0.36937094 0.2672619 0.142735 -0.19232725 0.26926658 -0.53535074 -0.3351276 -0.07151372 -0.13050275 -0.09945872 0.3431959 0.43091735 0.15619233 0.404409 -0.43957916 -0.1222666 -0.35486642 -0.40111834 -0.0052613714 -0.2647231 -0.37796956 0.47427827 0.08123981 -0.17322917 0.16662586 -0.114307344
3052 0.65928024 0.84881055 0.02000197 0.35515174 -0.29987118 0.43768808 0.04329669 -0.13925402 0.3918356 0.3645771 -0.03173095 0.24740496 -0.28292263 -0.32241738 -0.004437601 -0.4962219 -0.07681946 -0.17739342 0.63128424 0.62407357 -0.17355582 -0.4679261 0.38200045 -0.096060164 -0.44005573 -0.1512066 -0.4793058 -0.1910404 0.387483 -0.4194174 -0.81048757 -0.25595373 -0.014202698 -0.10261444 0.1786503 0.064510226 0.135177 0.06355694 0.00063558394 0.4636816 -0.01782012 -0.49461114 0.022728784 0.6042532 0.40858898 -0.59914064 -0.11718836 0.18155132 -0.29148245 0.056957424 -0.269502 0.30238742 -0.30198848 0.15140796 0.024636725 -0.067977 0.054146457 0.30606642 0.35435238 0.048584007 0.025456635 0.12406311 -0.32722548 0.31478918 0.4206149 -0.043809246 -0.5392847 0.124088846 -0.0746635 -0.5578963 0.21889333 0.8695842 -0.097664654 0.35301197 0.5169818 -0.0869438 0.04943099 -0.15539433 -0.057910968 -0.5592398 0.19783264 -0.39825726 0.45186156 0.4094845 -0.19060065 -0.044246074 -0.14150482 0.2534225 0.13795345 -0.1493732 -0.11584806 -0.59694135 -0.14909989 -0.074935645 0.011162784 -1.196757 -0.12909801 -0.10825429 -0.26756182 -0.5715488
1257 0.4056647 -0.3266559 -0.26024652 -0.23102398 0.30648747 -0.04374839 0.0072821 0.42520696 -0.03428898 -0.33936766 0.22664276 -0.16249421 0.14091381 0.067157075 -0.42951527 -0.22877537 -0.23366939 0.22727193 -0.1674601 0.062319834 -0.13618776 -0.16314165 0.14635909 -0.20331644 -0.6131132 -0.30410603 -0.3681237 0.3030396 0.047000058 -0.20240842 0.18676777 0.3018928 -0.20399189 -0.20436636 0.5659987 -0.00392061 0.087820165 0.28193757 -0.33732122 0.48080915 0.40247858 0.0439934 0.24839716 0.51897156 0.04642104 0.003933136 0.03632053 0.08510059 -0.19768992 0.30933473 0.08227557 0.44389078 0.6999438 -0.07210139 -0.053681806 0.03029977 -0.23234528 0.021000119 0.5437417 0.4485593 -0.2603115 -0.4568 0.06417712 -0.1724863 -0.24462584 0.12483238 0.15846843 0.09543072 0.24480459 -0.12720166 -0.1428077 0.56297046 0.2570097 -0.286769 -0.121177144 0.07121185 0.22432803 -0.7983629 0.4442461 -0.2596629 0.21964465 0.27003658 -0.4579219 -0.22596197 -0.25441325 0.12783189 0.3917198 0.64612025 0.36447245 -0.59608334 -0.072403975 0.004876943 -0.3365816 0.5835305 0.14913607 -0.814941 -0.39032558 -0.20058441 0.013222916 -0.18734631
3244 0.59033185 0.44021204 0.21749972 -0.07588553 -0.25939387 0.48058924 -0.0036357185 -0.30827212 0.14080927 0.05453836 0.09545765 0.13376458 -0.47879902 -0.4433331 -0.1855195 -0.052088812 0.07958808 -0.3632406 0.2774898 0.5080497 -0.46192393 -0.19883852 0.58701384 -0.20690355 -0.51247317 -0.64140236 -0.4245684 0.07084405 0.16054313 -0.39603677 -0.46214896 -0.30878398 -0.117476255 0.0822441 -0.106043465 -0.049688388 -0.13390493 0.28130785 -0.24626787 0.32150474 -0.2671123 -0.37572446 0.15446904 0.5092389 -0.04704431 0.0066185296 -0.2674863 -0.16556661 0.16539118 0.09456832 0.27330637 0.020979762 -0.10608642 0.19772427 0.30687672 -0.35139272 -0.06803552 0.40890864 0.040493336 -0.16714764 -0.2966994 0.09422737 -0.13669276 -0.0993035 0.48278704 0.028898967 -0.22608516 -0.15805015 0.11410925 -0.38615972 0.21716316 0.30223718 0.17958556 0.108363755 0.13154013 -0.50502485 0.10022348 -0.3477575 0.17180961 -0.46355364 -0.35762876 -0.22083534 -0.11372704 -0.26452753 -0.15150833 -0.016063215 0.091312304 0.16380632 -0.06550528 -0.38250557 0.17719276 -0.15077932 -0.12190794 -0.20880194 0.0028825705 -0.84708375 0.37761727 -0.34860817 -0.12140592 -0.6389714
1711 0.30334347 -0.1374616 -0.10404635 -0.28100738 0.02786283 -0.34496358 0.10025513 -0.08030131 0.5310382 -0.0915769 -0.08867366 -0.02736729 0.42709443 0.024606977 -0.21603255 -0.37472594 -0.032282293 -0.047646757 0.6700539 -0.22251223 0.108195715 0.009016212 -0.010092041 -0.3043485 -0.074041754 -0.015471141 -0.50809807 0.4398248 -0.13228832 -0.22551401 -0.15529162 0.1239233 -0.1983425 -0.40244898 0.1616685 0.16471706 0.12773432 -0.15471378 0.3036088 0.8981077 0.2582154 0.57161605 -0.20056616 -0.0069048973 0.27376518 -0.19869225 -0.065536715 0.4384453 -0.5252122 0.18001072 -0.26586592 0.28885055 0.67757803 -0.5318731 0.09382869 -0.4231752 -0.58780783 -0.06389916 0.54540366 0.27943903 -0.06050804 -0.5002096 0.103197224 0.35752487 -0.10758757 -0.04375111 -0.09492886 0.5008834 0.3420962 -0.48744488 0.20358554 0.47859025 0.33967695 -0.08489082 0.12223197 -0.08286487 0.498208 -0.17332755 0.17929432 0.152863 -0.13733907 0.08579191 -0.05819254 0.17846885 0.22212285 0.41428983 0.1326278 0.55558044 0.10586052 -0.21157037 -0.23350199 -0.09260891 -0.3412119 0.35593826 0.23371968 -0.7232007 -0.6138423 -0.32591632 -0.15112083 0.30028343
1332 0.43367836 -0.23449297 -0.15802628 -0.17323345 0.26988962 -0.14199306 -0.038120776 0.43511093 0.12792702 -0.616864 0.02937888 0.19602162 0.07062018 0.21672677 -0.11092804 -0.48907292 -0.5237294 0.12558404 -0.09909913 0.12421965 -0.023158066 0.10398405 0.22252522 -0.122351505 -0.5298827 -0.10958795 -0.19798498 0.3167148 -0.0126955025 0.057433248 0.38055718 0.16616653 -0.20355023 -0.23926249 0.5926889 -0.023137795 -0.002571046 0.049451403 -0.12780714 0.27420747 0.49276268 0.29413116 0.453942 0.61726344 0.14989348 -0.14575489 0.30695006 0.2724145 -0.5064843 0.22310415 0.032397393 0.14902528 0.6016818 -0.12583145 -0.12041309 -0.065308966 0.07362249 0.076612875 0.5983071 0.29805702 -0.32025993 -0.45398742 0.17305078 0.028570348 -0.18760493 -0.1093774 0.0011365868 0.33757088 0.24582429 -0.44037095 0.11186316 0.6632479 0.02120905 -0.3293829 -0.031901695 -0.16595112 0.08722078 -0.50002843 0.14253786 -0.10864737 0.21784425 0.21431822 -0.5798314 -0.43696555 -0.109145425 0.355659 0.43626365 0.36384845 0.20502827 -0.47150618 -0.28854153 -0.060538393 -0.3105378 0.14876443 0.34611034 -0.92567897 -0.33851358 -0.15142024 -0.015861942 -0.049843844
1109 0.19589709 -0.4578615 -0.19223642 -0.11280389 0.031972535 -0.17034934 0.13290313 0.49545133 -0.26117614 -0.198663 0.04573908 0.16078229 0.057898678 0.01429704 -0.3494617 -0.16399688 0.051432565 0.32229075 -0.029429464 0.22790055 -0.1399992 -0.1664885 0.2484161 -0.4609908 -0.18662134 -0.34343642 -0.34235078 0.505241 -0.00697112 -0.09197446 0.43633157 0.39645228 -0.36228058 -0.23102354 0.5309801 0.12407778 -0.16008458 0.37654164 -0.3021783 0.6631787 0.039536443 0.07663935 0.1314111 0.4913834 0.1289957 -0.15155591 0.119099125 0.36459422 -0.39203325 -0.031513624 -0.13239877 0.6595286 0.7328528 0.1253303 0.15231025 -0.0747997 -0.11139155 -0.24819903 0.5825186 0.5949495 -0.15590037 -0.22292672 0.07771408 -0.1515719 -0.2925265 0.022379905 -0.14647956 0.3526491 0.73893404 -0.30228144 -0.25870234 0.41174856 0.24980408 -0.07192367 -0.2369624 0.010460755 0.28250736 -0.8465253 0.49561134 -0.2639102 0.035158996 0.28968588 -0.34016427 -0.08699916 -0.3295965 0.18811087 0.35894686 0.55459553 0.3342955 -0.6121504 -0.050118573 0.040861078 -0.061420146 0.39203957 -0.066689655 -0.59606314 -0.2082356 -0.14824204 0.27191094 0.0862262
1429 0.43421555 -0.54867876 -0.4846911 -0.07470349 0.29457274 -0.071887866 0.06735203 0.17304778 0.2621634 -0.30934548 0.09259651 0.13583772 0.29910797 0.12259022 -0.122764505 -0.38384506 -0.28537765 -0.0133105 0.04552405 -0.091496274 -0.20911203 0.08575887 0.2108529 -0.070680745 -0.0408402 -0.22952063 -0.3175225 0.30144995 -0.15590103 0.023615245 0.36542764 0.025222965 -0.41580668 -0.22145599 0.41263828 -0.16029245 -0.16225457 0.17207688 0.08066273 0.57900214 0.45859063 0.34765226 -0.016434757 0.38070697 0.313536 -0.12959462 0.21654105 0.6370113 -0.7169537 0.29362592 -0.08566411 0.2329159 0.638684 -0.36491817 -0.11419888 0.011625634 -0.0594214 -0.05385841 0.60340315 0.3524579 -0.13178217 -0.5130862 0.25867885 0.23610897 -0.292623 -0.22919193 -0.11563633 0.29922858 0.40869614 -0.25987124 0.031348962 0.63999784 0.10163481 -0.24290262 0.24457599 -0.1448993 0.34618196 -0.4710449 0.36036873 -0.017317591 0.03087318 0.16056712 -0.22932942 -0.17847623 -0.004703135 0.5089001 0.43432054 0.42289853 0.23179547 -0.5546005 -0.27174857 -0.2809618 -0.19209152 0.15028298 0.36248267 -0.7230639 -0.5358991 -0.15409757 0.094396815 0.08714663
3315 0.85761654 0.54098016 0.3197248 -0.10896565 -0.6147283 0.48557705 -0.007950818 -0.16750638 0.021339018 0.45504576 -0.14431168 0.12660378 -0.1332743 -0.3486641 -0.040363096 0.03562859 0.12134903 -0.3572853 0.7346062 0.497977 -0.6196638 -0.6551681 0.61561006 -0.013599843 -0.7063811 -0.43122652 -0.4065213 0.23327386 0.25115004 -0.22358827 -0.49242932 -0.41452292 -0.46541902 0.32393673 0.26641878 0.3403586 -0.039667074 0.10716323 -0.2616803 0.4469889 -0.048784077 -0.507979 -0.23881312 0.73823303 0.48303276 -0.07289064 -0.18066993 0.02994008 -0.05281707 0.064594574 0.3147295 -0.059064746 0.10748073 -0.046953328 0.32300264 -0.20778958 -0.19739075 0.46598825 0.34602162 -0.27510393 -0.3658565 0.10406872 -0.059901956 0.015545453 0.4407004 0.019244881 -0.56732285 -0.14713767 -0.15954742 -0.29216823 0.35337865 0.6597552 0.083730236 0.100507826 0.24129757 -0.29149887 0.049302172 -0.23961508 0.16806321 -0.40059024 -0.020195384 -0.36696422 -0.090922505 -0.14554794 -0.17291698 -0.26295403 0.078919545 -0.04196015 -0.030226795 -0.21691316 -0.07996362 -0.12507364 -0.07950511 0.071295634 0.034679055 -0.730036 0.23402305 0.0060197036 -0.054941386 -0.12256533
1938 0.26362103 -0.23098697 -0.12721233 -0.053471204 0.15438876 -0.65212166 0.19888934 0.103326544 0.003863906 0.06351801 -0.08672228 -0.11553517 0.4520356 -0.22708097 -0.38663164 -0.09286781 0.17143391 -0.070286795 0.75385606 -0.10042468 -0.02881055 -0.16118686 -0.03737949 -0.33716887 -0.011045734 -0.045706116 -0.33892107 0.1270978 -0.10278524 -0.43719056 -0.3735895 0.1267663 -0.10637356 -0.38696963 0.1397497 -0.32590443 -0.057733834 -0.39027432 0.1532452 1.0434691 0.2874754 0.23868139 -0.16760989 0.25927207 0.27834865 -0.5368723 -0.3771875 0.38148174 -0.753483 -0.11058123 -0.23923162 0.68688804 0.5606152 -0.84040356 -0.4102636 -0.7257694 -0.46311662 0.49951565 0.11513788 0.16332796 0.16618143 -0.39739466 0.0954298 0.5216702 0.11118424 0.20632482 -0.16938119 0.28854015 0.508525 -0.83575773 0.46704108 0.40506512 0.38244182 -0.2668268 0.07875655 -0.07976552 0.7845407 0.32521635 0.09330207 0.2502553 -0.3173743 -0.0922222 -0.23834096 -0.058850583 0.36563978 0.01885948 0.24137716 0.26714107 0.07320649 0.2182474 -0.2792321 -0.36464268 -0.20019275 0.112328745 -0.123297125 -0.6477953 -0.048486486 -0.04511829 -0.16710936 0.28645447
2512 -0.047710966 -0.039394595 -0.18496364 -0.30024394 0.12774462 -0.024415504 -0.0067879027 0.43236583 0.13027447 -0.2532755 -0.093164004 0.025993418 -0.1368355 0.49525592 -0.1412683 -0.5769494 -0.37490454 -0.050374355 0.28295192 0.11985574 0.20870325 -0.08239268 0.61853164 -0.05823352 -0.21412694 0.23726112 -0.66872936 -0.010071959 0.39664388 -0.030840026 -0.00892025 0.14715149 0.030067842 0.44043124 -0.09606683 0.12773369 0.020788621 0.47989607 0.050340123 0.16146524 0.07848149 -0.48441768 0.24480288 0.16137317 -0.15144637 0.20280792 -0.066673264 0.11833624 -0.14464134 0.28919306 0.1614561 0.7407192 0.4543642 -0.124355055 0.0171398 -0.53578764 -0.03168024 0.06518183 0.5014731 0.09626047 -0.06827411 0.028495055 0.16939859 -0.30164462 0.4470673 -0.20239252 -0.2964334 -0.24084713 0.04922337 -0.36388534 0.1736779 0.7814356 0.080021605 -0.41930386 0.30908206 0.31409267 -0.2102962 -0.5901538 0.52717954 -0.3963384 -0.3452458 -0.44663885 -0.11240636 0.352815 0.3172807 0.2204488 -0.1543353 0.25465262 -0.20913208 -0.21688595 -0.08944862 0.01004963 -0.14343254 0.15014474 -0.23380607 0.3117806 0.31951818 -0.050987218 0.10610977 0.28607073
3583 0.2524745 0.17965056 -0.20633553 -0.07893005 -0.3453374 0.30340824 -0.11578892 -0.29044664 -0.01835092 -0.04120533 -0.16434701 -0.30335924 -0.2831705 -0.7653665 0.26964995 -0.053085145 0.078089625 -0.33351165 0.089440934 0.28301814 -0.22264566 -0.14343573 0.6448901 0.08388558 -0.36984363 -0.22513355 -0.1589905 -0.11487502 0.17927915 -0.369548 -0.44375524 0.028855156 -0.14911063 -0.19620547 0.03549845 0.32794634 0.045188896 0.41243437 -0.033708043 0.50772494 -0.4098321 -0.24606967 -0.15181419 0.20606191 0.04380112 0.008103662 -0.35241807 -0.19800532 -0.2766737 0.07484051 0.56981486 0.035856415 0.22512478 -0.33601093 0.009071916 -0.6058044 0.0284002 0.041462485 -0.08295842 -0.029129 -0.32631564 -0.067434885 0.039769046 0.19519112 0.08147821 0.32939187 -0.397433 -0.012546284 -0.122453704 -0.31795326 0.6603066 0.27861813 0.20494023 -0.064137414 0.6048238 -0.49599344 0.15748115 0.09282127 0.21398582 -0.4502509 -0.45112205 -0.53359383 -0.17155834 -0.110398546 0.10435367 -0.012208877 0.077774055 0.1430976 -0.020276723 -0.26221758 -0.21217035 -0.36593643 -0.47048897 -0.09610515 0.024063515 -0.25300357 0.33415157 -0.048783444 0.09826864 -0.40141553
1806 0.1732991 0.0722338 0.0120765865 -0.15357956 -0.4000089 -0.35283107 -0.24813938 -0.006804705 0.30500734 -0.18623585 -0.08017953 -0.036216937 0.13431722 -0.55834883 -0.12065788 -0.2415543 0.11660294 -0.053069055 0.5735809 -0.29540175 -0.1502431 0.06694106 -0.06641637 -0.43035117 -0.005336783 0.105998404 -0.30778447 0.4252545 -0.17781301 -0.15392186 0.0450761 0.12423844 -0.41649744 -0.5478421 0.18129823 0.06300751 -0.008811487 -0.12446181 0.03726162 0.7018521 -0.009841669 0.4449887 0.04735105 0.296364 0.17207552 -0.13194156 0.027849402 0.00983103 -0.3565826 0.24438687 -0.053113304 0.024420831 0.35315546 -0.31307963 0.057273336 -0.648057 -0.5908305 -0.11743378 0.41105604 0.41930917 -0.08684829 -0.60161567 -0.026074333 0.43691152 -0.17957309 0.23244035 -0.100059524 0.33357754 0.13641548 -0.38813508 0.44567546 -0.006488837 0.08750943 0.007815458 0.018950848 -0.28179008 0.32232445 0.011144844 0.25242746 0.1473481 -0.24970701 -0.04425228 -0.3745134 -0.046968553 0.45853493 0.17104764 -0.15333825 0.76610005 -0.30116582 -0.20007826 -0.5068796 -0.29450536 -0.47741857 0.29132843 0.42753902 -0.38833216 -0.2668785 -0.18326788 0.23230891 -0.06850531
2853 -0.0012636908 0.4936107 0.085530065 -0.043197047 -0.122945055 -0.04408334 0.33631128 0.13726978 0.13332257 0.36888498 -0.2466647 0.018628394 -0.07865668 0.15822002 0.08625254 0.16452545 -0.20446667 0.1420115 0.31466 0.27442002 0.15904272 -0.39749724 0.66324687 -0.21943434 -0.28326145 -0.0869127 -0.43791917 -0.25696713 0.3952552 -0.1211248 -0.42881483 -0.58262885 0.2990506 -0.27551693 -0.10844657 -0.06914287 0.05415717 0.39733082 0.19582468 0.05018226 -0.33003765 -0.7793519 -0.044731982 0.31251693 0.09395162 -0.4769748 0.050020583 0.39651427 -0.17060386 0.11602627 -0.11988798 0.6385656 0.3058883 -0.19985038 0.2937391 -0.09673129 -0.13350399 0.7131553 0.5407378 0.09672186 0.10916761 0.05165043 0.07212726 0.23624471 0.29113454 0.0848389 -0.40204424 -0.2913907 0.5928447 -0.4457064 0.17207511 0.44264278 -0.19070679 0.13616443 0.22164778 0.017760474 0.13232243 -0.06517217 -0.20736003 -0.74789524 0.037439298 -0.09201292 0.35820746 0.17741919 0.36989594 0.08874712 0.12471066 0.2700959 -0.14723727 -0.2664449 -0.30761212 -0.35618874 0.31392664 -0.09903491 -0.1894188 -0.32231098 0.13525823 -0.08022448 -0.094669975 -0.1261955
1388 0.49142957 -0.32635134 -0.37747684 -0.0785247 0.19722581 0.08149184 -0.06885715 0.38770372 0.2168736 -0.44802818 0.2127544 0.16389392 0.041892234 0.3346853 0.07412961 -0.4334017 -0.60405767 -0.14987075 -0.08661083 0.08168792 -0.17807004 0.14803848 0.5135122 -0.13589694 -0.48680344 -0.22997414 -0.26812914 0.16865827 0.08498913 0.3025969 0.4272825 -0.06557384 -0.16681167 -0.25955585 0.59134597 -0.0680606 -0.1296454 0.026612466 -0.22018346 0.4836054 0.6089388 0.18609153 0.26352805 0.6243447 0.29557335 -0.20057407 0.5018252 0.47666243 -0.8524879 0.3368676 0.0853312 0.23678084 0.4888305 -0.38871482 -0.25250575 -0.0776283 0.45923138 -0.028899418 0.56811047 0.20303439 -0.23461188 -0.62534577 0.37192947 -0.0101580545 -0.19237666 -0.1979873 -0.10132491 0.31737912 0.24323153 -0.22444534 -0.073096246 0.93995744 -0.16633545 -0.27444047 0.31954423 -0.31200355 0.159881 -0.5695389 0.07326531 0.07166826 0.086398944 0.04579971 -0.40140498 -0.31944367 -0.12417671 0.6157243 0.57960165 0.32305458 0.008299708 -0.65297943 -0.29974315 -0.3274317 -0.45901912 0.013260053 0.408268 -0.8233332 -0.50658333 -0.03017081 -0.11565585 -0.024657805
1923 0.2089125 -0.10785488 -0.14945252 -0.05898847 0.06353225 -0.5418234 0.17262763 0.037894737 0.098349646 -0.05914035 -0.056999426 -0.15195583 0.39043698 -0.34899783 -0.24688064 -0.045662306 0.066238604 0.008034626 0.5326789 -0.008273413 -0.009571198 -0.13340862 -0.0011012064 -0.2874182 -0.13463853 -0.00129269 -0.15433308 0.09905732 -0.03341385 -0.3142241 -0.06825567 0.19035612 -0.057011057 -0.5050807 -0.030829532 -0.4359255 -0.14942211 -0.4120994 0.16666763 0.8753894 0.3965988 0.35235462 -0.1230997 0.23591545 0.19528194 -0.2899888 -0.2476893 0.17816176 -0.6009189 -0.020349665 -0.25674903 0.4451296 0.6614309 -0.71635437 -0.4645692 -0.677186 -0.49031296 0.36148348 0.012198052 0.08139535 0.063678995 -0.42843163 0.081205465 0.43169585 0.08897556 0.22233374 -0.24310791 0.35070893 0.414002 -0.7934921 0.47440556 0.21050286 0.34348688 -0.22569585 0.01574216 -0.1598194 0.724502 0.37734577 0.19825017 0.24784532 -0.33577305 -0.10389236 -0.31053063 -0.12022001 0.4099957 0.059680764 0.11748617 0.24227238 0.036569495 0.20821212 -0.21149285 -0.3704482 -0.3436423 0.055158935 0.036531106 -0.6617295 0.05949832 -0.00087573915 -0.14485422 0.1228074
3190 0.49399447 0.70753974 -0.09040844 -0.17031312 -0.47626036 0.41504595 0.43578753 -0.10746527 0.06350017 0.20874855 0.2149857 0.18078257 -0.28578034 -0.13375047 -0.26453587 -0.016434284 0.017909132 -0.083149806 0.20885636 0.18505917 -0.14323072 -0.5660168 0.32818073 -0.2682464 -0.11357047 -0.5744844 -0.64037573 0.0058026495 0.41476613 -0.5756731 -0.5723782 0.057036787 -0.28519672 0.1672866 -0.011951996 0.15181236 0.17836607 0.5730812 -0.11607931 0.33487076 -0.12108886 -0.61036354 -0.015181364 0.09444615 0.18166648 -0.20899394 -0.3922216 0.16985367 -0.11707808 0.028509416 0.24156114 0.043589875 -0.024194002 0.1377271 0.21631868 -0.37024444 0.107176214 0.58930427 0.08361662 -0.01851969 -0.64005 0.16054796 0.16271396 -0.056135736 0.38421974 0.05477899 0.010434994 -0.21622573 0.29064265 -0.4449215 0.101029396 0.39480355 0.19946928 -0.08615613 -0.1225311 -0.12439239 0.43069106 -0.34740445 0.042629085 -0.29676625 -0.1921965 -0.15190257 -0.036075536 0.21103337 -0.23672265 -0.12370381 0.13689254 0.56140757 -0.2988375 -0.25173447 0.16607009 -0.3519196 -0.09219274 -0.0977809 0.07595855 -0.7208139 0.5180925 -0.26469088 -0.41142288 -0.33536032
2049 0.17294118 -0.390286 -0.13317992 -0.015676588 0.09890488 -0.42157295 0.13459721 0.31147543 -0.12271424 0.08555568 -0.09249755 0.031681567 0.1851768 -0.12686561 -0.3124495 -0.13561624 0.10306936 -0.07542784 0.6557919 -0.12101665 -0.0720361 -0.04325636 0.01756715 -0.15427803 0.10223105 0.042530943 -0.5512029 -0.030743215 0.0052371086 -0.4408017 -0.35537127 -0.054599196 -0.017211087 -0.20834869 0.1960346 -0.21437778 0.06062368 -0.22121896 0.13417342 0.7834973 -0.23724599 0.016969442 -0.036175415 0.20351525 0.39248124 -0.6440396 -0.5177623 0.25679776 -0.68663037 -0.20847511 0.09880414 0.46049976 0.3662274 -0.709442 -0.35888007 -0.42115828 -0.034570646 0.5539025 0.05065169 0.33894718 0.3267093 -0.35673684 0.058153346 0.4053515 0.20795853 0.37308773 -0.22848499 -0.07511955 0.5361081 -0.6358945 0.5340804 0.33947498 -0.23267289 -0.20317204 0.4038936 -0.04926888 0.7094123 0.3894609 -0.0828859 0.029005198 -0.15416941 -0.21236493 -0.21840297 0.040510174 0.3547868 -0.20200254 0.20126837 0.17940669 0.03559226 -0.014349146 -0.4289112 -0.44745582 -0.14408311 -0.025200259 -0.15083498 -0.2111619 -0.13026927 -0.0759636 0.021513661 0.09461942
1201 0.52800184 -0.31312227 -0.19305852 -0.27078417 0.45789182 -0.064469434 -0.09373539 0.60661805 -0.18202192 -0.38789055 0.33735722 0.0651107 -0.04753782 0.06533553 -0.26249623 -0.28231758 -0.28886887 0.20502755 -0.2902772 0.20363308 -0.11176946 0.040177938 0.14950661 -0.2502591 -0.5515552 -0.27986518 -0.1544998 0.32233846 0.041768607 -0.044856947 0.38393518 0.1989285 0.081696205 -0.14247476 0.6476638 -0.016047632 -0.025008146 0.112738475 -0.5312565 0.41478795 0.389089 0.031544197 0.4165106 0.6763552 0.049857188 -0.022440692 0.16727063 0.06891013 -0.16902779 0.28457546 0.11260099 0.33158547 0.75137067 -0.16040686 0.0020800112 -0.14176036 -0.03400503 0.34344536 0.47388214 0.14934625 -0.20197862 -0.49286166 0.20654918 -0.22153094 -0.01581 0.0005212005 0.06385169 0.1182895 0.25331888 -0.115678936 0.008883764 0.5887406 0.10568636 -0.317511 -0.0070031164 -0.19068474 0.2735204 -0.7469159 0.28181243 -0.20143743 0.23687991 0.23478921 -0.65130836 -0.52416533 -0.248872 0.27230984 0.3356687 0.38033262 0.3352837 -0.64249486 -0.1576278 -0.010967583 -0.2791812 0.39364025 0.07264917 -0.9141415 -0.1559943 -0.009638415 -0.043938123 -0.1378648
1843 -0.14352421 0.31383792 0.115995444 -0.24760255 -0.469345 -0.6440654 -0.1286396 0.22742437 0.073016405 0.008798458 -0.13210054 -0.11057041 0.3456129 -0.2611851 -0.31518734 -0.3138337 0.099509254 0.24288611 0.49683765 0.16970657 -0.0015682386 -0.2131876 -0.31061673 -0.5526312 -0.27375945 -0.3830844 -0.24722674 0.17718555 -0.3709085 0.2162755 0.1504422 0.16692077 -0.048308074 -0.82804316 -0.1911313 -0.3216884 -0.037567716 -0.2754392 -0.07931173 0.9631331 0.10172302 -0.01746807 0.1664865 0.5677739 0.011156627 -0.21727826 -0.11389667 -0.27167588 0.019366827 0.21172787 -0.17885828 0.29831442 0.43924502 -0.22603461 -0.51071256 -0.85529345 -0.69303703 0.11206615 0.25822458 0.52394176 -0.052780822 -0.90364057 0.09839116 0.25848088 -0.015768226 0.64133304 -0.23503447 0.54049647 0.79732746 -1.0423881 0.23993106 0.12665363 -0.026291553 0.15961286 0.0010946608 -0.14438191 0.51580185 0.37208885 0.29161558 0.17322066 -0.4025304 -0.039315693 -0.2629317 0.027547233 0.26566696 0.07133734 -0.2673991 0.70304906 -0.2395224 -0.3234311 -0.35868332 -0.46778503 -0.24156372 0.41929713 0.10524375 -0.8501491 -0.08319535 0.020566242 -0.09040025 0.003907516
2559 0.08130174 -0.009578122 -0.05225983 -0.319732 -0.0038571134 -0.28424767 0.0070258356 0.30596274 0.24107008 -0.025591101 -0.17820066 0.055060573 -0.08649503 0.53936553 -0.2095001 -0.5393499 -0.22455499 -0.0137184085 0.38711295 0.062144496 0.2756828 0.00819483 0.36360496 -0.3975319 -0.13591456 0.17783861 -0.5942322 0.15117635 0.11291543 -0.25412577 -0.09898794 0.02567582 0.38125184 0.3128373 -0.2080104 0.21509238 0.039186273 0.2256823 0.1491462 0.14064805 -0.21011415 -0.58426964 0.038587574 0.17473465 -0.17038581 -0.17643316 -0.04979008 0.09973153 -0.29936785 0.010316914 0.0719598 0.6057413 0.34017447 -0.16685708 0.15429316 -0.3159832 -0.1536868 0.13763437 0.5141394 0.17321242 -0.02046174 -0.100887045 0.0383735 -0.15727478 0.4292022 -0.07559331 -0.084457874 -0.49734566 0.21241741 -0.6230385 0.23297915 0.4304403 0.03307118 -0.1906835 0.36295184 0.39712098 -0.032621272 -0.47060704 0.12695314 -0.5181132 -0.07434936 -0.03452367 -0.04142087 0.3637789 0.38067445 0.2581136 0.036779806 0.23229942 -0.25708175 -0.28388876 -0.17174979 0.07296612 -0.13673922 0.078572504 -0.50343484 0.288749 -0.025642283 -0.31730708 0.10276534 0.14051144
1864 -0.05996167 0.19570635 0.035627484 -0.16583681 -0.30573142 -0.5833675 -0.07353282 0.2838889 -0.098397896 0.08705099 -0.13231662 -0.044326197 0.3065018 -0.2346959 -0.39749706 -0.23168822 0.14481895 0.25970963 0.43027633 0.33100826 0.013435547 -0.31737807 -0.1959674 -0.53074163 -0.30356318 -0.36601356 -0.17074408 -0.12106327 -0.31667176 0.15049824 0.14640285 0.0774559 0.180291 -0.785867 -0.15368347 -0.39762422 -0.08717311 -0.37232897 -0.09870416 1.0832076 0.072410956 -0.15526418 0.087913066 0.5697828 -0.027684014 -0.24692959 -0.23799084 -0.3232876 0.00018906599 0.034502555 -0.06145933 0.4047768 0.35946012 -0.34884813 -0.7587193 -0.8045768 -0.4390264 0.28721657 -0.02984337 0.41386414 0.07045246 -0.8250346 0.14033324 0.169981 0.08746441 0.7230001 -0.38512024 0.5317703 0.8911402 -1.1491958 0.25679952 0.13450217 -0.0049568466 0.049486145 0.22059108 -0.2614466 0.75719833 0.5408493 0.29036653 0.1266136 -0.40285325 -0.14134751 -0.26272658 0.06825233 0.20055561 -0.030926295 -0.18072923 0.45230505 -0.09384932 -0.3371872 -0.20592101 -0.5136088 -0.2508554 0.22686143 -0.08437911 -0.8783445 0.025490679 0.12311108 -0.21803711 -0.011978597
2260 0.5192993 -0.2726534 -0.26151866 -0.28497863 -0.36366758 -0.6968251 -0.19451375 0.3241099 -0.03352449 0.21526816 -0.30788168 0.09150638 -0.24038097 0.19326878 -0.6803668 0.18021305 0.081601344 -0.030148227 0.63114566 -0.14092578 0.024881022 -0.08187492 0.1448012 0.07771386 -0.07598986 -0.038884737 -0.5809298 0.08488196 -0.074666224 -0.5389212 -0.517725 -0.1871545 -0.009714074 0.2675153 0.26007187 0.11655146 0.061471518 0.07449907 0.13398817 0.10627024 -0.3762897 -0.46970186 0.21961813 0.3636274 0.3172425 -0.51823074 -0.2346476 0.31269002 -0.3531099 -0.30798817 0.04018173 0.6006175 -0.15343234 -0.4574531 -0.24737772 -0.506924 -0.044780754 0.40874004 0.22408783 0.20764971 0.0065263333 -0.019405724 0.020302553 0.14747742 0.22977495 -0.03766597 0.07461224 0.06901487 0.5588637 -0.6905191 0.27995312 0.54965705 -0.08710142 -0.3987184 0.41183436 0.14834382 0.2268113 0.013811585 0.09176325 -0.5926097 -0.018153045 -0.06533977 -0.15562837 -0.19748916 0.41118106 0.18881239 0.19649585 0.17240952 -0.39918354 -0.2610602 -0.5184812 -0.46323076 -0.14052515 -0.37537193 -0.3982617 0.23589666 -0.09563667 -0.069479875 0.24284665 -0.1366281
3408 0.97603947 -0.056086633 0.40502018 -0.24296238 -0.5901075 0.42266867 0.16624135 -0.19344097 -0.09671489 0.22635049 -0.40428638 0.3038927 -0.27147624 -0.30757368 -0.014627805 0.18523842 -0.18366018 -0.16798845 -0.21998258 0.185095 0.09486372 -0.3487131 0.7286627 -0.622134 -0.5543652 -0.76387453 -0.4137974 0.37346995 -0.07741711 0.012053718 -0.7609935 0.17609562 0.09777176 0.3269584 -0.2512858 0.13123542 -0.4677777 0.2867048 -0.19704205 0.3929859 -0.104014024 -0.59616065 -0.102254376 0.6604097 -0.06127643 -0.21614419 -0.028417353 -0.09237374 0.06345608 -0.22970755 0.24070308 0.247872 0.6062491 -0.40675214 0.42851734 -0.29170337 -0.43227217 0.15163563 0.25038782 -0.1573917 -0.44289488 -0.030036582 -0.040861253 -0.20165071 0.07936569 0.30901614 -0.7543462 0.024185633 0.19096598 -0.38397613 -0.0043576565 0.19757253 0.23257542 -0.07490782 0.07831711 -0.3607651 0.10419006 -0.5319694 0.008801434 -0.17528482 -0.0471566 -0.28458408 0.29045287 -0.45459154 -0.4930943 -0.32733098 0.1706193 0.22630845 0.04005398 -0.43459016 -0.118907385 -0.2453325 -0.5993756 -0.006447772 -0.029745508 -0.12510377 0.22986825 -0.39211738 -0.41885948 -0.12955932
3865 0.40930462 0.09232873 0.05562482 -0.23749231 -0.21578492 0.008064081 0.04673039 0.010479251 0.11079804 -0.01402938 0.07925775 0.06346574 -0.6947574 -0.59317863 -0.05794266 -0.11467607 0.0005191223 -0.1770797 0.024269225 0.33448428 -0.11457763 0.04181394 0.70449257 0.20220366 -0.2943582 0.10324008 -0.37105122 0.2489815 0.15370812 -0.4177189 0.15578312 -0.24813057 -0.15607707 -0.27987382 -0.25153652 0.012781509 -0.13364646 0.6078855 0.2644458 0.20218338 -0.30996907 0.021770887 0.15276997 0.31295747 -0.18124288 0.4622004 0.058271356 -0.3389558 -0.24480784 0.35995466 0.24602513 0.18365134 0.6210419 -0.17301054 -0.13157356 -0.5830101 -0.04030335 0.025113948 -0.19583341 -0.2831973 -0.14594032 -0.20611706 -0.20533933 0.18535747 0.06227693 0.24571848 -0.5896123 0.101352334 0.0034218002 -0.33329576 0.67418474 0.01567801 0.042678144 -0.23869069 0.25628275 -0.4419283 0.20821305 0.09599228 0.4280672 -0.39083302 -0.48453093 -0.5850441 -0.24100053 -0.2420846 0.5804877 0.10330197 0.06447987 0.40522686 -0.07122609 -0.32548705 -0.020561883 -0.3968136 -0.6064463 -0.13723646 0.033836376 -0.056970634 0.22934298 -0.0371796 0.2312248 -0.4114059
2259 0.45603848 -0.37237582 -0.28913108 -0.22561964 -0.29163367 -0.710256 -0.22236578 0.23634851 -0.05141445 0.2478912 -0.27534044 0.09454036 -0.0948105 0.11686924 -0.5860201 0.10768986 0.041245926 -0.16747239 0.6083789 -0.17236657 0.005230158 -0.021922886 0.08627411 0.12901406 0.034712113 -0.019813415 -0.46968016 0.1374604 -0.19753534 -0.51592344 -0.58394194 -0.19371837 -0.08607764 0.24575682 0.303642 0.010416558 -0.07306232 0.054523543 0.39973155 0.15953863 -0.33474553 -0.3449355 0.16853961 0.3601205 0.3744142 -0.47674876 -0.2590861 0.36439204 -0.4464054 -0.29916883 -0.047714427 0.6291896 -0.24167605 -0.4868121 -0.19867119 -0.45287335 -0.024048362 0.40766564 0.33467126 0.20353584 0.033872113 -0.10228305 0.02227647 0.19907492 0.22110912 0.013336189 0.048624877 0.082450666 0.5579248 -0.65190107 0.31706128 0.56573147 -0.04266943 -0.41952437 0.3917527 0.1303133 0.22973338 -0.04594467 0.13986048 -0.52544487 -0.11628158 -0.027552843 -0.12917905 -0.23217638 0.3169514 0.1435785 0.20562144 0.21636339 -0.34395424 -0.2814965 -0.47603604 -0.4481423 -0.21743609 -0.323785 -0.32532758 0.15899298 -0.15960042 -0.0939953 0.30313838 -0.11610099
3701 0.41028553 -0.76001287 -0.022153845 0.11329899 0.101483986 0.39615825 0.010347431 0.219267 0.28179538 0.14407636 0.14396358 -0.0022662468 -0.23635538 -0.55297595 -0.044681992 -0.12130726 0.01064479 -0.7128529 0.43352568 0.5223357 -0.5133308 -0.119918786 0.968346 0.12360088 -0.10830345 0.0251866 -0.5176157 0.08446009 0.011611917 -0.25531456 -0.47990686 -0.23481697 -0.031026848 -0.35488728 -0.1668211 0.47042733 -0.10866177 0.13331346 0.023498055 0.29747853 -0.33082214 -0.5056438 0.13429807 0.34410968 -0.03646888 0.23110789 0.16258757 -0.122452654 0.16840984 0.34169212 0.20782194 0.24870624 0.24265057 -0.041932225 0.117965534 -0.3541131 0.14835681 -0.21589331 0.21165219 -0.40118885 0.03982475 -0.10988164 -0.20715743 0.11988302 0.33363047 0.42066306 -0.668491 -0.040069737 0.066878214 -0.5200714 0.82334614 0.31886294 0.11077859 0.0070382785 0.31889987 -0.3967139 -0.04938703 -0.008457992 0.21890467 -0.74429536 -0.53248435 -0.17461751 0.11095502 -0.67697215 0.3216899 0.09185294 0.17814712 0.112730004 -0.4885916 -0.5401403 -0.048318453 8.479856e-07 -0.1277937 -0.46851575 -0.19662176 -0.6928389 0.28277943 -0.61662465 0.4276352 -0.5402496
3469 0.49912432 0.014373104 0.029090725 0.04491756 -0.23165835 0.6073055 0.022304215 -0.31332514 -0.13913542 0.020306446 -0.30211467 0.1503983 -0.1514277 -0.32797274 -0.20652328 -0.20937106 0.15167612 -0.40528014 -0.15369967 0.16174604 -0.034142062 -0.19144776 0.38297594 -0.5098029 -0.6435928 -0.50725543 -0.5817376 0.3694567 -0.29363725 -0.51408505 -0.8035031 0.05724306 -0.139048 0.08420411 -0.14684379 0.041047294 -0.4064198 0.28802168 -0.07136637 0.10635702 -0.27455997 -0.31497988 0.024424266 0.41617274 -0.23512478 -0.039166372 0.19150853 -0.15060352 0.1108385 -0.17395177 0.09640177 0.023542803 0.37560287 -0.28968197 0.37395605 -0.2909526 0.018364727 0.19216093 0.3547374 -0.18921237 -0.4900882 -0.110352136 0.11301997 -0.1246892 0.0024608653 0.16090879 -0.5498666 -0.15049572 0.22745167 -0.42468035 -0.29409686 0.08774574 0.10773305 0.02910397 0.004290473 -0.65513873 0.5964845 -0.35189167 0.2578544 -0.13107938 -0.10900441 -0.2690522 0.3517471 -0.18561281 -0.22811957 -0.49870294 0.46646667 0.37518767 -0.002643849 -0.5600535 0.19172019 -0.3226237 -0.46826953 -0.15202142 -0.0488401 -0.40900993 0.55106395 -0.1630385 -0.18662758 -0.39436728
1105 0.2733926 -0.23790129 -0.13740824 -0.24089576 0.02123514 -0.21778473 0.09445752 0.54978186 -0.24218883 -0.08220321 0.1524011 0.16467416 0.054595336 -0.011328943 -0.22570848 0.025064329 0.26142222 0.15610108 -0.18649277 0.30024105 -0.09581057 -0.042650137 0.08752219 -0.42797586 -0.2725817 -0.2267887 -0.15959083 0.33016512 0.04613686 0.13754798 0.30523798 0.4955983 -0.014433075 -0.29694635 0.4133307 -0.011374936 -0.14490043 0.21575023 -0.30265087 0.69559866 0.107667945 0.052631006 0.22078094 0.51918006 0.07401461 -0.050255228 0.1780225 0.12858737 -0.39166343 0.25048903 -0.15517753 0.7704299 0.6931402 0.0631434 0.10814826 -0.1502418 -0.006698388 -0.05421402 0.3468912 0.5807252 -0.07283494 -0.09258793 0.30825278 -0.15632708 -0.113467425 0.21402772 -0.23479441 0.23752077 0.721372 -0.24842104 -0.3695814 0.24960746 0.10342438 -0.121384084 -0.048632458 -0.173246 0.4694057 -0.61695284 0.61923236 -0.116990395 0.16169782 0.2240032 -0.24706389 -0.18224771 -0.3000002 0.30224124 0.39755747 0.4371148 0.27933013 -0.5212838 -0.10048924 -0.03349926 -0.08614201 0.47154105 -0.029763147 -0.63704556 -0.1605547 -0.10470885 0.08837939 -0.046451308
2463 0.22588082 -0.22038451 -0.36820605 -0.31194818 -0.023282865 -0.06798804 -0.16666974 0.28310335 0.098357424 -0.011745377 -0.27873638 -0.093700826 -0.3891576 0.4339803 -0.24367118 -0.6484692 -0.06895826 0.040279925 0.2024612 0.0899687 0.21200332 -0.3162539 0.48947367 -0.10051242 -0.020452794 -0.07790519 -0.6510437 0.09420802 0.17221557 -0.3774422 -0.111360125 0.25778687 0.34038737 0.551738 0.19207563 0.07717731 -0.0009999255 0.21744616 0.0507095 0.0790988 0.08063749 -0.41017312 0.45017064 0.11267295 -0.08552769 0.4010349 -0.3469719 -0.02863793 -0.19078688 0.021021828 0.3453712 0.6620365 0.3201272 -0.2512578 0.09030325 -0.69844514 -0.052373543 -0.03723648 0.30718938 0.3109767 -0.17148001 -0.022549445 0.088513315 -0.14563034 0.5467793 -0.40925065 -0.27547833 0.011614053 0.35489243 -0.5138557 0.12369923 0.79021186 -0.06738859 -0.48649988 0.3269221 0.42050242 0.049739584 -0.4313715 0.5234526 -0.5861202 -0.34104562 -0.4792251 -0.11060579 0.2538482 0.18609375 0.07128801 -0.08755717 0.30661163 -0.32363504 -0.004670119 -0.31078658 -0.3961311 -0.12949926 0.15199606 -0.49699822 0.38725644 0.2972103 -0.060178142 0.2313473 0.0547604
3984 0.43217066 0.41792142 0.19337364 -0.07087419 -0.35622984 -0.22593087 0.2969967 0.3760549 0.1695817 -0.1517428 0.087955244 0.298414 -0.8349719 -0.12169154 -0.38620442 -0.3001401 -0.04779303 -0.04674023 0.057847593 0.20098077 0.30787492 0.0037624782 0.6346779 0.22060148 -0.6370944 0.35946622 -0.2293098 0.633071 0.16411136 -0.5107975 0.4343832 -0.25981063 -0.018704444 -0.0946284 -0.6837706 -0.2500348 -0.07484934 0.47520873 0.36134276 0.10923698 -0.0625467 -0.3085973 0.4503488 0.24712601 -0.37889424 0.2516399 0.35923183 -0.36745417 -0.22287807 0.27778494 -0.09197782 0.31244525 0.71622306 -0.123003356 -0.1963044 -0.40431976 -0.15999483 0.07658021 -0.1174825 -0.21857387 -0.2007902 -0.14391722 -0.14709076 0.15340465 -0.17693093 0.0567428 -0.92024016 -0.01614999 0.30247885 -0.40954646 0.9005386 0.22217624 -0.05549494 -0.16549397 -0.057363052 -0.2967566 0.51140344 0.122751504 0.3912762 -0.31832343 -0.32774168 -0.57687485 -0.1394033 -0.26770833 0.70899636 0.044329606 0.018565943 0.58309096 -0.31239307 -0.42294738 -0.34405264 -0.5291904 -0.33321 -0.0793412 0.5489812 -0.22488071 0.350591 0.06100955 0.17542735 -0.11738998
1108 0.32590473 -0.46443972 -0.3179446 -0.1687974 0.20549554 -0.12390898 0.14154895 0.43254405 -0.14271843 -0.28196898 0.17878176 0.17166851 0.14539035 0.08352395 -0.30343303 -0.24740376 -0.11357152 0.25279498 -0.19852275 0.15061279 0.015725305 -0.13295396 0.2776403 -0.17734918 -0.15162794 -0.38662308 -0.31355664 0.40944463 -0.08348959 -0.0022091842 0.46818754 0.21681824 -0.5108199 -0.11867487 0.5561982 0.10337713 -0.17537233 0.27247187 -0.15308903 0.54783577 0.13141079 0.10814106 0.0528136 0.4139412 0.12682176 -0.0886793 0.10219476 0.42277604 -0.3814724 0.13803764 -0.095188186 0.5875508 0.7233329 -0.049115658 0.075195074 -0.009424896 -0.10454119 -0.085816205 0.62055534 0.43068063 -0.14799352 -0.1960655 0.10958056 -0.10147909 -0.18053213 -0.02930608 -0.20037796 0.41815937 0.65533125 -0.18540081 -0.20561746 0.37796348 0.1588116 -0.13897398 -0.1484208 -0.07391301 0.19730397 -0.7449467 0.42720503 -0.21102896 0.0549385 0.33201823 -0.2329196 -0.049102616 -0.26048252 0.24251835 0.2878257 0.50846416 0.3817772 -0.5748589 -0.1361029 0.045074306 -0.15146399 0.26203793 -0.044879634 -0.6513727 -0.18434039 -0.2153175 0.18521486 0.09688539
1397 0.19865331 0.007946607 -0.17246105 0.24683033 0.1748267 0.009448244 0.18773669 0.37768984 0.37641102 -0.18758844 0.3115779 -0.013138568 0.20344488 0.13869691 -0.075872734 -0.35232323 -0.38471773 -0.106154166 0.13704628 0.25282556 0.07393677 0.23175395 0.32515743 -0.06863558 -0.39612803 0.054289173 -0.12469807 0.20655175 0.035164338 0.22700909 0.45313755 -0.070054926 0.064937875 0.041483056 -0.074490644 -0.51475585 -0.15323684 0.10613276 0.079993375 -0.10397713 0.6400528 0.2144188 0.3330666 0.36006936 -0.037052166 0.15598407 0.49523798 0.06992523 -0.5397499 0.5194398 -0.15315145 0.23086149 0.61745524 -0.31496933 -0.20189004 -0.12532958 0.14194185 -0.17121506 0.24680987 0.11272183 -0.1296355 -0.35062456 0.13891983 -0.075083554 -0.16312483 -0.2769465 -0.54189575 0.12230444 0.2882539 -0.20524542 0.1881765 0.6826289 -0.12186732 -0.09497227 0.15103458 0.052242536 0.21252882 -0.34112895 0.4421652 0.066025384 -0.2962121 -0.10314636 -0.4627321 -0.22050793 0.26071566 0.4576266 0.24345712 0.6040011 -0.16014959 -0.5428551 -0.43234473 -0.19927566 -0.07257961 0.041491836 0.49221313 -0.3353891 -0.15482458 0.15625337 0.19919959 -0.03503484
1386 0.466361 -0.26014912 -0.24820228 0.0077718655 0.15520443 0.012187697 0.0725136 0.262395 0.31001514 -0.33387423 0.1655045 0.14608371 0.03361025 0.26768127 0.0082815625 -0.403593 -0.4962864 -0.1222972 0.012644964 0.1100755 -0.1697179 0.15663338 0.44283077 -0.19071269 -0.5577372 -0.13045987 -0.28592098 0.3173203 0.108029254 0.3284826 0.4536494 -0.042147473 -0.22682156 -0.19081095 0.39998972 -0.18492112 -0.14174354 0.124435246 -0.042770848 0.3969351 0.6594698 0.30646005 0.30721837 0.5937806 0.24971592 -0.19223523 0.49395642 0.4777194 -0.80236435 0.2839222 -0.037634626 0.06803447 0.45275593 -0.41966718 -0.25429195 -0.08984238 0.35613582 -0.08598506 0.52906567 0.18785335 -0.24702016 -0.43762103 0.3966922 0.006027865 -0.2054852 -0.3188189 -0.15493084 0.3520661 0.17915069 -0.26865903 0.08770498 0.8215552 -0.18879186 -0.25775182 0.3110277 -0.26345488 0.21037924 -0.48469564 0.2051516 0.14409055 -0.020196868 0.024160048 -0.3273361 -0.29359603 -0.10806088 0.5859032 0.47645417 0.40251988 -0.021296872 -0.5014467 -0.34077674 -0.36908394 -0.37930065 -0.02647822 0.41615072 -0.816271 -0.45491585 -0.042164546 0.019446006 0.046505272
1516 0.419388 -0.48937377 -0.48631006 -0.115856655 0.21027201 -0.057461955 0.0758316 -0.006113143 0.28368953 -0.22834007 0.15566657 0.024102436 0.3544487 0.04957415 -0.14237082 -0.36350957 -0.4656096 0.042903773 0.13768637 0.026673015 -0.099062786 -0.121459514 0.17565125 -0.03760861 -0.08523997 -0.19768456 -0.41036215 0.2212829 -0.14434855 -0.07635971 0.34088722 -0.108118735 -0.26315087 -0.3446457 0.20301168 -0.35526314 -0.18578431 0.06198739 0.32104474 0.5078089 0.62251717 0.2845533 -0.184823 0.2929021 0.29888692 -0.10072774 0.17033418 0.5234705 -0.5753385 0.15530929 -0.152643 0.13253142 0.5878454 -0.44280064 -0.17029585 -0.07912045 -0.2001524 0.024830462 0.54302317 0.22202194 -0.16769086 -0.42723706 0.26643395 0.24646504 -0.21916127 -0.19718626 -0.2592341 0.3045996 0.2819071 -0.26369783 0.08611066 0.5505398 0.07349241 -0.17577262 0.2850647 -0.19274688 0.4745754 -0.24942856 0.32633996 0.101768784 0.12081007 0.30789632 -0.2035358 -0.13050316 -0.012847903 0.51792854 0.3140776 0.39368534 0.09194732 -0.3131633 -0.22083323 -0.40653926 -0.30349725 0.13912839 0.43051085 -0.79718333 -0.5334272 -0.08720619 0.060771234 0.103809506
1027 0.27983376 -0.40710178 -0.24586183 -0.31065124 0.097213365 -0.15695256 0.18686377 0.5517025 0.058828842 -0.26652217 0.09762097 0.06838064 0.13568494 0.010292657 -0.63925713 -0.45567986 0.050202366 0.1895052 -0.10582202 -0.023811603 -0.08324706 0.2170412 0.34999782 -0.24379264 0.10346391 -0.3611824 -0.6242791 0.34588546 -0.2287987 0.20776369 0.33367723 0.06150824 -0.49818558 0.112340234 0.6436599 0.32354513 0.2466858 0.26664475 -0.21302155 0.4731697 0.04185339 -0.22647974 -0.15968478 0.30910125 -0.084042676 -0.13473405 0.011034776 0.16998425 -0.36902168 0.31263533 0.016396852 0.49943748 0.48252973 -0.18778093 0.2215867 -0.05802426 -0.27781978 0.0023317407 0.6200619 0.23090544 -0.086648084 -0.15949823 0.10725527 -0.18209755 -0.20068061 0.2323689 0.12970616 0.23807937 0.238685 -0.070748396 -0.21419929 0.3459676 0.19625588 -0.25039884 -0.18894213 -0.28773692 0.35994008 -0.24139227 0.5111109 0.036515106 0.117591746 0.12481826 -0.1326097 0.064818636 -0.24804991 0.18166791 0.19386835 0.5712812 0.28159696 -0.6556605 0.10503196 -0.18506864 -0.2116305 0.54307044 -0.05303295 -0.823203 -0.23721153 0.042430952 0.0510984 -0.076772325
1273 0.51783806 -0.309732 -0.18008894 -0.3113351 0.42948225 0.022963481 0.026459122 0.2932889 0.026301542 -0.1765208 0.13395372 -0.399782 0.055799436 -0.13600856 -0.35423654 -0.40557984 -0.38659686 0.023440933 -0.0024261805 -0.03148305 -0.23023961 -0.26532638 0.101857774 -0.03709216 -0.32177573 -0.32539785 -0.24784604 0.21557213 -0.116966724 -0.20630722 -0.015771883 0.092357144 -0.31425568 -0.13361982 0.5048976 -0.15554379 0.1109741 0.25385803 -0.17256007 0.37728947 0.34364215 0.13989498 0.084275536 0.31013277 0.023189701 0.06332323 -0.11410514 0.1398126 0.033005543 0.5173653 0.25277185 0.27635172 0.77088964 -0.16901945 -0.0673238 0.067051604 -0.43964803 0.06387927 0.51620597 0.32556778 -0.27548954 -0.52220196 0.045081947 0.07373371 -0.1446255 0.24295802 0.2438504 0.17457075 0.16414072 0.07016391 0.022240737 0.48617002 -0.019111732 -0.15132399 0.0065008453 0.0907398 0.30325142 -0.39853048 0.39125386 0.034234185 0.044267725 0.2611199 -0.36987287 -0.22424105 -0.06317642 0.098248705 0.23009145 0.6771451 0.26370412 -0.47831422 -0.14621302 -0.13170567 -0.3929582 0.40902886 0.35575917 -0.8226803 -0.54424274 -0.22815505 0.029006677 -0.17047943
1047 0.24144568 -0.39792034 0.18249153 -0.27507436 0.069337055 -0.17507392 -0.14383976 0.43936238 -0.15212506 -0.19043308 0.27518135 0.14514443 0.030783622 0.13453363 -0.27845553 -0.43627113 -0.3279107 -0.11074362 -0.03187115 0.12462533 0.3255339 -0.167745 0.1750622 0.05072533 0.16931829 -0.10119932 -0.20371628 0.13921101 0.10808882 0.3295504 0.23671795 0.24866663 -0.27174023 0.15658844 0.7099823 0.14889073 -0.18792129 -0.30567646 -0.1431881 0.34411857 0.17141852 -0.05554978 0.07630102 0.28732812 -0.19301753 -0.08493859 -0.12983704 -0.029958526 -0.26915485 -0.020540424 0.053928904 1.0745816 0.25090018 -0.27067032 -0.19991241 -0.1801389 0.08959081 -0.008410554 0.7730207 0.20351256 0.13803735 -0.17214286 0.07802698 0.077881716 0.29841384 0.1617282 -0.1845078 0.09529664 0.5145551 -0.20722215 -0.2601417 0.44162506 -0.08941382 -0.17228116 0.030460259 -0.13283259 0.5733868 -0.42686242 0.23152325 0.07249733 -0.054678623 0.30209723 -0.27004215 -0.120574266 -0.13114098 0.07099665 0.2617316 0.7530175 0.10919233 -0.7403891 -0.082478784 0.034046475 -0.123610646 0.25816324 -0.029031066 -0.5097685 0.007236455 0.13449857 0.30007222 -0.11396292
1197 0.5437991 -0.38548785 -0.075447395 -0.29269925 0.32185084 -0.18196498 0.112141244 0.76306564 -0.44862777 -0.3606828 0.10105907 0.23653974 0.14450039 -0.15407704 -0.099135324 -0.4727469 -0.49036366 0.12286565 -0.08699611 0.42468375 0.0194853 -0.031108141 0.13364276 -0.021301901 -0.6843876 -0.3054331 -0.38412952 0.40214047 0.28690815 -0.19269012 0.546613 0.09531868 0.01758879 0.040234312 0.57040465 0.1254719 0.03348073 -0.049104422 -0.47741082 0.46700633 0.2715215 -0.019924764 0.6173242 0.8160684 0.15435438 -0.19362877 0.23121028 -0.109276704 0.0112971505 -0.14713806 0.35885397 0.6363432 0.6426629 -0.099134415 0.024089376 0.11460069 0.084240794 0.2649639 0.39445496 0.13531223 -0.36276302 -0.36289525 0.16485475 -0.16710007 -0.058831077 0.06079665 -0.26876593 0.16564469 0.6592312 -0.16120142 -0.019180797 0.5376017 -0.010065061 -0.20459534 -0.21556827 -0.2922692 0.21305045 -0.6086067 0.1332722 0.054176304 -0.10429761 0.34425142 -0.69893074 -0.599623 -0.015716078 0.10223977 0.12606081 0.3632041 0.15670884 -0.45619953 -0.1926547 0.15187061 -0.4694971 0.082059994 -0.14543797 -0.63449496 -0.070338845 0.1471254 0.2524945 -0.023980098
724 0.9933209 -0.2362137 -0.0600795 0.2119216 -0.41459733 0.36235502 -0.11764411 0.5056078 0.011597814 -0.4368065 0.1548515 0.4525791 -0.17300588 0.37803844 -0.6346541 -0.18342625 -0.19064726 0.5197666 -0.23650783 0.6979792 0.15352978 -0.3631501 0.38601515 0.01138611 -0.8735641 -0.4083814 -0.4260045 -0.26635942 0.0642163 0.41538686 0.44708538 0.12659766 -0.90641385 -0.14031172 -0.23363325 0.54738754 0.027553229 -0.4090305 0.3469225 0.538901 0.16419776 -0.20888303 0.47873107 0.6079947 -0.19005643 -0.39295042 -0.3692399 0.15114303 -0.020205336 0.34105876 -0.23591504 0.7547475 0.19222881 0.1310829 -0.29900828 -0.04241338 0.36785415 0.021439835 0.93564504 0.24624959 0.37789428 0.21891466 0.43601876 0.2730755 0.2697599 0.18637288 -1.0254964 0.57885677 -0.118922055 -0.54559314 0.59664863 0.6382912 -0.78655744 -0.3469094 -0.047943108 -0.026280947 0.2302575 -0.0933043 0.72897017 -0.01386687 0.24239005 0.23217092 0.07983774 0.093534864 0.020892588 0.16532801 0.18319042 0.58200306 0.050243463 -0.2880937 -0.6724302 -0.35782868 -0.6937511 0.36059082 -0.5738498 -0.72702956 0.21612073 -0.2796693 0.03177747 0.14847557
3732 0.4476593 -0.13836108 0.0872068 0.026025608 -0.04158036 0.34471872 0.037694942 -0.040316775 0.21259618 -0.07743667 0.006196926 0.048784144 -0.43733007 -0.66952735 0.019954521 -0.16689725 0.02551661 -0.4099436 0.09199434 0.5031366 -0.33910325 0.025817256 0.90639985 -0.034209333 -0.29232815 0.038023435 -0.43777704 0.17502995 0.07486702 -0.36964554 -0.23987886 -0.3017563 -0.1581868 -0.28722355 -0.16803938 0.10876829 -0.19129145 0.3830809 0.14033033 0.21393918 -0.36709386 -0.17996238 0.1808758 0.37226588 -0.20539537 0.473389 0.24022676 -0.297834 -0.009466942 0.31695932 0.27053896 0.12177655 0.5007325 -0.14765905 0.115377165 -0.529098 0.052726936 -0.18068486 0.053846315 -0.40410915 -0.3356805 -0.15857916 -0.14182721 0.017002592 0.22825767 0.375721 -0.6981993 0.07043274 -0.068403825 -0.46391195 0.6463974 -0.015955541 0.1641395 -0.05910966 0.29470757 -0.6757848 0.10507492 -0.1159416 0.3018591 -0.554137 -0.5896449 -0.5083141 -0.026224457 -0.5970346 0.3421519 0.092029534 -0.013485985 0.2814364 -0.21664245 -0.49038646 -0.104112685 -0.12119594 -0.5181283 -0.23127006 0.046102043 -0.17180188 0.27555645 -0.2171547 0.2528872 -0.5630746
